svm_type c_svc
kernel_type rbf
gamma 0.00119048
nr_class 6
total_sv 72
rho 0.378847 0.499692 0.178057 0.0267345 0.0766322 -0.0836204 -0.380087 -0.348743 -0.274995 -0.301546 -0.498054 -0.384062 -0.130738 -0.0382753 0.102997
label 8 10 12 13 15 16
nr_sv 12 12 12 12 12 12
SV
1 1 1 1 1 21:-0.999999 35:-0.999998 48:-1 49:0.968224 50:-1 63:-1 64:-0.999998 65:-1 77:-1 78:-0.999998 79:-1 86:-1 87:-1 88:-1 89:-1 90:-1 91:0.843734 92:-0.853363 93:-1 94:-1 95:-1 96:-1 97:-1 98:-1 104:-1 105:-1 106:-1 107:-1 108:-1 109:-1 110:-0.784459 111:-0.999998 112:-1 115:-1 116:-1 117:-1 118:-1 119:-0.999982 120:-0.999882 121:-1 122:-1 123:-1 124:-1 125:-1 126:-1 127:-1 128:-1 129:-1 130:-1 131:-1 132:-1 133:-0.039093 134:0.0267332 135:-1 136:-1 137:-1 138:-1 139:-1 140:-1 148:-1 149:-1 150:-1 151:-1 152:-1 153:-1 154:-0.999999 156:-1 157:-1 158:-1 159:-1 160:-1 161:-0.999998 162:-0.999974 163:-0.999998 164:-1 165:-1 166:-1 167:-1 168:-1 169:-1 170:-1 171:-1 172:-1 173:0.990753 174:-1 175:-1 176:-1 177:-1 178:-1 179:-1 180:-1 181:-1 182:-1 186:-1 187:-1 188:-1 189:-1 190:-1 191:-1 192:-1 193:-0.999999 194:-0.999997 195:-1 196:-1 197:-1 198:-1 199:-1 200:-1 201:-1 202:-1 203:-0.999994 204:-0.999993 205:-0.986358 206:-1 207:-1 208:-1 209:-1 210:-1 211:-1 212:0.243875 213:-0.155488 214:-0.254552 215:-0.855479 216:-1 217:-1 218:-1 219:-1 220:-1 221:-1 222:-1 223:-1 224:-1 227:-1 228:-1 229:-1 230:-1 231:-1 232:-1 233:-0.999996 234:-1 235:-1 236:-1 237:-0.933405 238:-0.200867 239:-1 240:-1 241:-1 242:-1 243:-0.999997 244:-0.95964 245:-0.999953 246:-0.999999 247:-1 248:-1 249:-1 250:-1 251:-1 252:-1 253:-1 254:-0.514409 255:-0.0560004 256:0.0153843 257:-0.367845 258:-0.919835 259:-1 260:-1 261:-1 262:-1 263:-1 264:-1 265:-1 266:-1 268:-1 269:-1 270:-1 271:-1 272:-1 273:-0.999998 274:-1 275:-1 276:-0.999997 277:-0.999999 278:-1 279:-1 280:-0.90606 281:-1 282:-0.999998 283:-0.999999 284:-0.999992 285:-0.999999 286:-0.999997 287:-0.999978 288:-0.880845 289:-1 290:-1 291:-1 292:-1 293:-1 294:-1 295:-1 296:-0.693506 297:-0.333939 298:-0.00597781 299:-0.237226 300:-0.811059 301:-1 302:-1 303:-1 304:-1 305:-1 306:-1 307:-1 308:-1 310:-1 311:-1 312:-1 313:-1 314:-0.999998 315:-1 316:-0.999999 317:-1 318:-0.999999 319:-0.955227 320:-1 321:-1 322:-0.999962 323:-0.999999 324:-0.999998 325:-0.999997 326:-0.999997 327:-0.999999 328:-0.999996 329:-0.999991 330:-0.926238 331:-1 332:-1 333:-1 334:-1 335:-1 336:-1 337:-1 338:-1 339:-1 340:-1 341:-1 342:-1 343:-1 344:-1 345:-0.927273 346:0.91209 347:-1 348:-1 349:-1 350:-1 351:-1 354:-1 355:-1 356:-1 357:-1 358:-1 359:-1 360:-1 361:-0.999999 362:-0.999999 363:-0.999999 364:-1 366:-1 367:-1 368:-1 369:-1 370:-1 371:-1 372:-0.942726 373:-0.999996 374:-0.999988 375:-1 376:-1 378:-1 379:-1 380:-1 381:-1 382:-1 383:-1 384:-1 385:-1 386:-1 387:-0.95732 388:-0.466697 389:-0.446169 390:-0.145497 391:-0.89639 392:-0.893636 393:-1 395:-1 396:-1 397:-1 398:-1 399:-1 400:-0.999997 401:-0.999999 402:-1 403:-0.999998 404:-1 405:-1 406:-0.999972 407:-1 408:-1 409:-1 410:-1 411:-1 412:-0.999999 413:-0.999986 414:-0.999998 415:-0.892009 416:-0.999989 417:-1 418:-1 419:-1 420:-1 421:-1 422:-1 423:-1 424:-1 425:-1 426:-1 427:-1 428:-1 429:-0.981824 430:-0.481912 431:0.793306 432:-0.350281 433:-0.805372 434:-0.863522 435:-1 436:-1 437:-1 438:-1 439:-1 440:-1 441:-0.999998 442:-0.999996 443:-0.999999 444:-0.999999 445:-0.999999 446:-1 447:-1 448:-0.999999 449:-1 450:-1 451:-1 452:-0.999999 453:-0.999999 454:-1 455:-0.999999 456:-0.999989 457:-0.999992 458:-0.751379 459:-1 460:-1 461:-1 462:-1 463:-1 464:-1 465:-1 466:-1 467:-1 468:-1 469:-1 470:-1 471:-0.901286 472:0.233912 473:0.203108 474:-0.553194 475:-0.827638 476:-0.885418 477:-1 478:-1 479:-1 480:-1 481:-1 482:-1 483:-0.666236 484:-0.999999 485:-0.999999 486:-1 487:-0.999999 488:-1 489:-0.999999 490:-0.999999 491:-0.62159 492:-1 493:-0.999999 494:-0.999998 495:-1 496:-1 497:-1 498:-0.999993 499:-0.999995 500:-0.778018 501:-1 502:-1 503:-1 504:-1 508:-1 509:-1 510:0.985388 511:-1 512:-1 513:-1 514:-1 515:-1 523:-1 524:-0.999998 525:-0.999999 526:-1 527:-1 534:-1 535:-1 536:-1 537:-1 538:-1 539:-0.999988 540:-1 541:-1 542:-1 547:-1 548:-1 549:-1 550:-1 551:-1 552:0.972883 553:-0.980303 554:-1 555:-1 556:-1 557:-1 558:-1 559:-1 560:-1 561:-1 562:-1 563:-1 564:-0.816495 565:-0.999999 566:-0.804435 567:-0.902328 568:-1 569:-1 570:-1 571:-1 572:-1 575:-0.999691 576:-0.999993 577:-1 578:-1 579:-1 580:-1 581:-1 582:-1 583:-1 584:-1 588:-1 589:-1 590:-1 591:-1 592:-1 593:-0.945459 594:1 595:-1 596:-1 597:-1 598:-1 599:-1 600:-1 601:-1 602:-1 603:-0.999999 604:-0.999996 605:-0.95964 606:-1 607:-1 608:-1 609:-1 610:-1 611:-1 612:-1 617:-0.999991 618:-0.948934 619:-0.902839 620:-1 621:-1 622:-1 623:-1 624:-1 625:-1 626:-1 629:-1 630:-1 631:-1 632:-1 633:-1 634:-1 635:-1 636:0.99998 637:-1 638:-1 639:-1 640:-1 641:-1 642:-1 643:-1 644:-1 645:-0.999999 646:-0.99995 647:-1 648:-1 649:-1 650:-1 651:-1 652:-1 653:-1 659:-0.99999 660:-0.92533 661:-1 662:-1 663:-1 664:-1 665:-1 666:-1 667:-1 668:-1 672:-1 676:-1 677:-1 678:-1 679:-1 680:-1 681:0.98742 682:-1 683:-1 688:-1 689:-1 690:-1 691:-1 692:-0.999982 693:-1 694:-1 704:-1 705:-1 706:-1 707:-1 708:-0.999959 709:-1 710:-1 711:-1 715:-1 716:-1 717:-1 718:-1 719:-1 720:-1 721:-1 722:-1 723:-1 724:1 725:-1 726:-1 727:-1 728:-1 729:-1 730:-1 731:-1 732:-0.998871 733:-0.999999 734:-0.854126 735:-0.783053 736:-1 737:-1 738:-1 739:-1 740:-1 743:-0.99999 744:-0.999993 745:-0.934681 746:-1 747:-1 748:-1 749:-1 750:-1 751:-1 752:-1 753:-1 755:-1 756:-1 757:-1 758:-1 759:-1 760:-1 761:-1 762:-1 763:-1 764:-1 765:-1 766:-0.389474 767:0.423311 768:-1 769:-1 770:-1 771:-0.999999 772:-0.999997 773:-0.999972 774:-1 775:-1 776:-1 777:-1 778:-1 779:-1 780:-1 781:-1 782:-1 785:-0.999992 786:-0.952771 787:-0.971724 788:-1 789:-1 790:-1 791:-1 792:-1 793:-1 794:-1 795:-1 797:-1 798:-1 799:-1 800:-1 801:-1 802:-1 803:-1 804:-1 805:-1 806:-1 807:-1 808:-0.576589 809:0.856991 810:-1 811:-1 812:-1 813:-0.999999 814:-0.999996 815:-1 816:-1 817:-1 818:-1 819:-1 820:-1 821:-1 822:-1 827:-0.99999 828:-0.970673 829:-1 830:-1 831:-1 832:-1 833:-1 834:-1 835:-1 836:-1 837:-1 838:-1 840:-1 
1 1 1 1 1 21:-1 35:-1 48:-1 49:0.459666 50:-0.488265 63:-1 64:-1 65:-1 77:-1 78:-1 79:-1 86:-1 87:-1 88:-1 89:-1 90:-1 91:0.225187 92:-0.214995 93:-1 94:-1 95:-1 96:-1 97:-1 98:-1 104:-1 105:-1 106:-1 107:-1 108:-1 109:-1 110:-0.999969 111:-1 112:-1 115:-1 116:-1 117:-1 118:-1 119:-1 120:-1 121:-1 122:-1 123:-1 124:-1 125:-1 126:-1 127:-1 128:-1 129:-1 130:-1 131:-0.935404 132:-0.337039 133:-0.797096 134:0.143817 135:0.309661 136:-1 137:-1 138:-1 139:-1 140:-1 148:-1 149:-1 150:-1 151:-1 152:-1 153:-1 154:-1 156:-1 157:-1 158:-1 159:-1 160:-0.999958 161:-1 162:-1 163:-1 164:-1 165:-1 166:-1 167:-1 168:-1 169:-1 170:-1 171:-1 172:-0.450089 173:0.037119 174:-0.065673 175:-1 176:-1 177:-1 178:-1 179:-1 180:-1 181:-1 182:-1 186:-1 187:-1 188:-1 189:-1 190:-1 191:-0.999952 192:-1 193:-1 194:-1 195:-1 196:-1 197:-1 198:-1 199:-1 200:-1 201:-1 202:-1 203:-1 204:-1 205:-0.999983 206:-1 207:-1 208:-1 209:-1 210:-1 211:-1 212:-0.241564 213:-0.23583 214:-0.316392 215:-0.68018 216:-0.877176 217:-0.839319 218:-1 219:-1 220:-1 221:-1 222:-1 223:-1 224:-1 227:-1 228:-1 229:-1 230:-1 231:-1 232:-1 233:-1 234:-1 235:-1 236:-1 237:-0.999922 238:-0.999634 239:-1 240:1 241:-0.854396 242:-1 243:-1 244:-0.999989 245:-1 246:-1 247:-0.999972 248:-1 249:-1 250:-0.999996 251:0.411765 252:-1 253:-0.3751 254:0.0471209 255:-0.324049 256:-0.366951 257:-0.726913 258:-0.745483 259:-0.837755 260:-0.358032 261:-0.748451 262:-1 263:-1 264:-1 265:-1 266:-1 268:-1 269:-1 270:-1 271:-1 272:-1 273:-1 274:-1 275:-1 276:-1 277:-1 278:-1 279:-1 280:-0.999938 281:-1 282:-1 283:-1 284:-1 285:-1 286:-1 287:-1 288:-0.999985 289:-1 290:-1 291:-1 292:-0.999986 293:-1 294:-1 295:-0.199533 296:-0.492691 297:-0.705148 298:-0.300675 299:-0.786629 300:-0.703761 301:-0.680266 302:-0.473553 303:-0.68984 304:-0.892194 305:-1 306:-1 307:-1 308:-1 310:-1 311:-1 312:-1 313:-1 314:-1 315:-1 316:-1 317:-1 318:-1 319:-0.99993 320:-1 321:-1 322:-1 323:-1 324:-1 325:-1 326:-1 327:-1 328:-1 329:-1 330:-0.999969 331:-1 332:-1 333:-1 334:-0.51515 335:-1 336:-1 337:-1 338:-1 339:-1 340:-1 341:-1 342:-1 343:-1 344:-1 345:0.000448 346:-0.0205707 347:-0.9369 348:-1 349:-1 350:-1 351:-1 354:-1 355:-1 356:-1 357:-1 358:-1 359:-1 360:-1 361:-1 362:-1 363:-1 364:-1 366:-1 367:-1 368:-1 369:-1 370:-1 371:-1 372:-0.999984 373:-1 374:-1 375:-0.986561 376:-1 378:-1 379:-1 380:-1 381:-1 382:-1 383:-1 384:-1 385:-1 386:-1 387:-0.651973 388:-0.3224 389:-0.58024 390:-0.574993 391:-0.342737 392:-0.89101 393:-1 395:-1 396:-1 397:-1 398:-1 399:-1 400:-1 401:-1 402:-1 403:-1 404:-1 405:-1 406:-1 407:-1 408:-1 409:-1 410:-1 411:-1 412:-1 413:-1 414:-1 415:-0.999962 416:-1 417:-1 418:-0.996382 419:-1 420:-1 421:-1 422:-1 423:-1 424:-1 425:-1 426:-1 427:-0.925939 428:-0.655008 429:-0.839442 430:-0.427232 431:-0.530107 432:0.157831 433:-0.426128 434:-0.134233 435:-1 436:-1 437:-1 438:-1 439:-1 440:-1 441:-1 442:-1 443:-1 444:-1 445:-1 446:-1 447:-1 448:-1 449:-0.994125 450:-0.999848 451:-1 452:-1 453:-1 454:-1 455:-1 456:-1 457:-1 458:-0.999821 459:-0.999473 460:-0.984798 461:-1 462:-1 463:-1 464:-1 465:-1 466:-1 467:-1 468:-0.890499 469:-0.861181 470:-0.861995 471:-0.784901 472:-0.664579 473:-0.231352 474:-0.255628 475:-0.413757 476:-0.0656625 477:-1 478:-1 479:-1 480:-1 481:-1 482:-1 483:-0.999981 484:-1 485:-1 486:-1 487:-1 488:-1 489:-1 490:-1 491:-0.99928 492:-1 493:-1 494:-1 495:-1 496:-1 497:-1 498:-1 499:-1 500:-0.999826 501:-0.999878 502:-0.994298 503:-1 504:-1 508:-1 509:-1 510:0.035324 511:-0.0562322 512:-1 513:-1 514:-1 515:-1 523:-1 524:-1 525:-1 526:-1 527:-1 534:-1 535:-1 536:-1 537:-1 538:-1 539:-1 540:-1 541:-1 542:-1 547:-1 548:-1 549:-1 550:-1 551:-0.0884659 552:0.117716 553:-0.906257 554:-1 555:-1 556:-1 557:-1 558:-1 559:-1 560:-1 561:-1 562:-1 563:-1 564:-1 565:-1 566:-1 567:-1 568:-1 569:-1 570:-1 571:-1 572:-1 575:-1 576:-1 577:-1 578:-1 579:-1 580:-1 581:-1 582:-1 583:-1 584:-1 588:-1 589:-1 590:-1 591:-0.817664 592:0.454685 593:-0.333049 594:-0.733851 595:-1 596:-1 597:-1 598:-1 599:-1 600:-1 601:-1 602:-1 603:-1 604:-1 605:-1 606:-1 607:-1 608:-1 609:-1 610:-1 611:-1 612:-1 617:-1 618:-1 619:-1 620:-1 621:-1 622:-1 623:-1 624:-1 625:-1 626:-1 629:-1 630:-1 631:-1 632:-1 633:-0.904033 634:0.14226 635:0.272981 636:-0.815996 637:-0.956947 638:-1 639:-1 640:-1 641:-1 642:-1 643:-1 644:-1 645:-1 646:-1 647:-1 648:-1 649:-1 650:-1 651:-1 652:-1 653:-1 659:-1 660:-1 661:-1 662:-0.999967 663:-1 664:-1 665:-1 666:-1 667:-1 668:-1 672:-1 676:-1 677:-1 678:-1 679:-1 680:-0.201318 681:0.182697 682:-1 683:-1 688:-1 689:-1 690:-1 691:-1 692:-1 693:-1 694:-1 704:-1 705:-1 706:-1 707:-1 708:-1 709:-0.999457 710:-1 711:-1 715:-1 716:-1 717:-1 718:-1 719:-1 720:-1 721:-1 722:-1 723:0.570473 724:-0.570552 725:-1 726:-1 727:-1 728:-1 729:-1 730:-1 731:-1 732:-1 733:-1 734:-1 735:-1 736:-1 737:-1 738:-1 739:-1 740:-1 743:-1 744:-1 745:-1 746:-1 747:-1 748:-1 749:-1 750:-1 751:-1 752:-1 753:-1 755:-1 756:-1 757:-1 758:-1 759:-1 760:-1 761:-1 762:-1 763:-1 764:-1 765:-0.876548 766:0.586615 767:-0.664881 768:-1 769:-1 770:-1 771:-1 772:-1 773:-1 774:-1 775:-1 776:-1 777:-1 778:-1 779:-1 780:-1 781:-1 782:-1 785:-1 786:-1 787:-1 788:-1 789:-1 790:-1 791:-1 792:-1 793:-1 794:-1 795:-1 797:-1 798:-1 799:-1 800:-1 801:-1 802:-1 803:-1 804:-1 805:-1 806:-1 807:-0.92593 808:0.339494 809:-0.105894 810:-1 811:-1 812:-1 813:-1 814:-1 815:-1 816:-1 817:-1 818:-1 819:-1 820:-1 821:-1 822:-1 827:-1 828:-1 829:-1 830:-1 831:-1 832:-1 833:-1 834:-1 835:-1 836:-1 837:-1 838:-1 840:-1 
1 1 1 1 1 21:-0.999979 35:-0.999969 48:-1 49:0.983816 50:-0.994556 63:-1 64:-0.999954 65:-1 77:-1 78:-0.999969 79:-1 86:-1 87:-1 88:-1 89:-1 90:-1 91:0.25983 92:-0.240916 93:-1 94:-1 95:-1 96:-1 97:-1 98:-1 104:-1 105:-1 106:-1 107:-1 108:-1 109:-0.999795 110:-0.130462 111:-1 112:-1 115:-1 116:-1 117:-1 118:-1 119:-1 120:-0.996977 121:-0.999993 122:-0.99999 123:-1 124:-1 125:-1 126:-1 127:-1 128:-1 129:-1 130:-1 131:-0.999313 132:-0.929472 133:0.232707 134:-0.25007 135:-0.986067 136:-1 137:-1 138:-1 139:-1 140:-1 148:-1 149:-1 150:-1 151:-1 152:-1 153:-1 154:-0.999979 156:-1 157:-1 158:-1 159:-1 160:-1 161:-0.999915 162:-0.999004 163:-0.99999 164:-0.999997 165:-1 166:-1 167:-1 168:-1 169:-1 170:-1 171:-1 172:-0.938057 173:0.980608 174:-0.99006 175:-1 176:-1 177:-1 178:-1 179:-1 180:-1 181:-1 182:-1 186:-1 187:-1 188:-1 189:-1 190:-1 191:-1 192:-0.99986 193:-0.999955 194:-1 195:-1 196:-1 197:-1 198:-1 199:-1 200:-1 201:-1 202:-1 203:-1 204:-0.999775 205:-0.692718 206:-1 207:-1 208:-1 209:-1 210:-1 211:-1 212:0.140196 213:0.781183 214:-0.737416 215:-0.996598 216:-0.998693 217:-0.998291 218:-1 219:-1 220:-1 221:-1 222:-1 223:-1 224:-1 227:-1 228:-1 229:-1 230:-1 231:-0.999998 232:-0.999993 233:-0.999997 234:-0.999999 235:-0.999976 236:-0.999955 237:1 238:1 239:-1 240:-1 241:-1 242:-1 243:-1 244:1 245:-0.999526 246:-1 247:-1 248:-1 249:-1 250:-1 251:-1 252:-1 253:-0.744824 254:1 255:0.212298 256:-0.237129 257:-0.638248 258:-0.966022 259:-0.998274 260:-0.993171 261:-0.997324 262:-1 263:-1 264:-1 265:-1 266:-1 268:-1 269:-1 270:-1 271:-1 272:-0.999998 273:-0.99998 274:-1 275:-0.999998 276:-0.999928 277:-1 278:-0.999992 279:-0.999953 280:1 281:-1 282:-1 283:-0.999993 284:-0.999898 285:-0.999868 286:-0.999903 287:-0.999746 288:-0.23318 289:-1 290:-1 291:-1 292:-1 293:-1 294:-1 295:-0.728718 296:-0.123563 297:0.116609 298:-0.269485 299:-0.615846 300:-0.731527 301:-0.996599 302:-0.994399 303:-0.9967 304:-0.998853 305:-1 306:-1 307:-1 308:-1 310:-1 311:-1 312:-1 313:-1 314:-0.999976 315:-1 316:-0.999988 317:-0.999996 318:-0.999988 319:-1 320:-0.999996 321:-0.999994 322:-0.999093 323:-1 324:-0.999975 325:-0.999981 326:-0.999848 327:-0.999925 328:-0.99991 329:-0.999865 330:0.246087 331:-0.999999 332:-1 333:-1 334:-1 335:-1 336:-1 337:-1 338:-1 339:-1 340:-1 341:-1 342:-1 343:-1 344:-1 345:-0.712762 346:0.720247 347:-0.999329 348:-1 349:-1 350:-1 351:-1 354:-1 355:-1 356:-1 357:-1 358:-1 359:-1 360:-0.999908 361:-0.999884 362:-1 363:-1 364:-1 366:-1 367:-1 368:-1 369:-1 370:-1 371:-1 372:-1 373:-0.999773 374:-0.999974 375:-1 376:-1 378:-1 379:-1 380:-1 381:-1 382:-1 383:-1 384:-1 385:-1 386:-1 387:-0.996298 388:-0.885237 389:-0.810386 390:-0.250835 391:0.744846 392:-0.812138 393:-1 395:-1 396:-1 397:-1 398:-1 399:-0.999762 400:-0.999989 401:-0.999999 402:-0.999998 403:-0.999882 404:-0.999974 405:-0.999983 406:-0.999811 407:-1 408:-1 409:-1 410:-1 411:-1 412:-1 413:-1 414:-0.999799 415:1 416:-1 417:-1 418:-1 419:-1 420:-1 421:-1 422:-1 423:-1 424:-1 425:-1 426:-1 427:-0.999212 428:-0.99633 429:-0.998292 430:-0.791865 431:-0.356322 432:0.766874 433:-0.158788 434:0.340116 435:-1 436:-1 437:-1 438:-1 439:-0.999959 440:-0.999993 441:-0.999998 442:-1 443:-0.999988 444:-1 445:-0.999988 446:-0.999994 447:-0.999987 448:-0.999968 449:-1 450:-1 451:-1 452:-1 453:-1 454:-0.999996 455:-0.999717 456:-0.999721 457:-0.999879 458:1 459:1 460:-1 461:-1 462:-1 463:-1 464:-1 465:-1 466:-1 467:-1 468:-0.998835 469:-0.998523 470:-0.998532 471:-0.974608 472:-0.619795 473:-0.383878 474:0.402205 475:-0.186966 476:0.172011 477:-1 478:-1 479:-1 480:-1 481:-0.999984 482:-0.999999 483:-0.731506 484:-1 485:-0.999988 486:-1 487:-0.999988 488:-1 489:-0.999991 490:-0.999968 491:-1 492:-1 493:-1 494:-1 495:-1 496:-0.999983 497:-0.999892 498:-0.999861 499:-0.999913 500:1 501:1 502:-1 503:-1 504:-1 508:-1 509:-1 510:0.933039 511:-0.927016 512:-1 513:-1 514:-1 515:-1 523:-1 524:-0.999958 525:-0.999992 526:-1 527:-1 534:-1 535:-1 536:-1 537:-1 538:-1 539:-0.999765 540:-1 541:-1 542:-1 547:-1 548:-1 549:-1 550:-1 551:-0.89363 552:0.918121 553:-0.999003 554:-1 555:-1 556:-1 557:-1 558:-1 559:-1 560:-1 561:-1 562:-1 563:-1 564:1 565:-0.999873 566:-0.471403 567:1 568:-1 569:-1 570:-1 571:-1 572:-1 575:-0.998407 576:-0.999827 577:0.344365 578:-1 579:-1 580:-1 581:-1 582:-1 583:-1 584:-1 588:-1 589:-1 590:-1 591:-0.99806 592:-0.984525 593:-0.992905 594:0.88392 595:-0.723876 596:-1 597:-1 598:-1 599:-1 600:-1 601:-1 602:-1 603:-0.999999 604:-0.999777 605:1 606:1 607:-1 608:-1 609:-1 610:-1 611:-1 612:-1 617:-0.999765 618:-1 619:-1 620:-1 621:-1 622:-1 623:-1 624:-1 625:-1 626:-1 629:-1 630:-1 631:-1 632:-1 633:-0.998979 634:-0.987848 635:-0.965233 636:-0.295952 637:0.493579 638:-1 639:-1 640:-1 641:-1 642:-1 643:-1 644:-1 645:-0.999989 646:-0.998914 647:1 648:-1 649:-1 650:-1 651:-1 652:-1 653:-1 659:-0.999765 660:-1 661:-1 662:-1 663:-1 664:-1 665:-1 666:-1 667:-1 668:-1 672:-1 676:-1 677:-1 678:-1 679:-1 680:-0.991503 681:1 682:-1 683:-1 688:-1 689:-1 690:-1 691:-1 692:-0.999699 693:-0.999997 694:-1 704:-1 705:-1 706:-1 707:-0.999943 708:-0.999948 709:-1 710:-1 711:-1 715:-1 716:-1 717:-1 718:-1 719:-1 720:-1 721:-1 722:-1 723:-0.876915 724:0.898186 725:-1 726:-1 727:-1 728:-1 729:-1 730:-1 731:-1 732:-0.984907 733:-0.999895 734:1 735:-1 736:-1 737:-1 738:-1 739:-1 740:-1 743:-1 744:-0.999822 745:-0.249347 746:-1 747:-1 748:-1 749:-1 750:-1 751:-1 752:-1 753:-1 755:-1 756:-1 757:-1 758:-1 759:-1 760:-1 761:-1 762:-1 763:-1 764:-1 765:0.0863765 766:-0.0521766 767:-0.996435 768:-1 769:-1 770:-1 771:-1 772:-0.99983 773:-0.99857 774:-0.998808 775:-1 776:-1 777:-1 778:-1 779:-1 780:-1 781:-1 782:-1 785:-0.999765 786:-1 787:-1 788:-1 789:-1 790:-1 791:-1 792:-1 793:-1 794:-1 795:-1 797:-1 798:-1 799:-1 800:-1 801:-1 802:-1 803:-1 804:-1 805:-1 806:-1 807:-0.360952 808:0.575015 809:-0.966343 810:-1 811:-1 812:-1 813:-0.999992 814:-0.999753 815:-0.99991 816:-0.999682 817:-1 818:-1 819:-1 820:-1 821:-1 822:-1 827:-0.999765 828:-1 829:-1 830:-1 831:-1 832:-1 833:-1 834:-1 835:-1 836:-1 837:-1 838:-1 840:-1 
1 1 1 1 1 21:-1 35:-1 48:-1 49:0.0769821 50:-0.103053 63:-1 64:-1 65:-1 77:-1 78:-1 79:-1 86:-1 87:-1 88:-1 89:-1 90:-1 91:-0.193476 92:0.209446 93:-1 94:-1 95:-1 96:-1 97:-1 98:-1 104:-1 105:-1 106:-1 107:-1 108:-1 109:-1 110:-0.999645 111:-1 112:-1 115:-1 116:-1 117:-1 118:-1 119:-1 120:-1 121:-1 122:-1 123:-1 124:-1 125:-1 126:-1 127:-1 128:-1 129:-1 130:-1 131:-0.999996 132:-0.689586 133:0.108775 134:-0.210284 135:-0.99991 136:-1 137:-1 138:-1 139:-1 140:-1 148:-1 149:-1 150:-1 151:-1 152:-1 153:-0.99794 154:-1 156:-1 157:-1 158:-1 159:-1 160:-1 161:-1 162:-1 163:-1 164:-1 165:-1 166:-1 167:-1 168:-1 169:-1 170:-1 171:-1 172:-0.794168 173:0.809519 174:-0.854028 175:-1 176:-1 177:-1 178:-1 179:-1 180:-1 181:-1 182:-1 186:-1 187:-1 188:-1 189:-1 190:-1 191:-1 192:-1 193:-1 194:-1 195:-1 196:-1 197:-1 198:-1 199:-1 200:-1 201:-1 202:-1 203:-1 204:-1 205:-0.999808 206:-1 207:-1 208:-1 209:-1 210:-1 211:-1 212:-0.235741 213:0.28898 214:-0.258042 215:-0.974171 216:-0.999992 217:-0.999989 218:-1 219:-1 220:-1 221:-1 222:-1 223:-1 224:-1 227:-1 228:-1 229:-1 230:-1 231:-1 232:-1 233:-1 234:-1 235:-1 236:-1 237:-0.999749 238:-0.999536 239:-1 240:-1 241:-1 242:-1 243:-1 244:-0.999973 245:-1 246:-1 247:-0.999821 248:-1 249:-1 250:-1 251:-1 252:-1 253:-0.846644 254:-0.293312 255:-0.0419962 256:0.0598988 257:-0.520571 258:-0.86617 259:-0.999989 260:-0.999956 261:-0.999983 262:-1 263:-1 264:-1 265:-1 266:-1 268:-1 269:-1 270:-1 271:-1 272:-1 273:-1 274:-1 275:-1 276:-1 277:-1 278:-1 279:-1 280:-0.99979 281:-1 282:-1 283:-1 284:-1 285:-1 286:-1 287:-1 288:-0.999744 289:-1 290:-1 291:-1 292:-1 293:-1 294:-1 295:-0.837849 296:-0.49391 297:-0.177164 298:-0.189298 299:-0.401065 300:-0.755333 301:-0.86544 302:-0.999964 303:-0.999979 304:-0.999993 305:-1 306:-1 307:-1 308:-1 310:-1 311:-1 312:-1 313:-1 314:-1 315:-1 316:-1 317:-1 318:-1 319:-0.999945 320:-1 321:-1 322:-1 323:-1 324:-1 325:-1 326:-1 327:-1 328:-1 329:-1 330:-0.999853 331:-1 332:-1 333:-1 334:-1 335:-1 336:-1 337:-1 338:-1 339:-1 340:-1 341:-1 342:-1 343:-1 344:-1 345:-0.894239 346:0.441373 347:0.161612 348:-1 349:-1 350:-1 351:-1 354:-1 355:-1 356:-1 357:-1 358:-1 359:-1 360:-1 361:-1 362:-1 363:-1 364:-1 366:-1 367:-1 368:-1 369:-1 370:-1 371:-1 372:-0.999895 373:-1 374:-1 375:-1 376:-1 378:-1 379:-1 380:-1 381:-1 382:-1 383:-1 384:-1 385:-1 386:-0.974129 387:-0.817061 388:-0.710298 389:-0.786865 390:-0.176995 391:0.0967689 392:-0.922806 393:-1 395:-1 396:-1 397:-1 398:-1 399:-1 400:-1 401:-1 402:-1 403:-1 404:-1 405:-1 406:-1 407:-1 408:-1 409:-1 410:-1 411:-1 412:-1 413:-1 414:-1 415:-0.999952 416:-1 417:-1 418:-1 419:-1 420:-1 421:-1 422:-1 423:-1 424:-1 425:-1 426:-1 427:-0.948056 428:-0.703046 429:-0.909107 430:-0.646234 431:-0.0676168 432:0.760716 433:-0.623818 434:-0.698845 435:-1 436:-1 437:-1 438:-1 439:-1 440:-1 441:-1 442:-1 443:-1 444:-1 445:-1 446:-1 447:-1 448:-1 449:-1 450:-1 451:-1 452:-1 453:-1 454:-1 455:-1 456:-1 457:-1 458:-1 459:-1 460:-1 461:-1 462:-1 463:-1 464:-1 465:-1 466:-1 467:-1 468:-0.999992 469:-0.883166 470:-0.813339 471:-0.901121 472:-0.44192 473:-0.0194551 474:0.285696 475:-0.543297 476:-0.774139 477:-1 478:-1 479:-1 480:-1 481:-1 482:-1 483:-0.999985 484:-1 485:-1 486:-1 487:-1 488:-1 489:-1 490:-1 491:-1 492:-1 493:-1 494:-1 495:-1 496:-1 497:-1 498:-1 499:-1 500:-1 501:-1 502:-1 503:-1 504:-1 508:-1 509:-1 510:0.598285 511:-0.602519 512:-1 513:-1 514:-1 515:-1 523:-1 524:-1 525:-1 526:-1 527:-1 534:-1 535:-1 536:-1 537:-1 538:-1 539:-1 540:-1 541:-1 542:-1 547:-1 548:-1 549:-1 550:-1 551:-0.379722 552:0.460106 553:-0.999994 554:-1 555:-1 556:-1 557:-1 558:-1 559:-1 560:-1 561:-1 562:-1 563:-1 564:-1 565:-1 566:-1 567:-1 568:-1 569:-1 570:-1 571:-1 572:-1 575:-1 576:-1 577:-1 578:-1 579:-1 580:-1 581:-1 582:-1 583:-1 584:-1 588:-1 589:-1 590:-1 591:-0.999987 592:-0.923387 593:-0.27274 594:-0.146666 595:-0.345103 596:-1 597:-1 598:-1 599:-1 600:-1 601:-1 602:-1 603:-1 604:-1 605:-1 606:-1 607:-1 608:-1 609:-1 610:-1 611:-1 612:-1 617:-1 618:-1 619:-1 620:-1 621:-1 622:-1 623:-1 624:-1 625:-1 626:-1 629:-1 630:-1 631:-1 632:-1 633:-0.999993 634:-0.10907 635:-0.507465 636:0.108436 637:-0.944732 638:-1 639:-1 640:-1 641:-1 642:-1 643:-1 644:-1 645:-1 646:-1 647:-1 648:-1 649:-1 650:-1 651:-1 652:-1 653:-1 659:-1 660:-1 661:-1 662:-1 663:-1 664:-1 665:-1 666:-1 667:-0.998586 668:-1 672:-1 676:-1 677:-1 678:-1 679:-1 680:-0.974494 681:0.961857 682:-1 683:-1 688:-1 689:-1 690:-1 691:-1 692:-1 693:-1 694:-1 704:-1 705:-1 706:-1 707:-1 708:-1 709:-1 710:-1 711:-1 715:-1 716:-1 717:-1 718:-1 719:-1 720:-1 721:-1 722:-0.0364135 723:0.24749 724:-0.922739 725:-1 726:-1 727:-1 728:-1 729:-1 730:-1 731:-1 732:-1 733:-1 734:-1 735:-1 736:-1 737:-1 738:-1 739:-1 740:-1 743:-1 744:-1 745:-1 746:-1 747:-1 748:-1 749:-0.999998 750:-1 751:-1 752:-1 753:-1 755:-1 756:-1 757:-1 758:-1 759:-1 760:-1 761:-1 762:-1 763:-1 764:-0.155255 765:-0.0189592 766:-0.716333 767:-0.947164 768:-1 769:-1 770:-1 771:-1 772:-1 773:-1 774:-1 775:-1 776:-1 777:-1 778:-1 779:-1 780:-1 781:-1 782:-1 785:-1 786:-1 787:-1 788:-1 789:-1 790:-1 791:-1 792:-1 793:-1 794:-1 795:-1 797:-1 798:-1 799:-1 800:-1 801:-1 802:-1 803:-1 804:-1 805:-0.536897 806:-0.48052 807:-0.177717 808:-0.551241 809:-0.896615 810:-1 811:-1 812:-1 813:-1 814:-1 815:-1 816:-1 817:-1 818:-1 819:-1 820:-1 821:-1 822:-1 827:-1 828:-1 829:-1 830:-1 831:-1 832:-1 833:-0.999999 834:-1 835:-1 836:-1 837:-1 838:-1 840:-1 
1 1 1 1 1 21:-1 35:-1 48:-1 49:0.97375 50:-0.995424 63:-1 64:-1 65:-1 77:-1 78:-1 79:-1 86:-1 87:-1 88:-1 89:-1 90:-1 91:0.992787 92:-0.993829 93:-1 94:-1 95:-1 96:-1 97:-1 98:-1 104:-1 105:-1 106:-1 107:-1 108:-1 109:-1 110:-1 111:-1 112:-1 115:-1 116:-1 117:-1 118:-1 119:-1 120:-1 121:-1 122:-1 123:-1 124:-1 125:-1 126:-1 127:-1 128:-1 129:-1 130:-1 131:-1 132:-0.998416 133:1 134:-0.995971 135:-1 136:-1 137:-1 138:-1 139:-1 140:-1 148:-1 149:-1 150:-1 151:-1 152:-1 153:-0.999883 154:-1 156:-1 157:-1 158:-1 159:-1 160:-1 161:-1 162:-1 163:-1 164:-1 165:-1 166:-1 167:-1 168:-1 169:-1 170:-1 171:-1 172:-0.99895 173:1 174:-0.999255 175:-1 176:-1 177:-1 178:-1 179:-1 180:-1 181:-1 182:-1 186:-1 187:-1 188:-1 189:-1 190:-1 191:-0.99999 192:-1 193:-1 194:-1 195:-1 196:-1 197:-1 198:-1 199:-1 200:-1 201:-1 202:-1 203:-1 204:-1 205:-1 206:-1 207:-1 208:-1 209:-1 210:-1 211:-1 212:-0.89268 213:1 214:-0.914591 215:-0.584186 216:-1 217:-1 218:-1 219:-1 220:-1 221:-1 222:-1 223:-1 224:-1 227:-1 228:-1 229:-1 230:-1 231:-1 232:-1 233:-1 234:-1 235:-1 236:-1 237:-1 238:-1 239:-1 240:-1 241:-1 242:-1 243:-1 244:-1 245:-1 246:-1 247:-1 248:-1 249:-1 250:-1 251:-1 252:-1 253:-0.522449 254:0.911287 255:0.377541 256:-0.541295 257:-0.490937 258:-0.999317 259:-1 260:-1 261:-1 262:-1 263:-1 264:-1 265:-1 266:-1 268:-1 269:-1 270:-1 271:-1 272:-1 273:-1 274:-1 275:-1 276:-1 277:-1 278:-1 279:-1 280:-0.999999 281:-1 282:-1 283:-1 284:-1 285:-1 286:-1 287:-1 288:-0.999997 289:-1 290:-1 291:-1 292:-1 293:-1 294:-1 295:-0.243048 296:-0.383091 297:-0.061277 298:-0.166601 299:-0.426495 300:-0.988148 301:-0.999313 302:-1 303:-1 304:-1 305:-1 306:-1 307:-1 308:-1 310:-1 311:-1 312:-1 313:-1 314:-1 315:-1 316:-1 317:-1 318:-1 319:-0.99999 320:-1 321:-1 322:-1 323:-1 324:-1 325:-1 326:-1 327:-1 328:-1 329:-1 330:-0.999997 331:-1 332:-1 333:-1 334:-1 335:-1 336:-1 337:-1 338:-1 339:-1 340:-1 341:-1 342:-1 343:-1 344:-1 345:0.1536 346:-0.152378 347:-0.994073 348:-1 349:-1 350:-1 351:-1 354:-1 355:-1 356:-1 357:-1 358:-1 359:-1 360:-1 361:-1 362:-1 363:-1 364:-1 366:-1 367:-1 368:-1 369:-1 370:-1 371:-1 372:-0.999998 373:-1 374:-1 375:-1 376:-1 378:-1 379:-1 380:-1 381:-1 382:-1 383:-1 384:-1 385:-1 386:-0.999868 387:-0.999067 388:-0.56506 389:-0.454971 390:0.0755742 391:-0.994404 392:-0.999606 393:-1 395:-1 396:-1 397:-1 398:-1 399:-1 400:-1 401:-1 402:-1 403:-1 404:-1 405:-1 406:-1 407:-1 408:-1 409:-1 410:-1 411:-1 412:-1 413:-1 414:-1 415:-1 416:-1 417:-1 418:-1 419:-1 420:-1 421:-1 422:-1 423:-1 424:-1 425:-1 426:-1 427:-0.999735 428:-0.920718 429:-0.958732 430:0.109568 431:-0.0763193 432:-0.0653996 433:-0.63398 434:-0.921868 435:-1 436:-1 437:-1 438:-1 439:-1 440:-1 441:-1 442:-1 443:-1 444:-1 445:-1 446:-1 447:-1 448:-1 449:-1 450:-1 451:-1 452:-1 453:-1 454:-1 455:-1 456:-1 457:-1 458:-1 459:-1 460:-1 461:-1 462:-1 463:-1 464:-1 465:-1 466:-1 467:-1 468:-1 469:-0.999404 470:-0.917573 471:-0.833294 472:0.433023 473:-0.304445 474:-0.464061 475:-0.707469 476:-0.827365 477:-1 478:-1 479:-1 480:-1 481:-1 482:-1 483:-1 484:-1 485:-1 486:-1 487:-1 488:-1 489:-1 490:-1 491:-1 492:-1 493:-1 494:-1 495:-1 496:-1 497:-1 498:-1 499:-1 500:-1 501:-1 502:-1 503:-1 504:-1 508:-1 509:-1 510:-0.536017 511:0.52145 512:-1 513:-1 514:-1 515:-1 523:-1 524:-1 525:-1 526:-1 527:-1 534:-1 535:-1 536:-1 537:-1 538:-1 539:-1 540:-1 541:-1 542:-1 547:-1 548:-1 549:-1 550:-1 551:-0.996835 552:-0.993844 553:-0.745748 554:0.519429 555:0.979328 556:-0.360246 557:-1 558:-1 559:-1 560:-1 561:-1 562:-1 563:-1 564:-0.999999 565:-1 566:-1 567:-1 568:-1 569:-1 570:-1 571:-1 572:-1 575:-1 576:-1 577:-0.999996 578:-0.999999 579:-1 580:-1 581:-1 582:-1 583:-1 584:-1 588:-1 589:-1 590:-1 591:-1 592:-0.999609 593:-0.945273 594:-0.89078 595:-0.102778 596:0.19417 597:0.0177303 598:-0.848802 599:-1 600:-1 601:-1 602:-1 603:-1 604:-1 605:-0.999999 606:-1 607:-1 608:-1 609:-1 610:-1 611:-1 612:-1 617:-1 618:-0.999992 619:-0.999999 620:-0.999995 621:-1 622:-1 623:-1 624:-1 625:-1 626:-1 629:-1 630:-1 631:-1 632:-1 633:-1 634:-0.995454 635:-0.997487 636:-0.943371 637:-0.832631 638:1 639:-0.513624 640:-0.855504 641:-1 642:-1 643:-1 644:-1 645:-1 646:-1 647:-1 648:-1 649:-1 650:-1 651:-1 652:-1 653:-1 659:-1 660:-0.999998 661:-0.999994 662:-1 663:-1 664:-1 665:-1 666:-1 667:-1 668:-1 672:-1 676:-1 677:-1 678:-1 679:-1 680:-0.758339 681:0.75407 682:-1 683:-1 688:-1 689:-1 690:-1 691:-1 692:-1 693:-1 694:-1 704:-1 705:-1 706:-1 707:-1 708:-1 709:-1 710:-1 711:-1 715:-1 716:-1 717:-1 718:-1 719:-1 720:-1 721:-1 722:-0.737954 723:0.587919 724:-0.764912 725:-1 726:-1 727:-1 728:-1 729:-1 730:-1 731:-1 732:-1 733:-1 734:-1 735:-1 736:-1 737:-1 738:-1 739:-1 740:-1 743:-1 744:-1 745:-0.999999 746:-0.999996 747:-1 748:-1 749:-1 750:-1 751:-1 752:-1 753:-1 755:-1 756:-1 757:-1 758:-1 759:-1 760:-1 761:-1 762:-1 763:-0.716573 764:-0.651535 765:0.249854 766:-0.62476 767:-0.99973 768:-1 769:-1 770:-1 771:-1 772:-1 773:-1 774:-1 775:-1 776:-1 777:-1 778:-1 779:-1 780:-1 781:-1 782:-1 785:-1 786:-0.999998 787:-0.999999 788:-0.999998 789:-1 790:-1 791:-1 792:-1 793:-1 794:-1 795:-1 797:-1 798:-1 799:-1 800:-1 801:-1 802:-1 803:-1 804:-1 805:-0.997637 806:-0.293268 807:0.300036 808:-0.99771 809:-0.999473 810:-1 811:-1 812:-1 813:-1 814:-1 815:-1 816:-1 817:-1 818:-1 819:-1 820:-1 821:-1 822:-1 827:-1 828:-0.999999 829:-0.999995 830:-1 831:-1 832:-1 833:-1 834:-1 835:-1 836:-1 837:-1 838:-1 840:-1 
1 1 1 1 1 21:-1 35:-1 48:-1 49:0.365178 50:-0.39314 63:-1 64:-1 65:-1 77:-1 78:-1 79:-1 86:-1 87:-1 88:-1 89:-1 90:-1 91:0.877967 92:-0.887957 93:-1 94:-1 95:-1 96:-1 97:-1 98:-1 104:-1 105:-1 106:-1 107:-1 108:-1 109:-1 110:-1 111:-1 112:-1 115:-1 116:-1 117:-1 118:-1 119:-1 120:-1 121:-1 122:-1 123:-1 124:-1 125:-1 126:-1 127:-1 128:-1 129:-1 130:-1 131:-1 132:-0.999993 133:0.541943 134:-0.550494 135:-1 136:-1 137:-1 138:-1 139:-1 140:-1 148:-1 149:-1 150:-1 151:-1 152:-1 153:-1 154:-1 156:-1 157:-1 158:-1 159:-1 160:-1 161:-1 162:-1 163:-1 164:-1 165:-1 166:-1 167:-1 168:-1 169:-1 170:-1 171:-1 172:-0.999995 173:0.889309 174:-0.872853 175:-1 176:-1 177:-1 178:-1 179:-1 180:-1 181:-1 182:-1 186:-1 187:-1 188:-1 189:-1 190:-1 191:-1 192:-1 193:-1 194:-1 195:-1 196:-1 197:-1 198:-1 199:-1 200:-1 201:-1 202:-1 203:-1 204:-1 205:-1 206:-1 207:-1 208:-1 209:-1 210:-1 211:-1 212:-0.881649 213:-0.164671 214:-0.050771 215:-0.628361 216:-0.965295 217:-1 218:-1 219:-1 220:-1 221:-1 222:-1 223:-1 224:-1 227:-1 228:-1 229:-1 230:-1 231:-1 232:-1 233:-1 234:-1 235:-1 236:-1 237:-1 238:-1 239:-1 240:-1 241:-1 242:-1 243:-1 244:-1 245:-1 246:-1 247:-1 248:-1 249:-1 250:-1 251:-1 252:-1 253:-0.635582 254:-0.411413 255:-0.0495954 256:0.230039 257:-0.591426 258:-0.999997 259:-1 260:-1 261:-1 262:-1 263:-1 264:-1 265:-1 266:-1 268:-1 269:-1 270:-1 271:-1 272:-1 273:-1 274:-1 275:-1 276:-1 277:-1 278:-1 279:-1 280:-1 281:-1 282:-1 283:-1 284:-1 285:-1 286:-1 287:-1 288:-0.999999 289:-1 290:-1 291:-1 292:-1 293:-1 294:-1 295:-0.508223 296:-0.616305 297:-0.338424 298:0.0347603 299:-0.263323 300:-0.999945 301:-0.999997 302:-1 303:-1 304:-1 305:-1 306:-1 307:-1 308:-1 310:-1 311:-1 312:-1 313:-1 314:-1 315:-1 316:-1 317:-1 318:-1 319:-1 320:-1 321:-1 322:-1 323:-1 324:-1 325:-1 326:-1 327:-1 328:-1 329:-1 330:-0.999999 331:-1 332:-1 333:-1 334:-1 335:-1 336:-1 337:-1 338:-1 339:-1 340:-1 341:-1 342:-1 343:-1 344:-1 345:-0.231844 346:0.231407 347:-0.999972 348:-1 349:-1 350:-1 351:-1 354:-1 355:-1 356:-1 357:-1 358:-1 359:-1 360:-1 361:-1 362:-1 363:-1 364:-1 366:-1 367:-1 368:-1 369:-1 370:-1 371:-1 372:-1 373:-1 374:-1 375:-1 376:-1 378:-1 379:-1 380:-1 381:-1 382:-1 383:-1 384:-1 385:-1 386:-0.999999 387:-0.999996 388:-0.301714 389:-0.106898 390:-0.520602 391:-0.964634 392:-0.999998 393:-1 395:-1 396:-1 397:-1 398:-1 399:-1 400:-1 401:-1 402:-1 403:-1 404:-1 405:-1 406:-1 407:-1 408:-1 409:-1 410:-1 411:-1 412:-1 413:-1 414:-1 415:-1 416:-1 417:-1 418:-1 419:-1 420:-1 421:-1 422:-1 423:-1 424:-1 425:-1 426:-1 427:-0.999999 428:-0.999631 429:-0.971909 430:0.166512 431:-0.184584 432:0.20615 433:-0.599989 434:-0.999637 435:-1 436:-1 437:-1 438:-1 439:-1 440:-1 441:-1 442:-1 443:-1 444:-1 445:-1 446:-1 447:-1 448:-1 449:-1 450:-1 451:-1 452:-1 453:-1 454:-1 455:-1 456:-1 457:-1 458:-1 459:-1 460:-1 461:-1 462:-1 463:-1 464:-1 465:-1 466:-1 467:-1 468:-1 469:-0.999997 470:-0.999617 471:-0.83761 472:0.20065 473:-0.171383 474:-0.00691358 475:-0.763479 476:-0.881951 477:-1 478:-1 479:-1 480:-1 481:-1 482:-1 483:-1 484:-1 485:-1 486:-1 487:-1 488:-1 489:-1 490:-1 491:-1 492:-1 493:-1 494:-1 495:-1 496:-1 497:-1 498:-1 499:-1 500:-1 501:-1 502:-1 503:-1 504:-1 508:-1 509:-1 510:-0.120579 511:0.107857 512:-1 513:-1 514:-1 515:-1 523:-1 524:-1 525:-1 526:-1 527:-1 534:-1 535:-1 536:-1 537:-1 538:-1 539:-1 540:-1 541:-1 542:-1 547:-1 548:-1 549:-1 550:-1 551:-0.999985 552:0.194111 553:-0.13215 554:-0.992933 555:-0.990794 556:-0.997024 557:-1 558:-1 559:-1 560:-1 561:-1 562:-1 563:-1 564:-1 565:-1 566:-1 567:-1 568:-1 569:-1 570:-1 571:-1 572:-1 575:-1 576:-1 577:-1 578:-1 579:-1 580:-1 581:-1 582:-1 583:-1 584:-1 588:-1 589:-1 590:-1 591:-1 592:-0.999998 593:-0.897428 594:0.0811266 595:0.377408 596:-0.994446 597:-0.995266 598:-0.999297 599:-1 600:-1 601:-1 602:-1 603:-1 604:-1 605:-1 606:-1 607:-1 608:-1 609:-1 610:-1 611:-1 612:-1 617:-1 618:-1 619:-1 620:-1 621:-1 622:-1 623:-1 624:-1 625:-1 626:-1 629:-1 630:-1 631:-1 632:-1 633:-1 634:-0.999979 635:-0.842232 636:-0.15326 637:0.164949 638:-0.990698 639:-0.997738 640:-0.999328 641:-1 642:-1 643:-1 644:-1 645:-1 646:-1 647:-1 648:-1 649:-1 650:-1 651:-1 652:-1 653:-1 659:-1 660:-1 661:-1 662:-1 663:-1 664:-1 665:-1 666:-1 667:-1 668:-1 672:-1 676:-1 677:-1 678:-1 679:-1 680:-0.705294 681:0.699776 682:-1 683:-1 688:-1 689:-1 690:-1 691:-1 692:-1 693:-1 694:-1 704:-1 705:-1 706:-1 707:-1 708:-1 709:-1 710:-1 711:-1 715:-1 716:-1 717:-1 718:-1 719:-1 720:-1 721:-1 722:-0.0872 723:0.337551 724:-0.980302 725:-1 726:-1 727:-1 728:-1 729:-1 730:-1 731:-1 732:-1 733:-1 734:-1 735:-1 736:-1 737:-1 738:-1 739:-1 740:-1 743:-1 744:-1 745:-1 746:-1 747:-1 748:-1 749:-1 750:-1 751:-1 752:-1 753:-1 755:-1 756:-1 757:-1 758:-1 759:-1 760:-1 761:-1 762:-1 763:-0.895329 764:-0.146794 765:-0.0453882 766:-0.685892 767:-0.999999 768:-1 769:-1 770:-1 771:-1 772:-1 773:-1 774:-1 775:-1 776:-1 777:-1 778:-1 779:-1 780:-1 781:-1 782:-1 785:-1 786:-1 787:-1 788:-1 789:-1 790:-1 791:-1 792:-1 793:-1 794:-1 795:-1 797:-1 798:-1 799:-1 800:-1 801:-1 802:-1 803:-1 804:-1 805:-0.889419 806:-0.336248 807:0.00133592 808:-0.653383 809:-0.999998 810:-1 811:-1 812:-1 813:-1 814:-1 815:-1 816:-1 817:-1 818:-1 819:-1 820:-1 821:-1 822:-1 827:-1 828:-1 829:-1 830:-1 831:-1 832:-1 833:-1 834:-1 835:-1 836:-1 837:-1 838:-1 840:-1 
1 1 1 1 1 21:-1 35:-1 48:-1 49:0.196351 50:-0.212852 63:-1 64:-1 65:-1 77:-0.999995 78:-1 79:-1 86:-1 87:-1 88:-1 89:-1 90:-0.840615 91:-0.238901 92:0.167897 93:-0.953145 94:-0.98881 95:-1 96:-1 97:-1 98:-1 104:-1 105:-1 106:-1 107:-1 108:-0.99997 109:-1 110:-0.999992 111:-1 112:-1 115:-1 116:-1 117:-1 118:-1 119:-1 120:-1 121:-1 122:-1 123:-1 124:-1 125:-1 126:-1 127:-1 128:-1 129:-1 130:-1 131:-1 132:-0.528948 133:-0.246634 134:0.0869286 135:-1 136:-1 137:-1 138:-1 139:-1 140:-1 148:-1 149:-1 150:-1 151:-1 152:-1 153:-0.999933 154:-1 156:-1 157:-1 158:-1 159:-1 160:-0.99998 161:-1 162:-1 163:-1 164:-1 165:-1 166:-1 167:-1 168:-1 169:-1 170:-1 171:-1 172:-0.888996 173:0.759469 174:-0.749666 175:-1 176:-1 177:-1 178:-1 179:-1 180:-1 181:-1 182:-1 186:-1 187:-1 188:-1 189:-1 190:-1 191:-1 192:-1 193:-1 194:-1 195:-1 196:-1 197:-1 198:-1 199:-1 200:-1 201:-1 202:-1 203:-1 204:-1 205:-0.999994 206:-1 207:-1 208:-1 209:-1 210:-1 211:-0.709474 212:-0.812675 213:-0.76552 214:-0.74238 215:-0.02538 216:-0.371478 217:-1 218:-1 219:-1 220:-1 221:-1 222:-1 223:-1 224:-1 227:-1 228:-1 229:-1 230:-1 231:-1 232:-1 233:-1 234:-1 235:-1 236:-1 237:-1 238:-0.999998 239:-1 240:-1 241:-1 242:-1 243:-1 244:-0.999999 245:-1 246:-1 247:-0.999995 248:-1 249:-1 250:-1 251:-1 252:-1 253:-0.998082 254:-0.996902 255:-0.821103 256:-0.739681 257:-0.642798 258:0.051995 259:-0.387371 260:-0.323847 261:-0.693602 262:-1 263:-1 264:-1 265:-1 266:-1 268:-1 269:-1 270:-1 271:-1 272:-1 273:-1 274:-1 275:-1 276:-1 277:-1 278:-1 279:-1 280:-0.999999 281:-1 282:-1 283:-1 284:-1 285:-1 286:-1 287:-1 288:-1 289:-1 290:-1 291:-1 292:-1 293:-1 294:-1 295:-0.997412 296:-0.997981 297:-0.886343 298:-0.854585 299:-0.586681 300:-0.288987 301:-0.591076 302:0.0380022 303:-0.404983 304:-0.908081 305:-1 306:-1 307:-1 308:-1 310:-1 311:-1 312:-1 313:-1 314:-1 315:-1 316:-1 317:-1 318:-1 319:-0.99999 320:-1 321:-1 322:-1 323:-1 324:-1 325:-1 326:-1 327:-1 328:-1 329:-1 330:-1 331:-1 332:-1 333:-1 334:-1 335:-1 336:-1 337:-1 338:-1 339:-1 340:-1 341:-1 342:-1 343:-0.953727 344:-0.798044 345:-0.70122 346:0.332792 347:-0.596495 348:-1 349:-1 350:-1 351:-1 354:-1 355:-1 356:-1 357:-1 358:-1 359:-1 360:-1 361:-1 362:-1 363:-1 364:-1 366:-1 367:-1 368:-1 369:-1 370:-1 371:-1 372:-0.999998 373:-1 374:-1 375:-1 376:-1 378:-1 379:-1 380:-1 381:-1 382:-1 383:-1 384:-1 385:-1 386:-1 387:-0.184588 388:-0.76213 389:-0.124973 390:-0.586971 391:-0.6599 392:-0.907631 393:-1 395:-1 396:-1 397:-1 398:-1 399:-1 400:-1 401:-1 402:-1 403:-1 404:-1 405:-1 406:-1 407:-1 408:-1 409:-1 410:-1 411:-1 412:-1 413:-1 414:-1 415:-0.999997 416:-1 417:-1 418:-1 419:-1 420:-1 421:-1 422:-1 423:-1 424:-1 425:-1 426:-1 427:-0.663217 428:-0.572141 429:-0.463171 430:-0.793946 431:-0.544315 432:0.308416 433:-0.509617 434:-0.868308 435:-1 436:-1 437:-1 438:-0.999999 439:-1 440:-1 441:-1 442:-1 443:-1 444:-1 445:-1 446:-1 447:-1 448:-1 449:-0.999473 450:-0.999995 451:-1 452:-1 453:-1 454:-1 455:-1 456:-1 457:-1 458:-0.999998 459:-0.99999 460:-0.995249 461:-1 462:-1 463:-1 464:-1 465:-1 466:-1 467:-1 468:-0.719909 469:-0.739605 470:-0.52933 471:-0.450505 472:-0.853967 473:-0.56823 474:0.241129 475:-0.632864 476:-0.844593 477:-1 478:-1 479:-0.999998 480:-1 481:-1 482:-1 483:-0.999999 484:-1 485:-1 486:-1 487:-1 488:-1 489:-1 490:-1 491:-0.999944 492:-1 493:-1 494:-1 495:-1 496:-1 497:-1 498:-1 499:-1 500:-0.999998 501:-0.999998 502:-0.994298 503:-0.99981 504:-1 508:-1 509:-1 510:0.446647 511:-0.4544 512:-1 513:-1 514:-1 515:-1 523:-1 524:-1 525:-1 526:-1 527:-1 534:-1 535:-1 536:-1 537:-1 538:-1 539:-1 540:-1 541:-1 542:-1 547:-1 548:-1 549:-1 550:-1 551:-0.545636 552:0.399598 553:-0.778766 554:-0.999963 555:-0.999952 556:-0.999984 557:-1 558:-1 559:-1 560:-1 561:-1 562:-1 563:-1 564:-0.999997 565:-1 566:-0.999998 567:-1 568:-1 569:-1 570:-1 571:-1 572:-1 575:-1 576:-1 577:-0.999992 578:-0.999999 579:-1 580:-1 581:-1 582:-1 583:-1 584:-1 588:-1 589:-1 590:-1 591:-0.689069 592:1 593:-0.967884 594:-0.896953 595:-0.787838 596:-0.645596 597:-0.999975 598:-0.999996 599:-1 600:-1 601:-1 602:-1 603:-1 604:-1 605:-0.999996 606:-1 607:-1 608:-1 609:-1 610:-1 611:-1 612:-1 617:-1 618:-0.999994 619:-0.999997 620:-0.99996 621:-1 622:-1 623:-1 624:-1 625:-1 626:-1 629:-1 630:-1 631:-1 632:-1 633:-0.945114 634:-0.613182 635:0.397436 636:-0.827167 637:-0.710699 638:-0.985319 639:-0.999988 640:-0.999996 641:-1 642:-1 643:-1 644:-1 645:-1 646:-1 647:-0.999998 648:-1 649:-1 650:-1 651:-1 652:-1 653:-1 659:-1 660:-0.999998 661:-0.999957 662:-0.999983 663:-1 664:-1 665:-1 666:-1 667:-1 668:-1 672:-1 676:-1 677:-1 678:-1 679:-1 680:-0.562422 681:0.557041 682:-1 683:-1 688:-1 689:-1 690:-1 691:-1 692:-1 693:-1 694:-1 704:-1 705:-1 706:-1 707:-1 708:-1 709:-1 710:-1 711:-1 715:-1 716:-1 717:-1 718:-1 719:-1 720:-1 721:-1 722:-0.995196 723:-0.91928 724:-0.315686 725:0.481627 726:-1 727:-1 728:-1 729:-1 730:-1 731:-1 732:-1 733:-1 734:-0.999999 735:-1 736:-1 737:-1 738:-1 739:-1 740:-1 743:-1 744:-1 745:-0.999999 746:-0.999981 747:-1 748:-1 749:-1 750:-1 751:-1 752:-1 753:-1 755:-1 756:-1 757:-1 758:-1 759:-1 760:-1 761:-1 762:-1 763:-0.736309 764:-0.602447 765:-0.847613 766:-0.0986234 767:-0.475622 768:-0.932823 769:-1 770:-1 771:-1 772:-1 773:-1 774:-1 775:-1 776:-1 777:-1 778:-1 779:-1 780:-1 781:-1 782:-1 785:-1 786:-0.999992 787:-0.999999 788:-0.999988 789:-1 790:-1 791:-1 792:-1 793:-1 794:-1 795:-1 797:-1 798:-1 799:-1 800:-1 801:-1 802:-1 803:-1 804:-1 805:-0.999418 806:-0.922822 807:-0.300034 808:-0.336317 809:-0.354939 810:-0.715789 811:-1 812:-1 813:-1 814:-1 815:-1 816:-1 817:-1 818:-1 819:-1 820:-1 821:-1 822:-1 827:-1 828:-0.999999 829:-0.999991 830:-1 831:-1 832:-1 833:-1 834:-1 835:-1 836:-1 837:-1 838:-1 840:-1 
1 1 1 1 1 21:-1 35:-1 48:-1 49:0.974421 50:-0.995943 63:-0.997624 64:-1 65:-1 77:-0.999991 78:-1 79:-1 86:-1 87:-1 88:-1 89:0.414512 90:-0.936739 91:0.191477 92:-0.578257 93:-0.999758 94:-0.999942 95:-1 96:-1 97:-1 98:-1 104:1 105:-1 106:-1 107:-1 108:-1 109:-1 110:-0.999997 111:-1 112:-1 115:-1 116:-1 117:-1 118:-0.999996 119:-1 120:-1 121:-1 122:-1 123:-1 124:-1 125:-1 126:-1 127:-1 128:-1 129:-1 130:-1 131:-1 132:-0.382451 133:-0.225111 134:-0.0547584 135:-0.768017 136:-1 137:-1 138:-1 139:-1 140:-1 148:-1 149:-0.988604 150:-0.999635 151:-1 152:-0.999593 153:-0.9999 154:-1 156:-1 157:-1 158:-0.999997 159:-0.999992 160:-0.999996 161:-1 162:-1 163:-1 164:-1 165:-1 166:-1 167:-1 168:-1 169:-1 170:-0.0250055 171:0.607958 172:-0.836354 173:0.188313 174:-0.561152 175:-0.965956 176:-1 177:-1 178:-1 179:-1 180:-1 181:-1 182:-1 186:-0.997151 187:-0.991453 188:-1 189:-1 190:-1 191:-0.999971 192:-1 193:-1 194:-1 195:-1 196:-1 197:-1 198:-1 199:-1 200:-1 201:-1 202:-1 203:-1 204:-1 205:-1 206:-1 207:-1 208:-1 209:-1 210:-1 211:-0.00262752 212:-0.110895 213:-0.61853 214:-0.235792 215:-0.656954 216:-0.753171 217:-1 218:-1 219:-1 220:-1 221:-1 222:-1 223:-1 224:-1 227:-1 228:-1 229:-1 230:-1 231:-1 232:-1 233:-1 234:-1 235:-1 236:-1 237:-0.999999 238:-1 239:-1 240:-1 241:-0.997253 242:-1 243:-1 244:-0.999999 245:-1 246:-1 247:-0.999998 248:-1 249:-1 250:-1 251:-1 252:-1 253:-0.598587 254:0.193131 255:-0.269179 256:-0.671536 257:-0.701745 258:-0.524879 259:-0.33878 260:-0.744243 261:-0.968413 262:-1 263:-1 264:-1 265:-1 266:-1 268:-1 269:-0.75 270:-1 271:-1 272:-1 273:-1 274:-1 275:-1 276:-1 277:-1 278:-1 279:-1 280:-0.999999 281:-1 282:-1 283:-1 284:-1 285:-1 286:-1 287:-1 288:-0.999998 289:-1 290:-1 291:-1 292:-1 293:-1 294:-1 295:-0.458878 296:-0.652419 297:-0.298038 298:-0.648904 299:-0.844481 300:-0.70708 301:0.203585 302:-0.500088 303:-0.705558 304:-0.999526 305:-1 306:-1 307:-1 308:-1 310:-1 311:-1 312:-1 313:-1 314:-1 315:-1 316:-1 317:-1 318:-1 319:-0.99999 320:-1 321:-1 322:-1 323:-1 324:-1 325:-1 326:-1 327:-1 328:-1 329:-1 330:-0.999999 331:-1 332:-1 333:-1 334:-1 335:-1 336:-1 337:1 338:0.917523 339:-0.164522 340:-0.791753 341:-0.84397 342:-1 343:-0.999761 344:-0.946908 345:-0.802584 346:-0.0214636 347:-0.62908 348:-1 349:-1 350:-1 351:1 354:-1 355:-1 356:-1 357:-1 358:-1 359:-1 360:-1 361:-1 362:-1 363:-1 364:-1 366:-1 367:-1 368:-1 369:-1 370:-1 371:-1 372:-1 373:-1 374:-1 375:-0.998371 376:-0.529413 378:-1 379:1 380:0.913829 381:0.339998 382:0.432198 383:-0.451229 384:-1 385:-1 386:-0.948659 387:-0.826397 388:-0.310563 389:-0.872148 390:-0.853548 391:-0.43035 392:-0.969369 393:1 395:-1 396:-1 397:-1 398:-1 399:-1 400:-1 401:-1 402:-1 403:-1 404:-1 405:-1 406:-1 407:-1 408:-1 409:-1 410:-1 411:-1 412:-1 413:-1 414:-1 415:-0.999998 416:-1 417:-1 418:-0.999781 419:1 420:-0.998574 421:-1 422:0.206186 423:0.307489 424:0.441644 425:-0.159563 426:-0.737114 427:-0.812729 428:-0.762088 429:-0.894171 430:-0.313468 431:-0.747143 432:-0.341479 433:-0.629619 434:-0.870347 435:-0.992872 436:-1 437:-0.999525 438:-0.999999 439:-1 440:-1 441:-1 442:-1 443:-1 444:-1 445:-1 446:-1 447:-1 448:-1 449:-1 450:-1 451:-1 452:-1 453:-1 454:-1 455:-1 456:-1 457:-1 458:-0.999992 459:-0.99996 460:-0.99905 461:-1 462:-1 463:-1 464:-1 465:-0.305318 466:-0.722844 467:0.164627 468:-0.67852 469:-0.766816 470:-0.618927 471:-0.829252 472:-0.284424 473:-0.656699 474:-0.486916 475:-0.672338 476:-0.739323 477:-0.9962 478:-0.999995 479:-1 480:-1 481:-1 482:-1 483:-0.999999 484:-1 485:-1 486:-1 487:-1 488:-1 489:-1 490:-1 491:-1 492:-1 493:-1 494:-1 495:-1 496:-1 497:-1 498:-1 499:-1 500:-0.999993 501:-0.999993 502:-1 503:-1 504:-1 508:-1 509:-1 510:-0.705992 511:0.0702568 512:0.0637688 513:0.495113 514:-0.557495 515:-1 523:1 524:-1 525:-1 526:-0.988604 527:-0.8 534:-1 535:-1 536:-1 537:-1 538:-1 539:-1 540:-1 541:-1 542:-1 547:-1 548:-1 549:-1 550:-1 551:-0.997658 552:0.0842256 553:-0.619135 554:-0.796365 555:-0.142974 556:-0.946137 557:-0.746972 558:-0.818455 559:-0.96715 560:-1 561:-1 562:-1 563:-1 564:-0.999999 565:-1 566:-1 567:-1 568:-1 569:-1 570:-1 571:-1 572:-1 575:-1 576:-1 577:-1 578:-1 579:-0.999992 580:-1 581:-1 582:-1 583:-1 584:-1 588:-1 589:-1 590:-1 591:-0.998397 592:-0.989691 593:-0.0102232 594:-0.713346 595:-0.413568 596:-0.651104 597:-0.940679 598:-0.847244 599:-0.83882 600:-0.764891 601:-1 602:-1 603:-1 604:-1 605:-1 606:-1 607:-1 608:-1 609:-1 610:-1 611:-1 612:-1 617:-1 618:-1 619:-1 620:-1 621:-1 622:-1 623:-1 624:-1 625:-1 626:-1 629:-1 630:-1 631:-1 632:-1 633:-0.999717 634:-0.998006 635:-0.478583 636:-0.329044 637:-0.443848 638:-0.756304 639:-0.910656 640:-0.659366 641:-0.901296 642:-1 643:-1 644:-1 645:-1 646:-1 647:-1 648:-1 649:-1 650:-1 651:-1 652:-1 653:-1 659:-1 660:-1 661:-1 662:-1 663:-1 664:-1 665:-1 666:-1 667:-0.999906 668:-1 672:-1 676:-1 677:-1 678:1 679:-0.978461 680:0.120686 681:-0.367066 682:-1 683:-1 688:1 689:1 690:-1 691:-1 692:-1 693:-1 694:-0.998539 704:-1 705:-1 706:-1 707:-1 708:-1 709:-1 710:-1 711:-1 715:-1 716:-1 717:-1 718:-1 719:-1 720:-1 721:-0.901997 722:-0.89895 723:0.299321 724:-0.779978 725:-0.795607 726:-0.731959 727:-0.924821 728:-1 729:-1 730:-1 731:-1 732:-1 733:-1 734:-1 735:-1 736:-1 737:-1 738:-1 739:-1 740:-1 743:-1 744:-1 745:-1 746:-1 747:-1 748:-1 749:-1 750:-1 751:-1 752:-1 753:-1 755:-1 756:-1 757:-1 758:-1 759:-1 760:-1 761:-1 762:-1 763:-0.970006 764:0.219012 765:-0.689948 766:-0.75408 767:-0.829602 768:-0.604902 769:-0.950842 770:-0.911152 771:-1 772:-1 773:-1 774:-1 775:-1 776:-1 777:-1 778:-1 779:-1 780:-1 781:-1 782:-1 785:-1 786:-1 787:-1 788:-1 789:-1 790:-1 791:-1 792:-1 793:-1 794:-1 795:-0.977208 797:-1 798:-1 799:-1 800:-1 801:-1 802:-1 803:-1 804:-1 805:-0.999997 806:-0.360426 807:-0.367564 808:-0.624457 809:-0.774389 810:-0.596473 811:-0.916237 812:-0.955086 813:-1 814:-1 815:-1 816:-1 817:-1 818:-1 819:-1 820:-1 821:-1 822:-1 827:-1 828:-1 829:-1 830:-1 831:-1 832:-1 833:-1 834:-1 835:-1 836:-0.954802 837:-1 838:-1 840:-1 
1 1 1 1 1 21:-1 35:-0.999999 48:-1 49:0.968283 50:-0.999966 63:-1 64:-0.999999 65:-1 77:-0.982911 78:-0.999999 79:-1 86:-1 87:-1 88:-1 89:-0.98791 90:-0.999459 91:0.232513 92:-0.220912 93:-0.999998 94:-1 95:-1 96:-1 97:-1 98:-1 104:-1 105:-1 106:-1 107:-1 108:-1 109:-0.999998 110:-0.94606 111:-1 112:-1 115:-1 116:-1 117:-1 118:-1 119:-0.999995 120:-0.999938 121:-1 122:-1 123:-1 124:-1 125:-1 126:-1 127:-1 128:-1 129:-1 130:-1 131:-1 132:-0.994722 133:-0.993377 134:0.989499 135:-0.998017 136:-1 137:-1 138:-1 139:-1 140:-1 148:-1 149:-1 150:-1 151:-1 152:-1 153:-1 154:-1 156:-1 157:-1 158:-1 159:-1 160:-0.959993 161:-0.999997 162:-0.999984 163:-1 164:-1 165:-1 166:-1 167:-1 168:-1 169:-1 170:-0.991667 171:-0.986257 172:-0.998601 173:0.966861 174:-0.953571 175:-0.999709 176:-1 177:-1 178:-1 179:-1 180:-1 181:-1 182:-1 186:-1 187:-1 188:-1 189:-1 190:-1 191:-1 192:-0.999999 193:-0.999999 194:-1 195:-1 196:-1 197:-1 198:-1 199:-1 200:-1 201:-1 202:-1 203:-0.999996 204:-0.999999 205:-1 206:-1 207:-1 208:-1 209:-1 210:-1 211:-0.991475 212:1 213:-0.412925 214:-0.805443 215:-0.402617 216:-0.99789 217:-1 218:-1 219:-1 220:-1 221:-1 222:-1 223:-1 224:-1 227:-1 228:-1 229:-1 230:-1 231:-1 232:-1 233:-1 234:-1 235:-1 236:-0.999999 237:-0.973881 238:-1 239:-1 240:-1 241:-1 242:-1 243:-0.999996 244:-0.967436 245:-0.999995 246:-1 247:-1 248:-1 249:-1 250:-1 251:-1 252:-1 253:-0.996569 254:-0.837623 255:0.176162 256:-0.411394 257:-0.709363 258:-0.292493 259:-0.641332 260:-0.840953 261:-0.99973 262:-1 263:-1 264:-1 265:-1 266:-1 268:-1 269:-1 270:-1 271:-1 272:-1 273:-0.999999 274:-1 275:-1 276:-0.999998 277:-1 278:-1 279:-0.999999 280:-0.97918 281:-1 282:-1 283:-0.999999 284:-0.999995 285:-0.999999 286:-0.999999 287:-0.999999 288:-1 289:-1 290:-1 291:-1 292:-1 293:-1 294:-1 295:-0.995375 296:-0.914699 297:-0.278329 298:-0.365552 299:-0.57239 300:-0.802096 301:0.294142 302:-0.585706 303:-0.997483 304:-0.999996 305:-1 306:-1 307:-1 308:-1 310:-1 311:-1 312:-1 313:-1 314:-1 315:-1 316:-1 317:-1 318:-1 319:-0.973658 320:-1 321:-1 322:-0.99999 323:-1 324:-0.999999 325:-0.999998 326:-0.999998 327:-0.999999 328:-0.999998 329:-0.999999 330:-1 331:-1 332:-1 333:-1 334:-1 335:-1 336:-1 337:-0.982906 338:-0.983611 339:-0.992859 340:-0.99822 341:-0.998666 342:-1 343:-0.999998 344:-0.999546 345:-0.998313 346:0.992619 347:-0.99683 348:-1 349:-1 350:-1 351:-1 354:-1 355:-1 356:-1 357:-1 358:-1 359:-1 360:-0.999999 361:-0.999997 362:-1 363:-1 364:-1 366:-1 367:-1 368:-1 369:-1 370:-1 371:-1 372:-0.963991 373:-0.999999 374:-1 375:-1 376:-1 378:-1 379:-0.982906 380:-0.983643 381:-0.988547 382:-0.987759 383:-0.99531 384:-1 385:-1 386:-0.999561 387:-0.998516 388:-0.786668 389:-0.478212 390:-0.144091 391:-0.118431 392:-0.999738 393:-1 395:-1 396:-1 397:-1 398:-1 399:-1 400:-0.999993 401:-1 402:-1 403:-0.999999 404:-1 405:-1 406:-0.999999 407:-1 408:-1 409:-1 410:-1 411:-1 412:-1 413:-0.999991 414:-0.999998 415:-1 416:-1 417:-1 418:-1 419:-1 420:-1 421:-1 422:-0.989691 423:-0.988825 424:-0.987678 425:-0.992817 426:-0.997753 427:-0.998399 428:-0.997967 429:-0.845295 430:-0.391054 431:-0.142623 432:0.321297 433:0.162063 434:-0.998892 435:-1 436:-1 437:-1 438:-1 439:-1 440:-1 441:-1 442:-0.999997 443:-0.999999 444:-0.999999 445:-1 446:-1 447:-1 448:-1 449:-1 450:-1 451:-1 452:-1 453:-1 454:-0.999999 455:-0.999997 456:-1 457:-1 458:-1 459:-1 460:-1 461:-1 462:-1 463:-1 464:-1 465:-0.994063 466:-0.997631 467:-0.990046 468:-0.997252 469:-0.805796 470:-0.91485 471:-0.961418 472:-0.111226 473:-0.277263 474:0.171256 475:0.0291128 476:-0.997772 477:-1 478:-1 479:-1 480:-1 481:-1 482:-1 483:-0.992987 484:-0.999997 485:-1 486:-0.999999 487:-1 488:-1 489:-1 490:-1 491:-1 492:-0.999999 493:-1 494:-0.999999 495:-1 496:-1 497:-0.999999 498:-1 499:-1 500:-1 501:-1 502:-1 503:-1 504:-1 508:-1 509:-1 510:0.987909 511:-0.990852 512:-0.990908 513:-0.987221 514:-0.996218 515:-1 523:-1 524:-0.999999 525:-1 526:-1 527:-1 534:-1 535:-1 536:-1 537:-1 538:-1 539:-0.999996 540:-1 541:-1 542:-1 547:-1 548:-1 549:-1 550:-0.750391 551:1 552:-0.992022 553:-0.996745 554:-0.99826 555:-0.992675 556:-0.99954 557:-0.997837 558:-0.998448 559:-0.999719 560:-1 561:-1 562:-1 563:-0.999999 564:-0.947761 565:-0.999999 566:-1 567:-1 568:-1 569:-1 570:-1 571:-1 572:-1 575:-1 576:-1 577:-0.855531 578:-0.994469 579:-1 580:-1 581:-1 582:-1 583:-1 584:-1 588:-1 589:-1 590:-1 591:-0.999986 592:-0.597076 593:0.734817 594:-0.997588 595:-0.994988 596:-0.997018 597:-0.999493 598:-0.998694 599:-0.998622 600:-0.997991 601:-1 602:-1 603:-1 604:-1 605:-1 606:-1 607:-1 608:-1 609:-1 610:-1 611:-1 612:-1 617:-1 618:-0.888165 619:-0.904583 620:-0.942213 621:-1 622:-1 623:-1 624:-1 625:-1 626:-1 629:-1 630:-1 631:-1 632:-1 633:-0.999998 634:-0.999983 635:0.55624 636:-0.549861 637:-0.995247 638:-0.997917 639:-0.999236 640:-0.997089 641:-0.999156 642:-1 643:-1 644:-1 645:-1 646:-0.999992 647:-1 648:-1 649:-1 650:-1 651:-1 652:-1 653:-1 659:-0.999998 660:-0.933606 661:-0.790735 662:-1 663:-1 664:-1 665:-1 666:-1 667:-1 668:-1 672:-1 676:-1 677:-1 678:-0.982906 679:-0.999816 680:-0.990421 681:0.992825 682:-1 683:-1 688:-1 689:-1 690:-1 691:-1 692:-0.999996 693:-1 694:-1 704:-1 705:-1 706:-1 707:-1 708:-0.999986 709:-1 710:-1 711:-1 715:-1 716:-1 717:-1 718:-1 719:-1 720:-1 721:-0.999162 722:-0.999136 723:-0.988895 724:-0.673334 725:1 726:-0.997709 727:-0.999357 728:-1 729:-1 730:-1 731:-0.999999 732:-0.999663 733:-0.999999 734:-0.966418 735:-1 736:-1 737:-1 738:-1 739:-1 740:-1 743:-1 744:-1 745:-0.980179 746:-0.782217 747:-1 748:-1 749:-1 750:-1 751:-1 752:-1 753:-1 755:-1 756:-1 757:-1 758:-1 759:-1 760:-1 761:-1 762:-1 763:-0.999744 764:-0.989581 765:-0.99735 766:-0.96311 767:1 768:-0.996623 769:-0.99958 770:-0.999241 771:-1 772:-0.999999 773:-1 774:-1 775:-1 776:-1 777:-1 778:-1 779:-1 780:-1 781:-1 782:-1 785:-1 786:-0.967337 787:-0.961741 788:-0.992775 789:-1 790:-1 791:-1 792:-1 793:-1 794:-1 795:-1 797:-1 798:-1 799:-1 800:-1 801:-1 802:-1 803:-1 804:-1 805:-1 806:-0.994534 807:-0.994595 808:-0.837559 809:1 810:-0.688858 811:-0.999284 812:-0.999616 813:-1 814:-1 815:-1 816:-1 817:-1 818:-1 819:-1 820:-1 821:-1 822:-1 827:-0.999999 828:-0.968194 829:-0.934989 830:-1 831:-1 832:-1 833:-1 834:-1 835:-1 836:-1 837:-1 838:-1 840:-1 
1 1 1 1 1 21:-1 35:-1 48:-1 49:0.0610643 50:-0.0871723 63:-1 64:-1 65:-1 77:-1 78:-1 79:-1 86:-1 87:-1 88:-1 89:-0.999924 90:-0.999997 91:0.0997447 92:-0.239034 93:-0.666156 94:-1 95:-1 96:-1 97:-1 98:-1 104:-1 105:-1 106:-1 107:-1 108:-1 109:-1 110:-0.999875 111:-1 112:-1 115:-1 116:-1 117:-1 118:-1 119:-1 120:-1 121:-1 122:-1 123:-1 124:-1 125:-1 126:-1 127:-1 128:-1 129:-1 130:-1 131:-1 132:-0.999967 133:-0.628344 134:0.538416 135:-0.760389 136:-1 137:-1 138:-1 139:-1 140:-1 148:-1 149:-1 150:-1 151:-1 152:-1 153:-1 154:-1 156:-1 157:-1 158:-1 159:-1 160:-1 161:-1 162:-1 163:-1 164:-1 165:-1 166:-1 167:-1 168:-1 169:-1 170:-0.999948 171:-0.999914 172:-0.472719 173:0.504847 174:-0.625214 175:-0.999998 176:-1 177:-1 178:-1 179:-1 180:-1 181:-1 182:-1 186:-1 187:-1 188:-1 189:-1 190:-1 191:-1 192:-1 193:-1 194:-1 195:-1 196:-1 197:-1 198:-1 199:-1 200:-1 201:-1 202:-1 203:-1 204:-1 205:-0.99996 206:-1 207:-1 208:-1 209:-1 210:-1 211:-0.999947 212:0.564463 213:0.403945 214:-0.836293 215:-0.79755 216:-0.999987 217:-1 218:-1 219:-1 220:-1 221:-1 222:-1 223:-1 224:-1 227:-1 228:-1 229:-1 230:-1 231:-1 232:-1 233:-1 234:-1 235:-1 236:-1 237:-0.999852 238:-0.999949 239:-1 240:-1 241:-1 242:-1 243:-1 244:-0.999968 245:-1 246:-1 247:-0.999869 248:-1 249:-1 250:-1 251:-1 252:-1 253:0.168107 254:-0.164376 255:-0.225651 256:-0.409303 257:-0.352452 258:-0.885351 259:-0.997758 260:-0.999006 261:-0.999998 262:-1 263:-1 264:-1 265:-1 266:-1 268:-1 269:-1 270:-1 271:-1 272:-1 273:-1 274:-1 275:-1 276:-1 277:-1 278:-1 279:-1 280:-0.999921 281:-1 282:-1 283:-1 284:-1 285:-1 286:-1 287:-1 288:-1 289:-1 290:-1 291:-1 292:-1 293:-1 294:-1 295:0.0420642 296:-0.668344 297:-0.537573 298:-0.386531 299:-0.398287 300:-0.661032 301:-0.959538 302:-0.997411 303:-0.999984 304:-1 305:-1 306:-1 307:-1 308:-1 310:-1 311:-1 312:-1 313:-1 314:-1 315:-1 316:-1 317:-1 318:-1 319:-0.999815 320:-1 321:-1 322:-1 323:-1 324:-1 325:-1 326:-1 327:-1 328:-1 329:-1 330:-0.999997 331:-1 332:-1 333:-1 334:-1 335:-1 336:-1 337:-0.999894 338:-0.999898 339:-0.999956 340:-0.999989 341:-0.999992 342:-1 343:-1 344:-0.999997 345:-0.99999 346:0.207854 347:1 348:-1 349:-1 350:-1 351:-1 354:-1 355:-1 356:-1 357:-1 358:-1 359:-1 360:-1 361:-1 362:-1 363:-1 364:-1 366:-1 367:-1 368:-1 369:-1 370:-1 371:-1 372:-0.999918 373:-1 374:-1 375:-1 376:-1 378:-1 379:-0.999893 380:-0.999898 381:-0.999928 382:-0.999923 383:-0.999971 384:-1 385:-1 386:-0.999997 387:-0.999991 388:-0.960791 389:-0.656788 390:-0.432178 391:1 392:-0.890311 393:-1 395:-1 396:-1 397:-1 398:-1 399:-1 400:-1 401:-1 402:-1 403:-1 404:-1 405:-1 406:-1 407:-1 408:-1 409:-1 410:-1 411:-1 412:-1 413:-1 414:-1 415:-0.999944 416:-1 417:-1 418:-1 419:-1 420:-1 421:-1 422:-0.999936 423:-0.99993 424:-0.999923 425:-0.999955 426:-0.999986 427:-0.99999 428:-0.999987 429:-0.999033 430:-0.606107 431:-0.26206 432:0.176501 433:0.0331163 434:0.21978 435:-1 436:-1 437:-1 438:-1 439:-1 440:-1 441:-1 442:-1 443:-1 444:-1 445:-1 446:-1 447:-1 448:-1 449:-1 450:-1 451:-1 452:-1 453:-1 454:-1 455:-1 456:-1 457:-1 458:-1 459:-1 460:-1 461:-1 462:-1 463:-1 464:-1 465:-0.999963 466:-0.999985 467:-0.999938 468:-0.999983 469:-0.998786 470:-0.999468 471:-0.864027 472:-0.644097 473:-0.0743566 474:-0.207669 475:-0.243074 476:0.0503445 477:-1 478:-1 479:-1 480:-1 481:-1 482:-1 483:-1 484:-1 485:-1 486:-1 487:-1 488:-1 489:-1 490:-1 491:-1 492:-1 493:-1 494:-1 495:-1 496:-1 497:-1 498:-1 499:-1 500:-1 501:-1 502:-1 503:-1 504:-1 508:-1 509:-1 510:0.985407 511:-0.999943 512:-0.999944 513:-0.999921 514:-0.999977 515:-1 523:-1 524:-1 525:-1 526:-1 527:-1 534:-1 535:-1 536:-1 537:-1 538:-1 539:-1 540:-1 541:-1 542:-1 547:-1 548:-1 549:-1 550:-0.99844 551:-0.575733 552:0.36846 553:-0.715606 554:-0.999989 555:-0.999954 556:-0.999997 557:-0.999986 558:-0.99999 559:-0.999998 560:-1 561:-1 562:-1 563:-1 564:-1 565:-1 566:-1 567:-1 568:-1 569:-1 570:-1 571:-1 572:-1 575:-1 576:-1 577:-1 578:-1 579:-1 580:-1 581:-1 582:-1 583:-1 584:-1 588:-1 589:-1 590:-1 591:-1 592:-0.997482 593:-0.114227 594:-0.460294 595:-0.0266305 596:-0.999981 597:-0.999997 598:-0.999992 599:-0.999991 600:-0.999987 601:-1 602:-1 603:-1 604:-1 605:-1 606:-1 607:-1 608:-1 609:-1 610:-1 611:-1 612:-1 617:-1 618:-1 619:-1 620:-1 621:-1 622:-1 623:-1 624:-1 625:-1 626:-0.997004 629:-1 630:-1 631:-1 632:-1 633:-1 634:-1 635:-0.291971 636:0.00278034 637:-0.649086 638:-0.999987 639:-0.999995 640:-0.999982 641:-0.999995 642:-1 643:-1 644:-1 645:-1 646:-1 647:-1 648:-1 649:-1 650:-1 651:-1 652:-1 653:-1 659:-1 660:-1 661:-1 662:-1 663:-1 664:-1 665:-1 666:-1 667:-0.996387 668:-1 672:-1 676:-1 677:-1 678:-0.999894 679:-0.999999 680:-0.669148 681:0.654159 682:-1 683:-1 688:-1 689:-1 690:-1 691:-1 692:-1 693:-1 694:-1 704:-1 705:-1 706:-1 707:-1 708:-1 709:-1 710:-1 711:-1 715:-1 716:-1 717:-1 718:-1 719:-1 720:-1 721:-0.999995 722:0.0149526 723:0.150012 724:-0.872958 725:-0.9875 726:-0.999986 727:-0.999996 728:-1 729:-1 730:-1 731:-1 732:-1 733:-1 734:-1 735:-1 736:-1 737:-1 738:-1 739:-1 740:-1 743:-1 744:-1 745:-1 746:-1 747:-1 748:-1 749:-1 750:-1 751:-1 752:-1 753:-1 755:-1 756:-1 757:-1 758:-1 759:-1 760:-1 761:-1 762:-1 763:-0.861119 764:-0.17181 765:-0.412507 766:-0.46556 767:-0.835002 768:-0.999979 769:-0.999997 770:-0.999995 771:-1 772:-1 773:-1 774:-1 775:-1 776:-1 777:-1 778:-1 779:-1 780:-1 781:-1 782:-1 785:-1 786:-1 787:-1 788:-1 789:-1 790:-1 791:-1 792:-1 793:-1 794:-1 795:-1 797:-1 798:-1 799:-1 800:-1 801:-1 802:-1 803:-1 804:-1 805:-0.970284 806:-0.274966 807:-0.275009 808:-0.533233 809:-0.831461 810:-0.998055 811:-0.999996 812:-0.999998 813:-1 814:-1 815:-1 816:-1 817:-1 818:-1 819:-1 820:-1 821:-1 822:-1 827:-1 828:-1 829:-1 830:-1 831:-1 832:-1 833:-1 834:-1 835:-1 836:-1 837:-1 838:-1 840:-1 
1 1 1 1 1 21:-1 35:-1 48:-1 49:0.750929 50:-0.771612 63:-1 64:-1 65:-1 77:-1 78:-1 79:-1 86:-1 87:-1 88:-1 89:-1 90:-1 91:0.495927 92:-0.492206 93:-0.998364 94:-1 95:-1 96:-1 97:-1 98:-1 104:-1 105:-1 106:-1 107:-1 108:-1 109:-1 110:-1 111:-1 112:-1 115:-1 116:-1 117:-1 118:-1 119:-1 120:-1 121:-1 122:-1 123:-1 124:-1 125:-1 126:-1 127:-1 128:-1 129:-1 130:-1 131:-1 132:-1 133:-0.822207 134:0.610157 135:-0.336992 136:-1 137:-1 138:-1 139:-1 140:-1 148:-1 149:-1 150:-1 151:-1 152:-1 153:-0.999916 154:-1 156:-1 157:-1 158:-1 159:-1 160:-1 161:-1 162:-1 163:-1 164:-1 165:-1 166:-1 167:-1 168:-1 169:-1 170:-1 171:-1 172:-0.997415 173:-0.72118 174:0.935514 175:-0.708622 176:-1 177:-1 178:-1 179:-1 180:-1 181:-1 182:-1 186:-1 187:-1 188:-1 189:-1 190:-1 191:-1 192:-1 193:-1 194:-1 195:-1 196:-1 197:-1 198:-1 199:-1 200:-1 201:-1 202:-1 203:-1 204:-1 205:-0.999997 206:-1 207:-1 208:-1 209:-1 210:-1 211:-1 212:-0.992331 213:-0.658284 214:0.481192 215:-0.736001 216:-0.987808 217:-1 218:-1 219:-1 220:-1 221:-1 222:-1 223:-1 224:-1 227:-1 228:-1 229:-1 230:-1 231:-1 232:-1 233:-1 234:-1 235:-1 236:-1 237:-0.999998 238:-1 239:-1 240:-1 241:-1 242:-1 243:-1 244:-1 245:-1 246:-1 247:-0.999994 248:-1 249:-1 250:-1 251:-1 252:-1 253:-0.994274 254:-0.0794726 255:0.530856 256:-0.138507 257:-0.617436 258:-0.869759 259:-0.999989 260:-0.999995 261:-1 262:-1 263:-1 264:-1 265:-1 266:-1 268:-1 269:-1 270:-1 271:-1 272:-1 273:-1 274:-1 275:-1 276:-1 277:-1 278:-1 279:-1 280:-0.999999 281:-1 282:-1 283:-1 284:-1 285:-1 286:-1 287:-1 288:-0.999999 289:-1 290:-1 291:-1 292:-1 293:-1 294:-1 295:-0.813274 296:-0.195654 297:0.413213 298:-0.461009 299:-0.439215 300:-0.855707 301:-0.974411 302:-0.999987 303:-1 304:-1 305:-1 306:-1 307:-1 308:-1 310:-1 311:-1 312:-1 313:-1 314:-1 315:-1 316:-1 317:-1 318:-1 319:-1 320:-1 321:-1 322:-1 323:-1 324:-1 325:-1 326:-1 327:-1 328:-1 329:-1 330:-0.999999 331:-1 332:-1 333:-1 334:-1 335:-1 336:-1 337:-0.999999 338:-1 339:-1 340:-1 341:-1 342:-1 343:-1 344:-1 345:-0.12745 346:-0.0116832 347:-0.639437 348:-1 349:-1 350:-1 351:-1 354:-1 355:-1 356:-1 357:-1 358:-1 359:-1 360:-1 361:-1 362:-1 363:-1 364:-1 366:-1 367:-1 368:-1 369:-1 370:-1 371:-1 372:-1 373:-1 374:-1 375:-1 376:-1 378:-1 379:-0.999999 380:-0.999999 381:-1 382:-1 383:-1 384:-1 385:-1 386:-1 387:-0.217531 388:-0.999865 389:0.0256016 390:-0.467831 391:-0.617741 392:-0.999462 393:-1 395:-1 396:-1 397:-1 398:-1 399:-1 400:-1 401:-1 402:-1 403:-1 404:-1 405:-1 406:-1 407:-1 408:-1 409:-1 410:-1 411:-1 412:-1 413:-1 414:-1 415:-0.999999 416:-1 417:-1 418:-1 419:-1 420:-1 421:-1 422:-1 423:-1 424:-1 425:-1 426:-1 427:-1 428:-1 429:-0.999995 430:-0.91832 431:-0.0854679 432:1 433:0.789156 434:-0.797778 435:-1 436:-1 437:-1 438:-1 439:-1 440:-1 441:-1 442:-1 443:-1 444:-1 445:-1 446:-1 447:-1 448:-1 449:-1 450:-1 451:-1 452:-1 453:-1 454:-1 455:-1 456:-1 457:-1 458:-0.999996 459:-1 460:-1 461:-1 462:-1 463:-1 464:-1 465:-1 466:-1 467:-1 468:-1 469:-0.999994 470:-0.999997 471:-0.999333 472:-0.766881 473:-0.0518522 474:0.262044 475:0.862516 476:-0.644741 477:-1 478:-1 479:-1 480:-1 481:-1 482:-1 483:-1 484:-1 485:-1 486:-1 487:-1 488:-1 489:-1 490:-1 491:-1 492:-1 493:-1 494:-1 495:-1 496:-1 497:-1 498:-1 499:-1 500:-0.99999 501:-1 502:-1 503:-1 504:-1 508:-1 509:-1 510:-0.806304 511:0.779818 512:-1 513:-1 514:-1 515:-1 523:-1 524:-1 525:-1 526:-1 527:-1 534:-1 535:-1 536:-1 537:-1 538:-1 539:-1 540:-1 541:-1 542:-1 547:-1 548:-1 549:-1 550:-0.999992 551:-0.953375 552:0.753555 553:-0.775566 554:-1 555:-1 556:-1 557:-1 558:-1 559:-1 560:-1 561:-1 562:-1 563:-1 564:-1 565:-1 566:-0.999997 567:-1 568:-1 569:-1 570:-1 571:-1 572:-1 575:-1 576:-1 577:-1 578:-1 579:-1 580:-1 581:-1 582:-1 583:-1 584:-1 588:-1 589:-1 590:-1 591:-1 592:-0.999988 593:-0.995658 594:0.78659 595:-0.565814 596:-1 597:-1 598:-1 599:-1 600:-1 601:-1 602:-1 603:-1 604:-1 605:-1 606:-1 607:-1 608:-1 609:-1 610:-1 611:-1 612:-1 617:-1 618:-1 619:-1 620:-1 621:-1 622:-1 623:-1 624:-1 625:-1 626:-1 629:-1 630:-1 631:-1 632:-1 633:-1 634:-1 635:-0.996529 636:0.730382 637:-0.677211 638:-1 639:-1 640:-1 641:-1 642:-1 643:-1 644:-1 645:-1 646:-1 647:-1 648:-1 649:-1 650:-1 651:-1 652:-1 653:-1 659:-1 660:-1 661:-1 662:-1 663:-1 664:-1 665:-1 666:-1 667:-1 668:-1 672:-1 676:-1 677:-1 678:-0.999999 679:-1 680:-0.292532 681:0.284343 682:-1 683:-1 688:-1 689:-1 690:-1 691:-1 692:-1 693:-1 694:-1 704:-1 705:-1 706:-1 707:-1 708:-1 709:-1 710:-1 711:-1 715:-1 716:-1 717:-1 718:-1 719:-1 720:-1 721:-1 722:-0.995025 723:-0.974756 724:0.804544 725:-0.789438 726:-1 727:-1 728:-1 729:-1 730:-1 731:-1 732:-1 733:-1 734:-0.999998 735:-1 736:-1 737:-1 738:-1 739:-1 740:-1 743:-1 744:-1 745:-1 746:-1 747:-1 748:-1 749:-1 750:-1 751:-1 752:-1 753:-1 755:-1 756:-1 757:-1 758:-1 759:-1 760:-1 761:-1 762:-1 763:-0.999319 764:-0.99594 765:-0.99712 766:0.75838 767:-0.72011 768:-1 769:-1 770:-1 771:-1 772:-1 773:-1 774:-1 775:-1 776:-1 777:-1 778:-1 779:-1 780:-1 781:-1 782:-1 785:-1 786:-1 787:-1 788:-1 789:-1 790:-1 791:-1 792:-1 793:-1 794:-1 795:-1 797:-1 798:-1 799:-1 800:-1 801:-1 802:-1 803:-1 804:-1 805:-0.999854 806:-0.996446 807:-0.996446 808:1 809:-0.698778 810:-0.941167 811:-1 812:-1 813:-1 814:-1 815:-1 816:-1 817:-1 818:-1 819:-1 820:-1 821:-1 822:-1 827:-1 828:-1 829:-1 830:-1 831:-1 832:-1 833:-1 834:-1 835:-1 836:-1 837:-1 838:-1 840:-1 
1 1 1 1 1 21:-1 35:-1 48:-1 49:0.0966637 50:-0.112758 63:-1 64:-1 65:-1 77:-1 78:-1 79:-1 86:-1 87:-1 88:-1 89:-1 90:-1 91:-0.321781 92:0.119301 93:-0.520627 94:-1 95:-1 96:-1 97:-1 98:-1 104:-1 105:-1 106:-1 107:-1 108:-1 109:-1 110:-0.999995 111:-1 112:-1 115:-1 116:-1 117:-1 118:-1 119:-1 120:-1 121:-1 122:-1 123:-1 124:-1 125:-1 126:-1 127:-1 128:-1 129:-1 130:-1 131:-1 132:-1 133:-0.763859 134:0.755967 135:-0.9966 136:-1 137:-1 138:-1 139:-1 140:-1 148:-1 149:-1 150:-1 151:-1 152:-1 153:-1 154:-1 156:-1 157:-1 158:-1 159:-1 160:-1 161:-1 162:-1 163:-1 164:-1 165:-1 166:-1 167:-1 168:-1 169:-1 170:-1 171:-1 172:-0.999987 173:0.368789 174:-0.516352 175:-0.592072 176:-1 177:-1 178:-1 179:-1 180:-1 181:-1 182:-1 186:-1 187:-1 188:-1 189:-1 190:-1 191:-1 192:-1 193:-1 194:-1 195:-1 196:-1 197:-1 198:-1 199:-1 200:-1 201:-1 202:-1 203:-1 204:-1 205:-0.999997 206:-1 207:-1 208:-1 209:-1 210:-1 211:-1 212:-0.973973 213:-0.269649 214:0.0332314 215:-0.580832 216:-0.987183 217:-1 218:-1 219:-1 220:-1 221:-1 222:-1 223:-1 224:-1 227:-1 228:-1 229:-1 230:-1 231:-1 232:-1 233:-1 234:-1 235:-1 236:-1 237:-0.999999 238:-0.99998 239:-1 240:-1 241:-1 242:-1 243:-1 244:-1 245:-1 246:-1 247:-0.999998 248:-1 249:-1 250:-1 251:-1 252:-1 253:-0.640561 254:0.146063 255:0.605389 256:-0.526943 257:-0.692944 258:-0.71293 259:-0.826701 260:-0.968628 261:-1 262:-1 263:-1 264:-1 265:-1 266:-1 268:-1 269:-1 270:-1 271:-1 272:-1 273:-1 274:-1 275:-1 276:-1 277:-1 278:-1 279:-1 280:-0.999998 281:-1 282:-1 283:-1 284:-1 285:-1 286:-1 287:-1 288:-0.999998 289:-1 290:-1 291:-1 292:-1 293:-1 294:-1 295:-0.650709 296:0.313177 297:-0.026601 298:-0.588064 299:-0.721372 300:-0.775439 301:-0.627993 302:-0.863326 303:-0.967791 304:-1 305:-1 306:-1 307:-1 308:-1 310:-1 311:-1 312:-1 313:-1 314:-1 315:-1 316:-1 317:-1 318:-1 319:-1 320:-1 321:-1 322:-1 323:-1 324:-1 325:-1 326:-1 327:-1 328:-1 329:-1 330:-0.999998 331:-1 332:-1 333:-1 334:-1 335:-1 336:-1 337:-1 338:-1 339:-1 340:-1 341:-1 342:-1 343:-1 344:-1 345:-0.52373 346:0.521235 347:-0.998151 348:-1 349:-1 350:-1 351:-1 354:-1 355:-1 356:-1 357:-1 358:-1 359:-1 360:-1 361:-1 362:-1 363:-1 364:-1 366:-1 367:-1 368:-1 369:-1 370:-1 371:-1 372:-0.999999 373:-1 374:-1 375:-1 376:-1 378:-1 379:-1 380:-1 381:-1 382:-1 383:-1 384:-1 385:-1 386:-1 387:-0.827456 388:-0.491688 389:-0.581911 390:-0.0332163 391:-0.842182 392:-0.999997 393:-1 395:-1 396:-1 397:-1 398:-1 399:-1 400:-1 401:-1 402:-1 403:-1 404:-1 405:-1 406:-1 407:-1 408:-1 409:-1 410:-1 411:-1 412:-1 413:-1 414:-1 415:-0.999999 416:-1 417:-1 418:-1 419:-1 420:-1 421:-1 422:-1 423:-1 424:-1 425:-1 426:-1 427:-1 428:-0.843668 429:-0.928227 430:-0.484656 431:-0.335574 432:-0.143955 433:-0.295487 434:0.30983 435:-1 436:-1 437:-1 438:-1 439:-1 440:-1 441:-1 442:-1 443:-1 444:-1 445:-1 446:-1 447:-1 448:-1 449:-1 450:-1 451:-1 452:-1 453:-1 454:-1 455:-1 456:-1 457:-1 458:-1 459:-1 460:-1 461:-1 462:-1 463:-1 464:-1 465:-1 466:-1 467:-1 468:-1 469:-0.95387 470:-0.918107 471:-0.899764 472:-0.302778 473:-0.424442 474:-0.685474 475:0.0790782 476:0.122175 477:-1 478:-1 479:-1 480:-1 481:-1 482:-1 483:-1 484:-1 485:-1 486:-1 487:-1 488:-1 489:-1 490:-1 491:-1 492:-1 493:-1 494:-1 495:-1 496:-1 497:-1 498:-1 499:-1 500:-1 501:-1 502:-1 503:-1 504:-1 508:-1 509:-1 510:-0.713926 511:0.698166 512:-1 513:-1 514:-1 515:-1 523:-1 524:-1 525:-1 526:-1 527:-1 534:-1 535:-1 536:-1 537:-1 538:-1 539:-1 540:-1 541:-0.999968 542:-1 547:-1 548:-1 549:-1 550:-1 551:-0.999761 552:1 553:-0.998849 554:-1 555:-1 556:-1 557:-1 558:-1 559:-1 560:-1 561:-1 562:-1 563:-1 564:-1 565:-1 566:-1 567:-1 568:-1 569:-1 570:-1 571:-1 572:-1 575:-1 576:-1 577:-1 578:-1 579:-1 580:-1 581:-1 582:-1 583:-1 584:-1 588:-1 589:-1 590:-1 591:-1 592:-1 593:-0.866655 594:0.896532 595:-0.947859 596:-1 597:-1 598:-1 599:-1 600:-1 601:-1 602:-1 603:-1 604:-1 605:-1 606:-1 607:-1 608:-1 609:-1 610:-1 611:-1 612:-1 617:-1 618:-1 619:-1 620:-1 621:-1 622:-1 623:-1 624:-1 625:-1 626:-1 629:-1 630:-1 631:-1 632:-1 633:-1 634:-0.92462 635:-0.682805 636:0.54731 637:-0.866389 638:-1 639:-1 640:-1 641:-1 642:-1 643:-1 644:-1 645:-1 646:-1 647:-1 648:-1 649:-1 650:-1 651:-1 652:-1 653:-1 659:-1 660:-1 661:-1 662:-1 663:-1 664:-1 665:-1 666:-1 667:-1 668:-1 672:-1 676:-1 677:-1 678:-1 679:-1 680:0.976133 681:-0.993416 682:-1 683:-1 688:-1 689:-1 690:-1 691:-1 692:-1 693:-1 694:-1 704:-1 705:-1 706:-1 707:-1 708:-1 709:-1 710:-1 711:-1 715:-1 716:-1 717:-1 718:-1 719:-1 720:-1 721:-1 722:-0.698453 723:0.784655 724:-0.990746 725:-0.99892 726:-1 727:-1 728:-1 729:-1 730:-1 731:-1 732:-1 733:-1 734:-1 735:-1 736:-1 737:-1 738:-1 739:-1 740:-1 743:-1 744:-1 745:-1 746:-1 747:-1 748:-1 749:-1 750:-1 751:-1 752:-1 753:-1 755:-1 756:-1 757:-1 758:-1 759:-1 760:-1 761:-1 762:-1 763:-0.999997 764:-0.999979 765:0.764047 766:-0.750946 767:-0.998565 768:-1 769:-1 770:-1 771:-1 772:-1 773:-1 774:-1 775:-1 776:-1 777:-1 778:-1 779:-1 780:-1 781:-1 782:-1 785:-1 786:-1 787:-1 788:-1 789:-1 790:-1 791:-1 792:-1 793:-1 794:-1 795:-1 797:-1 798:-1 799:-1 800:-1 801:-1 802:-1 803:-1 804:-1 805:-0.999999 806:-0.856392 807:0.846061 808:-0.977801 809:-0.998455 810:-0.999698 811:-1 812:-1 813:-1 814:-1 815:-1 816:-1 817:-1 818:-1 819:-1 820:-1 821:-1 822:-1 827:-1 828:-1 829:-1 830:-1 831:-1 832:-1 833:-1 834:-1 835:-1 836:-1 837:-1 838:-1 840:-1 
-1 1 1 1 1 21:-0.999998 35:-0.999997 48:-1 49:0.968224 50:-1 63:-1 64:-0.999995 65:-1 77:-1 78:-0.999997 79:-1 86:-1 87:-1 88:-1 89:-1 90:-1 91:0.988643 92:-1 93:-1 94:-1 95:-1 96:-1 97:-1 98:-1 104:-1 105:-1 106:-1 107:-1 108:-1 109:-1 110:-0.953066 111:-0.999988 112:-1 115:-1 116:-1 117:-1 118:-1 119:-1 120:-0.999594 121:-1 122:-1 123:-1 124:-1 125:-1 126:-1 127:-1 128:-1 129:-1 130:-1 131:-1 132:-0.155664 133:0.71212 134:-1 135:-1 136:-1 137:-1 138:-1 139:-1 140:-1 148:-1 149:-1 150:-1 151:-1 152:-1 153:-1 154:-0.999998 156:-1 157:-1 158:-1 159:-1 160:-1 161:-0.999989 162:-0.999886 163:-0.999999 164:-1 165:-1 166:-1 167:-1 168:-1 169:-1 170:-1 171:-1 172:-0.950258 173:0.971953 174:-1 175:-1 176:-1 177:-1 178:-1 179:-1 180:-1 181:-1 182:-1 186:-1 187:-1 188:-1 189:-1 190:-1 191:-1 192:-0.999998 193:-0.99999 194:-1 195:-1 196:-1 197:-1 198:-1 199:-1 200:-1 201:-1 202:-1 203:-0.999967 204:-1 205:-1 206:-1 207:-1 208:-1 209:-1 210:-1 211:-1 212:-1 213:-1 214:1 215:-1 216:-1 217:-1 218:-1 219:-1 220:-1 221:-1 222:-1 223:-1 224:-1 227:-1 228:-1 229:-1 230:-1 231:-0.999995 232:-0.999996 233:-1 234:-1 235:-1 236:-1 237:-1 238:-1 239:-1 240:-1 241:-1 242:-1 243:-1 244:-0.977569 245:-0.999847 246:-1 247:-1 248:-1 249:-1 250:-1 251:-1 252:-1 253:-1 254:-1 255:-1 256:-1 257:0.989133 258:-1 259:-1 260:-1 261:-1 262:-1 263:-1 264:-1 265:-1 266:-1 268:-1 269:-1 270:-1 271:-0.999999 272:-0.999986 273:-1 274:-1 275:-1 276:-1 277:-1 278:-1 279:-1 280:-1 281:-1 282:-1 283:-1 284:-0.999945 285:-1 286:-1 287:-1 288:-1 289:-1 290:-1 291:-1 292:-1 293:-1 294:-1 295:-1 296:-1 297:-1 298:-0.860618 299:0.905539 300:-1 301:-1 302:-1 303:-1 304:-1 305:-1 306:-1 307:-1 308:-1 310:-1 311:-1 312:-1 313:-0.999984 314:-0.999995 315:-1 316:-1 317:-1 318:-1 319:-1 320:-1 321:-1 322:-1 323:-1 324:-1 325:-0.999998 326:-0.999948 327:-1 328:-1 329:-1 330:-1 331:-1 332:-1 333:-1 334:-1 335:-1 336:-1 337:-1 338:-1 339:-1 340:-1 341:-1 342:-1 343:-1 344:-1 345:1 346:-1 347:-1 348:-1 349:-1 350:-1 351:-1 354:-1 355:-1 356:-1 357:-1 358:-1 359:-1 360:-1 361:-0.999981 362:-1 363:-1 364:-1 366:-1 367:-1 368:-1 369:-1 370:-1 371:-1 372:-0.812809 373:-0.999991 374:-1 375:-1 376:-1 378:-1 379:-1 380:-1 381:-1 382:-1 383:-1 384:-1 385:-1 386:-1 387:-1 388:0.393205 389:-0.938453 390:-0.43399 391:-1 392:-1 393:-1 395:-1 396:-1 397:-1 398:-1 399:-0.999985 400:-0.999932 401:-1 402:-0.999999 403:-0.999997 404:-1 405:-0.999999 406:-0.999997 407:-1 408:-1 409:-1 410:-1 411:-1 412:-0.999999 413:-0.999978 414:-0.999982 415:-0.909972 416:-1 417:-1 418:-1 419:-1 420:-1 421:-1 422:-1 423:-1 424:-1 425:-1 426:-1 427:-1 428:-1 429:-1 430:-0.00145205 431:0.456414 432:-0.481357 433:-0.798028 434:-1 435:-1 436:-1 437:-1 438:-1 439:-0.999998 440:-0.999996 441:-0.999994 442:-0.999996 443:-0.999999 444:-0.999998 445:-0.999997 446:-0.999999 447:-0.999999 448:-0.999999 449:-1 450:-1 451:-1 452:-0.999994 453:-0.999999 454:-0.99999 455:-0.999993 456:-1 457:-1 458:-1 459:-1 460:-1 461:-1 462:-1 463:-1 464:-1 465:-1 466:-1 467:-1 468:-1 469:-1 470:-1 471:-0.856586 472:0.0577753 473:0.191756 474:-0.124188 475:-0.880756 476:-1 477:-1 478:-1 479:-1 480:-0.999999 481:-1 482:-0.999996 483:-0.875782 484:-0.999968 485:-0.999998 486:-0.999998 487:-0.999998 488:-0.999999 489:-0.999997 490:-0.999999 491:-1 492:-1 493:-0.999997 494:-0.999993 495:-0.999996 496:-0.999999 497:-0.999996 498:-1 499:-1 500:-1 501:-1 502:-1 503:-1 504:-1 508:-1 509:-1 510:-0.775238 511:0.748959 512:-1 513:-1 514:-1 515:-1 523:-1 524:-0.999994 525:-1 526:-1 527:-1 534:-1 535:-1 536:-1 537:-1 538:-1 539:-0.999976 540:-1 541:-1 542:-1 547:-1 548:-1 549:-1 550:-1 551:-1 552:0.990995 553:-1 554:-1 555:-1 556:-1 557:-1 558:-1 559:-1 560:-1 561:-1 562:-1 563:-1 564:-1 565:-0.999976 566:-1 567:-1 568:-1 569:-1 570:-1 571:-1 572:-1 575:-1 576:-0.999975 577:-1 578:-1 579:-1 580:-1 581:-1 582:-1 583:-1 584:-1 588:-1 589:-1 590:-1 591:-1 592:-1 593:-0.132145 594:-0.0689677 595:-0.632702 596:-1 597:-1 598:-1 599:-1 600:-1 601:-1 602:-1 603:-0.999998 604:-1 605:-1 606:-1 607:-1 608:-1 609:-1 610:-1 611:-1 612:-1 617:-0.999997 618:0.614193 619:-1 620:-1 621:-1 622:-1 623:-1 624:-1 625:-1 626:-1 629:-1 630:-1 631:-1 632:-1 633:-1 634:-1 635:-0.341223 636:-0.0566385 637:-0.53657 638:-1 639:-1 640:-1 641:-1 642:-1 643:-1 644:-1 645:-0.999998 646:-1 647:-1 648:-1 649:-1 650:-1 651:-1 652:-1 653:-1 659:-0.999976 660:-1 661:-1 662:-1 663:-1 664:-1 665:-1 666:-1 667:-1 668:-1 672:-1 676:-1 677:-1 678:-1 679:-1 680:-1 681:0.98742 682:-1 683:-1 688:-1 689:-1 690:-1 691:-1 692:-0.999971 693:-1 694:-1 704:-1 705:-1 706:-1 707:-1 708:-0.999915 709:-1 710:-1 711:-1 715:-1 716:-1 717:-1 718:-1 719:-1 720:-1 721:-1 722:-1 723:-1 724:0.754716 725:-0.707417 726:-1 727:-1 728:-1 729:-1 730:-1 731:-1 732:-0.999155 733:-0.999981 734:-1 735:-1 736:-1 737:-1 738:-1 739:-1 740:-1 743:-1 744:-1 745:-0.974995 746:0.72062 747:-1 748:-1 749:-1 750:-1 751:-1 752:-1 753:-1 755:-1 756:-1 757:-1 758:-1 759:-1 760:-1 761:-1 762:-1 763:-1 764:1 765:-0.660392 766:-1 767:-1 768:-1 769:-1 770:-1 771:-1 772:-0.999976 773:-1 774:-1 775:-1 776:-1 777:-1 778:-1 779:-1 780:-1 781:-1 782:-1 785:-1 786:-1 787:-1 788:-1 789:-1 790:-0.999999 791:-0.999572 792:-1 793:-1 794:-1 795:-1 797:-1 798:-1 799:-1 800:-1 801:-1 802:-1 803:-1 804:-1 805:-1 806:-1 807:0.981013 808:-0.978031 809:-1 810:-1 811:-1 812:-1 813:-1 814:-0.999941 815:-1 816:-1 817:-1 818:-1 819:-1 820:-1 821:-1 822:-1 827:-1 828:-1 829:-1 830:-1 831:-0.999996 832:-0.999987 833:-1 834:-1 835:-1 836:-1 837:-1 838:-1 840:-1 
-1 1 1 1 1 21:-0.999986 35:-0.999975 48:-1 49:-0.985115 50:0.965545 63:-1 64:-0.999969 65:-1 77:-1 78:-0.999975 79:1 86:-1 87:-1 88:-1 89:-1 90:-1 91:-0.572491 92:0.226382 93:-0.311663 94:-0.956162 95:-1 96:-1 97:-1 98:-1 104:-1 105:-1 106:-1 107:-1 108:1 109:-1 110:-0.856725 111:-0.999932 112:-0.999998 115:-1 116:-1 117:-1 118:-1 119:-1 120:-0.999967 121:-1 122:-0.999747 123:0.809944 124:-1 125:-1 126:-1 127:-1 128:-1 129:-1 130:-1 131:-1 132:-0.991205 133:-0.0888696 134:-0.380808 135:-0.129372 136:-0.816532 137:-0.777176 138:-1 139:-1 140:-1 148:-1 149:-1 150:-1 151:-1 152:-1 153:-1 154:-0.999986 156:-1 157:-1 158:-1 159:-1 160:-1 161:-1 162:-1 163:-1 164:-0.999953 165:-0.999885 166:1 167:-1 168:-1 169:-1 170:-1 171:-1 172:-0.999482 173:-0.981533 174:0.924496 175:-0.243225 176:-1 177:-1 178:-1 179:-1 180:-1 181:-1 182:-1 186:-1 187:-1 188:-1 189:-1 190:-1 191:-1 192:-0.999995 193:-0.999941 194:-0.999993 195:-0.999998 196:-1 197:-1 198:-1 199:-1 200:-1 201:-1 202:-1 203:-1 204:-1 205:-1 206:-0.999989 207:-0.999661 208:1 209:-1 210:-1 211:-1 212:-1 213:-1 214:-0.979391 215:-1 216:1 217:0.207588 218:-1 219:-1 220:-1 221:-1 222:-1 223:-1 224:-1 227:-1 228:-1 229:-1 230:-1 231:-0.999969 232:-0.999982 233:-0.999959 234:-0.999998 235:-1 236:-1 237:-1 238:-1 239:-1 240:-1 241:-1 242:-1 243:-1 244:-1 245:-1 246:-1 247:-1 248:-0.999997 249:-0.999968 250:1 251:-1 252:-1 253:-1 254:-1 255:-1 256:-1 257:-0.467637 258:1 259:-0.806453 260:-1 261:-1 262:-1 263:-1 264:-1 265:-1 266:-1 268:-1 269:-1 270:-1 271:-0.999981 272:-0.999955 273:-0.999996 274:-0.999997 275:-0.999998 276:-1 277:-1 278:-1 279:-1 280:-1 281:-1 282:-1 283:-1 284:-1 285:-1 286:-0.999986 287:-0.999891 288:1 289:-0.99998 290:-1 291:-1 292:1 293:1 294:1 295:-1 296:-1 297:-1 298:-0.998564 299:-0.439476 300:0.407214 301:-0.730224 302:-1 303:-1 304:-1 305:-1 306:-1 307:-1 308:-1 310:-1 311:-1 312:-0.999985 313:-0.999947 314:-0.999978 315:-0.999999 316:-0.999977 317:-1 318:-1 319:-1 320:-1 321:-1 322:-1 323:-1 324:-1 325:-1 326:-1 327:-0.999978 328:-0.999968 329:-0.999912 330:1 331:-1 332:-1 333:-1 334:-1 335:1 336:1 337:-1 338:-1 339:-1 340:-1 341:-1 342:-1 343:-1 344:-1 345:0.340206 346:-0.345403 347:-1 348:-1 349:-1 350:-1 351:-1 354:-1 355:-1 356:-1 357:-1 358:-1 359:-1 360:-0.999998 361:-0.999902 362:-0.999996 363:-1 364:-1 366:-1 367:-1 368:-1 369:-1 370:-0.999998 371:-0.999997 372:1 373:-1 374:-1 375:-1 376:-1 378:-1 379:-1 380:-1 381:-1 382:-1 383:-1 384:-1 385:-0.570757 386:-0.854748 387:-0.41315 388:-0.859101 389:0.405878 390:-0.994104 391:-1 392:-1 393:-1 395:-1 396:-1 397:-1 398:-1 399:-0.99983 400:-0.999648 401:-0.999996 402:-0.999992 403:-0.999969 404:-0.999991 405:-0.999997 406:-0.999984 407:-1 408:-1 409:-1 410:-0.999994 411:-0.999973 412:-0.99999 413:-0.999795 414:-0.999932 415:-1 416:-1 417:-1 418:-1 419:-1 420:-1 421:-1 422:-1 423:-1 424:-1 425:-1 426:-0.557292 427:-0.583404 428:-0.153199 429:-0.937519 430:-0.706948 431:-0.389236 432:0.837941 433:-0.997896 434:-1 435:-1 436:-1 437:-1 438:1 439:-0.999895 440:-0.999995 441:-0.999997 442:-0.999977 443:-1 444:-0.999961 445:-0.999946 446:-0.999992 447:-0.999987 448:-0.999993 449:-1 450:-1 451:-0.999994 452:-0.999964 453:-0.999986 454:-0.999961 455:-0.999931 456:-0.999936 457:-1 458:-1 459:-1 460:-1 461:-1 462:-1 463:-1 464:-1 465:-1 466:-1 467:-1 468:-0.722826 469:-0.484637 470:-0.534236 471:-0.817531 472:-0.589454 473:-0.548962 474:0.88633 475:-0.998758 476:-1 477:-1 478:1 479:1 480:-0.999821 481:-0.999991 482:-0.999998 483:-0.469119 484:-0.999992 485:-0.999992 486:-1 487:-0.999977 488:-0.999938 489:-0.999982 490:-0.999992 491:-1 492:-0.999991 493:-0.999959 494:-0.999986 495:-0.999969 496:-0.999977 497:-0.999984 498:-0.999963 499:-0.999995 500:-1 501:-1 502:-1 503:-1 504:-1 508:-1 509:-1 510:-0.646079 511:0.6412 512:-1 513:-1 514:-1 515:-1 523:-1 524:-0.999968 525:-0.999997 526:-1 527:-1 534:-1 535:-1 536:-1 537:-1 538:-1 539:-0.99997 540:-0.999979 541:-1 542:-1 547:-1 548:-1 549:-1 550:1 551:-0.929738 552:-0.980761 553:-1 554:-1 555:-1 556:-1 557:-1 558:-1 559:-1 560:-1 561:-0.999986 562:-0.999982 563:-0.999996 564:-1 565:-1 566:-1 567:-1 568:-1 569:-1 570:-1 571:-1 572:-1 575:-1 576:-1 577:-0.280754 578:1 579:1 580:-1 581:-1 582:-1 583:-1 584:-1 588:-1 589:-1 590:1 591:1 592:-1 593:-0.99096 594:-0.990339 595:-0.996174 596:-1 597:-1 598:-1 599:-1 600:-1 601:-1 602:-1 603:-0.999986 604:-1 605:-1 606:-1 607:-1 608:-1 609:-1 610:-1 611:-1 612:-1 617:-0.999834 618:1 619:-1 620:-1 621:-1 622:-1 623:-1 624:-1 625:-1 626:-1 629:-1 630:-1 631:-0.0989588 632:1 633:-0.619798 634:-1 635:-0.993138 636:-0.99022 637:-0.995173 638:-1 639:-1 640:-1 641:-1 642:-1 643:-1 644:-1 645:-0.999986 646:-1 647:-1 648:-1 649:-1 650:-1 651:-1 652:-1 653:-1 659:-0.999808 660:-1 661:-1 662:-1 663:-1 664:-1 665:-1 666:-1 667:-1 668:-1 672:-1 676:-1 677:-1 678:-1 679:-1 680:0.931832 681:-0.959024 682:-1 683:-1 688:-1 689:-1 690:-1 691:-1 692:-0.999998 693:-0.999986 694:-1 704:-1 705:-1 706:-0.999976 707:-0.999973 708:-1 709:-1 710:-1 711:-1 715:-1 716:-1 717:-1 718:-1 719:-1 720:-1 721:-1 722:0.749909 723:-0.250037 724:-0.981722 725:-0.996952 726:-1 727:-1 728:-1 729:-0.999806 730:-0.999993 731:-1 732:-1 733:-1 734:-1 735:-1 736:-1 737:-1 738:-1 739:-1 740:-1 743:-1 744:-1 745:1 746:1 747:-1 748:-1 749:-1 750:-1 751:-1 752:-1 753:-1 755:-1 756:-1 757:-1 758:-1 759:-1 760:-1 761:-1 762:-1 763:-1 764:-0.703125 765:0.774301 766:-1 767:-1 768:-1 769:-1 770:-1 771:-0.999986 772:-1 773:-1 774:-1 775:-1 776:-1 777:-1 778:-1 779:-1 780:-1 781:-1 782:-1 785:-1 786:-0.671647 787:1 788:-0.622398 789:-1 790:-1 791:-1 792:-1 793:-1 794:-1 795:-1 797:-1 798:-1 799:-1 800:-1 801:-1 802:-1 803:-1 804:-1 805:-1 806:1 807:-0.979364 808:-0.999771 809:-1 810:-1 811:-1 812:-1 813:-0.999986 814:-1 815:-1 816:-1 817:-1 818:-1 819:-1 820:-1 821:-1 822:-1 827:-0.999982 828:1 829:0.510416 830:-1 831:-1 832:-1 833:-1 834:-1 835:-1 836:-1 837:-1 838:-1 840:-1 
-1 1 1 1 1 21:-0.818488 35:-0.739334 48:-1 49:0.968579 50:-0.966111 63:-1 64:-0.606725 65:-1 77:-1 78:-0.739334 79:-1 86:-1 87:-1 88:-1 89:-1 90:-1 91:0.996075 92:-0.978856 93:-0.988132 94:-0.999244 95:-1 96:-1 97:-1 98:-1 104:-1 105:-1 106:-1 107:-1 108:-1 109:1 110:-1 111:-1 112:-1 115:-1 116:-1 117:-1 118:-1 119:-1 120:-1 121:-0.705335 122:-1 123:-1 124:-1 125:-1 126:-1 127:-1 128:-1 129:-1 130:-1 131:-1 132:-0.588355 133:0.872504 134:-0.989324 135:-0.984989 136:-0.996837 137:-0.996158 138:-1 139:-1 140:-1 148:-1 149:-1 150:-1 151:-1 152:-1 153:-1 154:-0.818488 156:-1 157:-1 158:-1 159:-1 160:-1 161:-1 162:1 163:-0.582678 164:-1 165:-1 166:-1 167:-1 168:-1 169:-1 170:-1 171:-1 172:1 173:0.2352 174:-0.966819 175:-0.986952 176:-1 177:-1 178:-1 179:-1 180:-1 181:-1 182:-1 186:-1 187:-1 188:-1 189:-1 190:-1 191:-1 192:1 193:-1 194:-1 195:-1 196:-1 197:-1 198:-1 199:-1 200:-1 201:-1 202:-1 203:-1 204:1 205:-1 206:-1 207:-1 208:-1 209:-1 210:-1 211:-1 212:-1 213:-0.152062 214:0.379663 215:-1 216:-0.965517 217:-0.97918 218:-1 219:-1 220:-1 221:-1 222:-1 223:-1 224:-1 227:-1 228:-1 229:-1 230:-1 231:1 232:-1 233:-1 234:-1 235:-1 236:-1 237:-1 238:-1 239:-1 240:-1 241:-1 242:-1 243:-1 244:-1 245:0.168501 246:1 247:-1 248:-1 249:-1 250:-1 251:-1 252:-1 253:-1 254:-0.693017 255:-0.918621 256:0.444295 257:-0.236987 258:-0.965517 259:-0.996663 260:-1 261:-1 262:-1 263:-1 264:-1 265:-1 266:-1 268:-1 269:-1 270:1 271:-0.854395 272:-0.256073 273:-0.907009 274:-1 275:-0.967453 276:1 277:-1 278:-1 279:-1 280:-1 281:-1 282:-1 283:-1 284:-1 285:1 286:0.110078 287:0.168501 288:-1 289:-1 290:-1 291:-1 292:-1 293:-1 294:-1 295:-1 296:-0.75088 297:-0.36839 298:-0.235704 299:0.146999 300:-0.975738 301:-0.995349 302:-1 303:-1 304:-1 305:-1 306:-1 307:-1 308:-1 310:-1 311:1 312:-0.938006 313:-0.609436 314:-0.104961 315:-1 316:-1 317:-1 318:-0.511794 319:-1 320:-1 321:-1 322:-1 323:-1 324:-1 325:-1 326:0.4022 327:1 328:-0.3768 329:-0.415749 330:-1 331:-1 332:-1 333:-1 334:-1 335:-1 336:-1 337:-1 338:-1 339:-1 340:-1 341:-1 342:-1 343:-1 344:-1 345:-0.011376 346:0.0376193 347:-1 348:-1 349:-1 350:-1 351:-1 354:-1 355:-1 356:-1 357:-1 358:-1 359:-1 360:1 361:-0.918632 362:-1 363:-1 364:-1 366:-1 367:-1 368:-1 369:-1 370:-1 371:-1 372:-1 373:1 374:-1 375:-1 376:-1 378:-1 379:-1 380:-1 381:-1 382:-1 383:-1 384:-1 385:-0.992599 386:-0.997496 387:-0.989882 388:-0.997627 389:-0.975795 390:1 391:-1 392:-1 393:-1 395:-1 396:-1 397:-1 398:-1 399:-1 400:-1 401:-1 402:-0.153779 403:0.790085 404:-0.658257 405:-1 406:-1 407:-1 408:-1 409:-1 410:-1 411:-1 412:-1 413:1 414:1 415:-1 416:-1 417:-1 418:-1 419:-1 420:-1 421:-1 422:-1 423:-1 424:-1 425:-1 426:-0.992367 427:-0.992817 428:-0.9854 429:-0.929978 430:0.128098 431:0.292098 432:-0.683952 433:-0.630842 434:-1 435:-1 436:-1 437:-1 438:-1 439:-1 440:-1 441:-1 442:-1 443:-1 444:-1 445:-1 446:-0.67453 447:1 448:-0.945755 449:-1 450:-1 451:-1 452:-1 453:-0.971956 454:-0.912362 455:1 456:0.652203 457:1 458:-1 459:-1 460:-1 461:-1 462:-1 463:-1 464:-1 465:-1 466:-1 467:-1 468:-0.995221 469:-0.991114 470:-0.99197 471:-0.135662 472:0.431545 473:-0.888522 474:-0.685013 475:-0.78205 476:-1 477:-1 478:-1 479:-1 480:-1 481:-1 482:-1 483:-1 484:-1 485:-1 486:-1 487:-1 488:-1 489:1 490:-0.755899 491:-1 492:-1 493:-1 494:-1 495:-0.966614 496:-0.95326 497:-0.859779 498:1 499:1 500:-1 501:-1 502:-1 503:-1 504:-1 508:-1 509:-1 510:0.957259 511:-0.937699 512:-1 513:-1 514:-1 515:-1 523:-1 524:-0.57689 525:-0.969487 526:-1 527:-1 534:-1 535:-1 536:-1 537:-1 538:-1 539:1 540:-1 541:-1 542:-1 547:-1 548:-1 549:-1 550:-0.965517 551:0.646323 552:-0.451347 553:-1 554:-1 555:-1 556:-1 557:-1 558:-1 559:-1 560:-1 561:-1 562:-1 563:-1 564:-1 565:1 566:-1 567:-1 568:-1 569:-1 570:-1 571:-1 572:-1 575:1 576:1 577:-1 578:-1 579:-1 580:-1 581:-1 582:-1 583:-1 584:-1 588:-1 589:-1 590:-0.965517 591:-0.965517 592:-0.847634 593:0.586235 594:-0.751719 595:-0.888056 596:-1 597:-1 598:-1 599:-1 600:-1 601:-1 602:-1 603:-0.962446 604:1 605:-1 606:-1 607:-1 608:-1 609:-1 610:-1 611:-1 612:-1 617:1 618:-1 619:-1 620:-1 621:-1 622:-1 623:-1 624:-1 625:-1 626:-1 629:-1 630:-1 631:-0.984465 632:-0.965517 633:-0.993445 634:-1 635:0.685678 636:-0.689529 637:-0.999917 638:-1 639:-1 640:-1 641:-1 642:-1 643:-1 644:-1 645:-0.831006 646:1 647:-1 648:-1 649:-1 650:-1 651:-1 652:-1 653:-1 659:1 660:-1 661:-1 662:-1 663:-1 664:-1 665:-1 666:-1 667:-1 668:-1 672:-1 676:-1 677:-1 678:-1 679:-1 680:-0.966693 681:0.988135 682:-1 683:-1 688:-1 689:-1 690:-1 691:-1 692:1 693:-0.939373 694:-1 704:-1 705:-1 706:-1 707:-0.523612 708:-0.400409 709:-1 710:-1 711:-1 715:-1 716:-1 717:-1 718:-1 719:-1 720:-1 721:-1 722:-0.969829 723:0.116324 724:-0.103134 725:-0.999947 726:-1 727:-1 728:-1 729:-1 730:-1 731:-1 732:-1 733:1 734:-1 735:-1 736:-1 737:-1 738:-1 739:-1 740:-1 743:1 744:1 745:-1 746:-1 747:-1 748:-1 749:-1 750:-1 751:-1 752:-1 753:-1 755:-1 756:-1 757:-1 758:-1 759:-1 760:-1 761:-1 762:-1 763:-1 764:-0.994881 765:-0.934927 766:1 767:-1 768:-1 769:-1 770:-1 771:-1 772:1 773:-1 774:-1 775:-1 776:-1 777:-1 778:-1 779:-1 780:-1 781:-1 782:-1 785:1 786:-1 787:-1 788:-1 789:-1 790:-1 791:-1 792:-1 793:-1 794:-1 795:-1 797:-1 798:-1 799:-1 800:-1 801:-1 802:-1 803:-1 804:-1 805:-1 806:-0.966102 807:-0.457311 808:0.657765 809:-1 810:-1 811:-1 812:-1 813:-0.959316 814:1 815:1 816:-1 817:-1 818:-1 819:-1 820:-1 821:-1 822:-1 827:1 828:-1 829:-1 830:-1 831:-1 832:-1 833:-1 834:-1 835:-1 836:-1 837:-1 838:-1 840:-1 
-1 1 1 1 1 21:1 35:1 48:-1 49:-0.297908 50:0.274688 63:-1 64:1 65:1 77:-1 78:1 79:-1 86:-1 87:-1 88:-1 89:-1 90:-1 91:-0.928528 92:0.940571 93:-0.999776 94:-0.999986 95:-1 96:-1 97:-1 98:-1 104:-1 105:-1 106:-1 107:-1 108:-1 109:-1 110:-1 111:1 112:1 115:-1 116:-1 117:-1 118:-1 119:1 120:-1 121:1 122:1 123:-1 124:-1 125:-1 126:-1 127:-1 128:-1 129:-1 130:-1 131:-1 132:-0.992084 133:0.0715309 134:-0.0471913 135:-0.999711 136:-0.999939 137:-0.999926 138:-1 139:-1 140:-1 148:-1 149:-1 150:-1 151:-1 152:-1 153:-1 154:1 156:-1 157:-1 158:-1 159:-1 160:-1 161:1 162:-1 163:1 164:1 165:1 166:-1 167:-1 168:-1 169:-1 170:-1 171:-1 172:-0.961538 173:-0.978302 174:0.200949 175:-0.428199 176:1 177:-1 178:-1 179:-1 180:-1 181:-1 182:-1 186:-1 187:-1 188:-1 189:-1 190:-1 191:-1 192:-0.57621 193:1 194:1 195:1 196:1 197:-1 198:-1 199:-1 200:-1 201:1 202:1 203:1 204:-0.704897 205:-1 206:1 207:1 208:-1 209:-1 210:-1 211:-1 212:-1 213:-0.983694 214:-0.858092 215:-0.312136 216:0.196422 217:-0.248729 218:-1 219:-1 220:-1 221:-1 222:-1 223:-1 224:-1 227:-1 228:-1 229:-1 230:-1 231:-1 232:1 233:1 234:1 235:1 236:1 237:-1 238:-1 239:-1 240:-1 241:-1 242:1 243:1 244:-1 245:1 246:0.291768 247:-1 248:1 249:1 250:-1 251:-1 252:-1 253:-0.700492 254:-0.480491 255:-0.816897 256:-0.874592 257:-0.0295626 258:-0.207962 259:-0.711104 260:-1 261:-1 262:-1 263:-1 264:-1 265:-1 266:-1 268:-1 269:-1 270:-1 271:1 272:1 273:1 274:1 275:1 276:-1 277:1 278:1 279:1 280:-1 281:1 282:1 283:1 284:1 285:-1 286:1 287:1 288:-1 289:1 290:1 291:1 292:-1 293:-1 294:-1 295:-0.406249 296:-0.809966 297:-0.987854 298:-0.757991 299:-0.0940855 300:-0.479946 301:-0.501863 302:-1 303:-1 304:-1 305:-1 306:-1 307:-1 308:-1 310:-1 311:-1 312:1 313:1 314:1 315:1 316:1 317:1 318:1 319:-1 320:1 321:1 322:1 323:1 324:1 325:1 326:1 327:-1 328:1 329:1 330:-1 331:1 332:1 333:1 334:-1 335:-1 336:-1 337:-1 338:-1 339:-1 340:-1 341:-1 342:-1 343:-1 344:-0.805811 345:0.365166 346:-0.522142 347:-1 348:-1 349:-1 350:-1 351:-1 354:-1 355:-1 356:-1 357:-1 358:-1 359:-1 360:-1 361:1 362:1 363:1 364:1 366:-1 367:-1 368:-1 369:1 370:1 371:1 372:-1 373:-1 374:-1 375:-1 376:-1 378:-1 379:-1 380:-1 381:-1 382:-1 383:0.757614 384:-0.710532 385:-0.740695 386:-0.962367 387:-0.556903 388:-0.732811 389:-0.0553181 390:-0.849062 391:-1 392:-1 393:-1 395:-1 396:-1 397:-1 398:-1 399:-1 400:-1 401:1 402:1 403:1 404:1 405:1 406:1 407:-1 408:-1 409:1 410:1 411:1 412:1 413:-1 414:-1 415:-1 416:-1 417:-1 418:-1 419:-1 420:-1 421:-1 422:1 423:0.625978 424:-0.402396 425:-0.686453 426:-0.67293 427:-0.922952 428:-0.902012 429:-0.921753 430:0.222135 431:-0.865209 432:-0.676752 433:-0.0322385 434:-1 435:-1 436:-1 437:-1 438:-1 439:1 440:1 441:1 442:1 443:1 444:1 445:1 446:1 447:-0.453781 448:1 449:-1 450:-1 451:1 452:1 453:1 454:1 455:-1 456:-1 457:-1 458:-1 459:-1 460:-1 461:-1 462:-1 463:0.137366 464:1 465:-0.259516 466:-0.704571 467:-0.456881 468:-0.82934 469:-0.913334 470:-0.999846 471:-0.77456 472:0.21914 473:-0.882187 474:-0.783905 475:-0.50966 476:-0.676821 477:-1 478:-1 479:-1 480:1 481:1 482:1 483:-1 484:1 485:1 486:1 487:1 488:1 489:0.536241 490:1 491:-1 492:1 493:1 494:1 495:1 496:1 497:1 498:-1 499:-1 500:-1 501:-1 502:-1 503:-1 504:-1 508:-1 509:-1 510:-0.656917 511:0.670008 512:-1 513:-1 514:-1 515:-1 523:-1 524:1 525:1 526:-1 527:-1 534:-1 535:-1 536:-1 537:-1 538:-1 539:-1 540:1 541:-1 542:-1 547:-1 548:-1 549:-1 550:-0.999337 551:-0.96834 552:-0.837471 553:1 554:-1 555:-1 556:-1 557:-1 558:-1 559:-1 560:-1 561:1 562:1 563:1 564:-1 565:-1 566:-1 567:-1 568:-1 569:-1 570:-1 571:-1 572:-1 575:-1 576:-1 577:-1 578:-1 579:-1 580:-1 581:-1 582:1 583:1 584:1 588:-1 589:-1 590:-0.999337 591:-0.999337 592:-0.99707 593:-0.969495 594:-0.995263 595:0.312415 596:0.911427 597:-1 598:-1 599:-1 600:-1 601:-1 602:-1 603:1 604:-1 605:-1 606:-1 607:-1 608:-1 609:-1 610:-1 611:-1 612:-1 617:-1 618:-1 619:-1 620:-1 621:-1 622:1 623:1 624:1 625:1 626:-1 629:-1 630:-1 631:-0.999701 632:-0.999337 633:-0.999874 634:-1 635:-0.967583 636:-0.994076 637:-0.550149 638:0.657392 639:-0.388912 640:-1 641:-1 642:-1 643:-1 644:-1 645:1 646:-1 647:-1 648:-1 649:-1 650:-1 651:-1 652:-1 653:-1 659:-1 660:-1 661:-1 662:-1 663:1 664:1 665:1 666:1 667:-1 668:-1 672:-1 676:-1 677:-1 678:-1 679:-1 680:0.935915 681:-0.96249 682:-1 683:-1 688:-1 689:-1 690:-1 691:-1 692:-0.369749 693:1 694:-1 704:-1 705:-1 706:1 707:1 708:-1 709:-1 710:-1 711:-1 715:-1 716:-1 717:-1 718:-1 719:-1 720:-1 721:-1 722:0.238977 723:0.136797 724:-0.982753 725:-0.999999 726:-1 727:-1 728:-1 729:1 730:1 731:1 732:-1 733:-1 734:-1 735:-1 736:-1 737:-1 738:-1 739:-1 740:-1 743:-1 744:-1 745:-1 746:-1 747:1 748:1 749:-1 750:-1 751:-1 752:-1 753:-1 755:-1 756:-1 757:-1 758:-1 759:-1 760:-1 761:-1 762:-1 763:-1 764:-0.907244 765:0.731951 766:-0.765857 767:-1 768:-1 769:-1 770:-1 771:1 772:-1 773:-1 774:-1 775:-1 776:-1 777:-1 778:-1 779:-1 780:-1 781:-1 782:-1 785:-1 786:-1 787:-1 788:-1 789:1 790:1 791:-1 792:-1 793:-1 794:-1 795:-1 797:-1 798:-1 799:-1 800:-1 801:-1 802:-1 803:-1 804:-1 805:-0.817134 806:0.000652 807:-0.758808 808:-0.16201 809:-1 810:-1 811:-1 812:-1 813:1 814:-1 815:-1 816:-1 817:-1 818:-1 819:-1 820:-1 821:-1 822:-1 827:-1 828:-1 829:-1 830:1 831:1 832:1 833:-1 834:-1 835:-1 836:-1 837:-1 838:-1 840:-1 
-1 1 1 1 1 21:-1 35:-1 48:-1 49:-0.482929 50:0.475987 63:-1 64:-1 65:-1 77:-1 78:-1 79:-1 86:-1 87:-1 88:-1 89:-1 90:-1 91:0.325075 92:-0.312513 93:-0.999998 94:-1 95:-1 96:-1 97:-1 98:-1 104:-1 105:-1 106:-1 107:-1 108:-1 109:-1 110:-0.979126 111:-1 112:-1 115:-1 116:-1 117:-1 118:-1 119:-1 120:-0.999994 121:-1 122:-1 123:-1 124:-1 125:-1 126:-1 127:-1 128:-1 129:-1 130:-1 131:-1 132:-0.999937 133:0.686279 134:-0.677927 135:-0.999998 136:-1 137:-0.999999 138:-1 139:-1 140:-1 148:-1 149:-1 150:-1 151:-1 152:-1 153:-1 154:-1 156:-1 157:-1 158:-1 159:-1 160:-1 161:-1 162:-0.999997 163:-1 164:-1 165:-1 166:-1 167:-1 168:-1 169:-1 170:-1 171:-1 172:-0.999695 173:0.484823 174:-0.3564 175:-0.995462 176:-0.984127 177:-1 178:-1 179:-1 180:-1 181:-1 182:-1 186:-1 187:-1 188:-1 189:-1 190:-1 191:-1 192:-1 193:-1 194:-1 195:-1 196:-1 197:-1 198:-1 199:-1 200:-1 201:-1 202:-1 203:-1 204:-1 205:-0.972107 206:-1 207:-1 208:-1 209:-1 210:-1 211:-1 212:-1 213:-0.999871 214:-0.998883 215:0.992628 216:-0.990505 217:-0.994038 218:-1 219:-1 220:-1 221:-1 222:-1 223:-1 224:-1 227:-1 228:-1 229:-1 230:-1 231:-1 232:-1 233:-1 234:-1 235:-1 236:-1 237:-1 238:-1 239:-1 240:-1 241:-1 242:-1 243:-1 244:-1 245:-0.999998 246:-0.999999 247:-1 248:-1 249:-1 250:-1 251:-1 252:-1 253:-0.997623 254:-0.995877 255:-0.998547 256:-0.999005 257:0.27025 258:0.079399 259:-0.997707 260:-1 261:-1 262:-1 263:-1 264:-1 265:-1 266:-1 268:-1 269:-1 270:-1 271:-1 272:-0.999999 273:-1 274:-1 275:-1 276:-1 277:-1 278:-1 279:-1 280:-1 281:-1 282:-1 283:-1 284:-1 285:-1 286:-0.999999 287:-0.999999 288:-1 289:-1 290:-1 291:-1 292:-1 293:-1 294:-1 295:-0.995288 296:-0.998492 297:-0.999904 298:-0.998096 299:-0.994157 300:1 301:-0.790503 302:-1 303:-1 304:-1 305:-1 306:-1 307:-1 308:-1 310:-1 311:-1 312:-1 313:-1 314:-0.999999 315:-1 316:-1 317:-1 318:-1 319:-1 320:-1 321:-1 322:-1 323:-1 324:-1 325:-1 326:-1 327:-0.999999 328:-0.999999 329:-1 330:-1 331:-1 332:-1 333:-1 334:-1 335:-1 336:-1 337:-1 338:-1 339:-1 340:-1 341:-1 342:-1 343:-1 344:-0.998459 345:0.312422 346:-0.303296 347:-1 348:-1 349:-1 350:-1 351:-1 354:-1 355:-1 356:-1 357:-1 358:-1 359:-1 360:-1 361:-1 362:-1 363:-1 364:-1 366:-1 367:-1 368:-1 369:-1 370:-1 371:-1 372:-0.992786 373:-1 374:-1 375:-1 376:-1 378:-1 379:-1 380:-1 381:-1 382:-1 383:-0.986051 384:-0.997703 385:-0.997942 386:-0.952272 387:-0.698401 388:0.848539 389:-0.992537 390:-0.998802 391:-1 392:-1 393:-1 395:-1 396:-1 397:-1 398:-1 399:-1 400:-0.999997 401:-1 402:-1 403:-1 404:-1 405:-1 406:-1 407:-1 408:-1 409:-1 410:-1 411:-1 412:-1 413:-0.999998 414:-1 415:-1 416:-1 417:-1 418:-1 419:-1 420:-1 421:-1 422:-0.984127 423:-0.987095 424:-0.995257 425:-0.997512 426:-0.997404 427:-0.840686 428:-0.0717739 429:-0.285308 430:-0.365679 431:-0.454391 432:-0.997435 433:-0.992319 434:-1 435:-1 436:-1 437:-1 438:-1 439:-1 440:-1 441:-1 442:-1 443:-1 444:-0.999999 445:-0.999999 446:-1 447:-1 448:-1 449:-1 450:-1 451:-1 452:-1 453:-1 454:-1 455:-0.999999 456:-1 457:-1 458:-1 459:-1 460:-1 461:-1 462:-1 463:-0.990973 464:-0.984127 465:-0.994123 466:-0.997655 467:-0.99569 468:-0.998646 469:-0.570957 470:-0.391651 471:-0.257073 472:-0.287814 473:-0.593264 474:-0.998285 475:-0.996108 476:-0.997435 477:-1 478:-1 479:-1 480:-1 481:-1 482:-1 483:-0.998389 484:-1 485:-1 486:-1 487:-0.999999 488:-0.999999 489:-1 490:-1 491:-1 492:-1 493:-1 494:-1 495:-1 496:-1 497:-1 498:-1 499:-1 500:-1 501:-1 502:-1 503:-1 504:-1 508:-1 509:-1 510:0.877811 511:-0.877178 512:-1 513:-1 514:-1 515:-1 523:-1 524:-1 525:-1 526:-1 527:-1 534:-1 535:-1 536:-1 537:-1 538:-1 539:-0.999999 540:-1 541:-1 542:-1 547:-1 548:-1 549:-1 550:-0.999995 551:-0.999749 552:-1 553:0.529101 554:-0.08352 555:-1 556:-1 557:-1 558:-1 559:-1 560:-1 561:-1 562:-1 563:-1 564:-0.981195 565:-1 566:-1 567:-1 568:-1 569:-1 570:-1 571:-1 572:-1 575:-1 576:-1 577:-0.978484 578:-1 579:-1 580:-1 581:-1 582:-1 583:-1 584:-1 588:-1 589:-1 590:-0.999995 591:-0.999995 592:-0.999977 593:-0.999758 594:-1 595:0.2464 596:1 597:-1 598:-1 599:-1 600:-1 601:-1 602:-1 603:-1 604:-1 605:-1 606:-1 607:-1 608:-1 609:-1 610:-1 611:-1 612:-1 617:-0.999999 618:-1 619:-1 620:-1 621:-1 622:-1 623:-1 624:-1 625:-1 626:-1 629:-1 630:-1 631:-0.999998 632:-0.999995 633:-0.999999 634:-1 635:-0.999743 636:-1 637:-0.922169 638:0.800386 639:-0.055147 640:-1 641:-1 642:-1 643:-1 644:-1 645:-1 646:-0.999997 647:-1 648:-1 649:-1 650:-1 651:-1 652:-1 653:-1 659:-0.999999 660:-0.99976 661:-1 662:-1 663:-1 664:-1 665:-1 666:-1 667:-1 668:-1 672:-1 676:-1 677:-1 678:-1 679:-1 680:-0.718504 681:0.719573 682:-1 683:-1 688:-1 689:-1 690:-1 691:-1 692:-1 693:-1 694:-1 704:-1 705:-1 706:-1 707:-1 708:-1 709:-1 710:-1 711:-1 715:-1 716:-1 717:-1 718:-1 719:-1 720:-1 721:-1 722:-0.679072 723:0.786711 724:-0.999863 725:-1 726:-1 727:-1 728:-1 729:-1 730:-1 731:-1 732:-0.999863 733:-1 734:-1 735:-1 736:-1 737:-1 738:-1 739:-1 740:-1 743:-1 744:-1 745:-0.994143 746:-1 747:-1 748:-1 749:-1 750:-1 751:-1 752:-1 753:-1 755:-1 756:-1 757:-1 758:-1 759:-1 760:-1 761:-1 762:-1 763:-1 764:-0.196234 765:0.347026 766:-0.998142 767:-1 768:-1 769:-1 770:-1 771:-1 772:-1 773:-1 774:-1 775:-1 776:-1 777:-1 778:-1 779:-1 780:-1 781:-1 782:-1 785:-0.999999 786:-1 787:-1 788:-1 789:-1 790:-1 791:-1 792:-1 793:-1 794:-1 795:-1 797:-1 798:-1 799:-1 800:-1 801:-1 802:-1 803:-1 804:-1 805:-0.998549 806:-0.007932 807:-0.0775053 808:-0.882456 809:-1 810:-1 811:-1 812:-1 813:-1 814:-1 815:-1 816:-1 817:-1 818:-1 819:-1 820:-1 821:-1 822:-1 827:-0.999999 828:-1 829:-1 830:-1 831:-1 832:-1 833:-1 834:-1 835:-1 836:-1 837:-1 838:-1 840:-1 
