svm_type c_svc
kernel_type rbf
gamma 0.000396825
nr_class 6
total_sv 72
rho 0.956969 0.315141 0.247628 0.285742 0.383132 -0.579257 -0.773991 -0.533652 -0.532585 -0.225656 0.0357878 0.174105 0.135405 0.243008 0.00347057
label 8 10 12 13 15 16
nr_sv 12 12 12 12 12 12
SV
1 0 0 0.4039195740380264 1 1:-0.706933 2:0.264298 3:-0.980891 4:-0.94348 5:-0.0332726 6:-0.873143 7:-0.294612 8:-0.831572 9:-0.832732 10:0.132582 11:-0.293709 12:-0.176779 13:-0.778088 14:0.247191 15:-0.983905 16:-0.958084 17:-0.0140873 18:-0.897815 19:-0.75802 20:0.164906 21:-1 22:-0.981572 23:-0.183369 24:-0.896068 25:-0.326851 26:-0.885293 27:-0.86229 28:0.105436 29:-0.102569 30:-0.354619 31:-0.696425 32:0.190948 33:-1 34:-0.982349 35:-0.140512 36:-0.885005 37:-0.925575 38:0.256248 39:-0.964478 40:-0.977264 41:-0.256975 42:-0.39872 43:-0.649344 44:-0.938449 45:-0.653967 46:-0.137401 47:-0.651033 48:-0.132983 49:-0.963347 50:0.32711 51:-0.966812 52:-0.978389 53:-0.210076 54:-0.439409 55:-0.692994 56:-0.256299 57:-0.815527 58:-0.916374 59:-0.478137 60:-0.778615 61:-0.586456 62:-0.888278 63:-0.612953 64:-0.0822532 65:-0.763984 66:-0.219545 67:-0.685426 68:-0.207534 69:-0.783372 70:-0.914104 71:-0.443072 72:-0.726771 73:-0.512748 74:1 75:-0.893971 76:-0.908287 77:1 78:-0.940333 79:-0.232168 80:-0.987634 81:-0.61134 82:0.406667 83:-0.885866 84:0.149535 85:-0.113424 86:1 87:-0.877889 88:-0.921067 89:0.926091 90:-0.931283 91:0.771362 92:0.219746 93:-0.878728 94:1 95:-0.124814 96:-0.30022 97:0.152014 98:-0.931766 99:0.40185 100:0.165506 101:-0.781295 102:0.392356 103:0.739808 104:0.253488 105:-0.881915 106:1 107:-0.100598 108:-0.318609 109:-0.975968 110:0.0149695 111:-0.497444 112:-0.911805 113:0.857246 114:-0.550293 115:-0.648097 116:-0.75759 117:-0.00354305 118:0.0995264 119:-0.774289 120:-0.0598867 121:-0.969799 122:0.530463 123:-0.51677 124:-0.871812 125:1 126:-0.515025 127:-0.951257 128:0.244655 129:-0.758191 130:-0.913478 131:0.68568 132:-0.739871 133:-0.66231 134:-0.580752 135:0.110069 136:-0.539781 137:-0.858226 138:0.309691 139:-0.919997 140:0.502353 141:-0.70525 142:-0.908185 143:0.761008 144:-0.68292 145:-0.99338 146:0.0533382 147:-0.945976 148:-0.969263 149:-0.26518 150:-0.619069 151:-0.683844 152:-0.992026 153:-0.586249 154:-0.186292 155:-0.972182 156:-0.411585 157:-0.871998 158:0.084203 159:-0.945057 160:-0.969203 161:-0.249003 162:-0.607836 163:-0.911325 164:-0.128548 165:-0.724922 166:-0.859003 167:-0.246853 168:-0.559019 169:-0.423766 170:-0.987619 171:0.323357 172:-0.821174 173:-0.904236 174:-0.199059 175:-0.921796 176:0.0523816 177:-0.66483 178:-0.828731 179:-0.090564 180:-0.441907 181:-0.819064 182:-0.403733 183:-0.912524 184:-0.895587 185:0.0617656 186:-0.929654 187:-0.718162 188:-0.846042 189:-0.0596095 190:-0.50362 191:-0.793987 192:-0.180838 193:-0.777896 194:-0.265041 195:-0.88419 196:-0.873309 197:0.308902 198:-0.905946 199:-0.685049 200:-0.288902 201:-0.878685 202:-0.414766 203:0.0450071 204:-0.821905 205:-0.596766 206:-0.587924 207:-0.100102 208:-0.122791 209:-0.66701 210:-0.182775 211:-0.633378 212:-0.199022 213:-0.850619 214:-0.322118 215:0.0785077 216:-0.779392 217:-0.91534 218:-0.758693 219:-0.986444 220:-0.961662 221:-0.741976 222:-0.969579 223:-0.841865 224:-0.920777 225:-0.910603 226:-0.370951 227:-0.930761 228:-0.728629 229:-0.931336 230:-0.749976 231:-0.985278 232:-0.959184 233:-0.734401 234:-0.966962 235:-0.970424 236:-0.917925 237:-0.949132 238:-0.99666 239:-0.91039 240:-0.946273 241:-0.989861 242:-0.816998 243:-0.956135 244:-0.957955 245:-0.674167 246:-0.900398 247:-0.976753 248:-0.910578 249:-0.945186 250:-0.996455 251:-0.902432 252:-0.942104 253:-0.977073 254:-0.838184 255:-0.972469 256:-0.956916 257:-0.955932 258:-0.955363 259:-0.951415 260:-0.853863 261:-0.847311 262:-0.976053 263:-0.869499 264:-0.841995 265:-0.964482 266:-0.829778 267:-0.97036 268:-0.954288 269:-0.954113 270:-0.951499 271:-0.958119 272:-0.91794 273:-0.983488 274:-0.970989 275:-0.969266 276:-0.9421 277:-0.944101 278:-0.86567 279:-0.885837 280:-0.98025 281:-0.885088 282:-0.907462 283:-0.950473 284:-0.913451 285:-0.982282 286:-0.969246 287:-0.9672 288:-0.93895 289:-0.994744 290:-0.51367 291:-0.951164 292:-1 293:-0.630832 294:-0.969095 295:-0.391582 296:-0.978951 297:-0.939774 298:-0.0722849 299:-0.854737 300:-0.811055 301:-0.997803 302:-0.501965 303:-0.947811 304:-1 305:-0.622243 306:-0.966973 307:-0.978126 308:-0.877311 309:-0.994611 310:-0.972333 311:-0.883783 312:-0.988927 313:-0.965366 314:-0.979833 315:-0.987331 316:-0.8694 317:-0.896833 318:-0.906256 319:-0.970272 320:-0.867838 321:-0.994024 322:-0.969323 323:-0.878108 324:-0.987722 325:-0.95416 326:-0.870545 327:-0.972771 328:-0.965258 329:-0.87776 330:-0.964129 331:-0.947447 332:-0.931442 333:-0.881904 334:-0.955301 335:-0.944293 336:-0.893601 337:-0.953192 338:-0.859395 339:-0.970171 340:-0.962264 341:-0.873888 342:-0.960704 343:-0.964166 344:-0.941762 345:-0.977059 346:-0.976776 347:-0.940663 348:-0.960608 349:-0.966419 350:-0.942795 351:-0.941784 352:-0.942847 353:-0.950972 354:-0.944916 355:-0.968773 356:-0.93748 357:-0.975133 358:-0.974864 359:-0.936323 360:-0.957303 361:-0.881874 362:-0.597997 363:-0.975724 364:-0.959871 365:0.499486 366:-0.82147 367:-0.653591 368:-0.974458 369:-0.923659 370:0.184376 371:-0.412423 372:-0.772733 373:-0.906842 374:-0.603162 375:-0.978729 376:-0.972703 377:0.389384 378:-0.870772 379:-0.84202 380:-0.583701 381:-1 382:-1 383:0.246761 384:-0.930179 385:-0.672116 386:-0.99062 387:-1 388:0.547096 389:-0.0853259 390:-0.844412 391:-0.77695 392:-0.588721 393:-1 394:-1 395:0.251285 396:-0.919442 397:-0.957352 398:-0.0227354 399:-1 400:-1 401:-0.0345545 402:-0.682168 403:-0.942873 404:-1 405:-0.976885 406:0.110922 407:-0.451803 408:0.135256 409:-0.974158 410:-0.0012121 411:-1 412:-1 413:-0.0257948 414:-0.703666 415:-0.699524 416:-0.534825 417:-0.916744 418:-0.989998 419:-0.589497 420:-0.632381 421:-0.973517 422:-1 423:-1 424:0.46166 425:-0.866866 426:0.121348 427:-0.652466 428:-0.507961 429:-0.916383 430:-0.989225 431:-0.570878 432:-0.540057 433:-0.685742 434:0.573927 435:-0.948402 436:-0.967093 437:1 438:-0.583328 439:-0.920486 440:-1 441:-1 442:1 443:-0.806712 444:0.248732 445:-0.411797 446:0.368632 447:-0.943626 448:-0.972393 449:1 450:-0.646955 451:0.238258 452:-0.108879 453:-1 454:0.329359 455:-0.0484137 456:-0.277222 457:-0.708263 458:-1 459:0.856898 460:-0.197491 461:-0.827255 462:0.31193 463:0.375426 464:-0.0451331 465:-1 466:0.447091 467:0.00231898 468:-0.213208 469:-0.939295 470:-0.655657 471:-0.597026 472:-0.85907 473:0.51552 474:-0.583615 475:-0.99704 476:-0.957314 477:0.395608 478:-0.23698 479:-0.724402 480:-0.282026 481:-0.902166 482:-0.457218 483:-0.616166 484:-0.777854 485:0.746669 486:-0.529097 487:-0.997581 488:-0.608448 489:-0.754257 490:-0.816908 491:0.303085 492:-0.602708 493:-0.993477 494:-0.868541 495:0.30643 496:-0.213444 497:-0.802282 498:-0.0113061 499:-1 500:-0.527422 501:-0.676335 502:-0.798493 503:0.388723 504:-0.509072 505:-0.993362 506:-0.444546 507:-0.973192 508:-0.964812 509:-0.505215 510:-0.542465 511:-0.848913 512:-1 513:-0.895086 514:-0.475359 515:-0.95037 516:-0.468727 517:-0.976022 518:-0.425909 519:-0.97283 520:-0.962339 521:-0.400628 522:-0.543789 523:-0.960508 524:-0.57624 525:-0.82265 526:-0.899994 527:-0.559089 528:-0.488444 529:-0.987437 530:-0.999025 531:-0.46064 532:-0.788478 533:-0.890127 534:-0.668463 535:-0.953021 536:-0.353232 537:-0.823265 538:-0.847365 539:-0.48289 540:-0.458913 541:-0.815419 542:-0.742256 543:-0.894224 544:-0.925402 545:-0.472156 546:-0.908021 547:-0.943469 548:-0.976698 549:-0.235723 550:-0.621095 551:-0.814869 552:-0.463317 553:-0.711508 554:-0.646333 555:-0.854858 556:-0.883172 557:-0.349563 558:-0.873791 559:-0.436328 560:-0.774767 561:-0.859465 562:-0.420713 563:-0.485715 564:-0.782426 565:-0.896138 566:-0.869751 567:-0.501583 568:-0.397595 569:-0.766273 570:-0.415549 571:-0.316068 572:-0.718212 573:-0.832777 574:-0.291623 575:-0.4014 576:-0.727795 577:-0.918427 578:-0.883275 579:-0.990273 580:-0.957114 581:-0.657838 582:-0.943304 583:-0.731896 584:-0.938256 585:-0.959493 586:-0.370707 587:-0.925217 588:-0.910523 589:-0.92483 590:-0.878438 591:-0.98993 592:-0.955414 593:-0.647096 594:-0.941584 595:-0.97767 596:-0.826614 597:-0.997097 598:-1 599:-0.894285 600:-0.976363 601:-0.988591 602:-0.791614 603:-1 604:-0.989322 605:-0.667401 606:-0.831405 607:-0.981625 608:-0.815053 609:-0.996866 610:-1 611:-0.889931 612:-0.974377 613:-0.922149 614:-0.789102 615:-0.993308 616:-0.935416 617:-0.939356 618:-0.988508 619:-0.860639 620:-0.575106 621:-0.922196 622:-0.977518 623:-0.828574 624:-0.902882 625:-0.926078 626:-0.782258 627:-0.992726 628:-0.929799 629:-0.933643 630:-0.987653 631:-0.911851 632:-0.871735 633:-1 634:-0.905277 635:-0.941344 636:-0.990704 637:-0.921943 638:-0.857419 639:-0.911455 640:-0.977402 641:-0.915142 642:-0.920862 643:-0.902101 644:-0.86325 645:-1 646:-0.900828 647:-0.936658 648:-0.989377 649:-0.990539 650:-0.850466 651:-1 652:-0.994845 653:-0.613316 654:-0.931068 655:-0.791921 656:-0.992654 657:-0.960651 658:-0.374897 659:-0.837154 660:-0.945506 661:-0.99683 662:-0.845519 663:-1 664:-0.994619 665:-0.602015 666:-0.930131 667:-0.961305 668:-0.89452 669:-0.990515 670:-0.991427 671:-0.805653 672:-0.964708 673:-0.936842 674:-0.973028 675:-0.990564 676:-0.826952 677:-0.889536 678:-0.747995 679:-0.959389 680:-0.887428 681:-0.990126 682:-0.990852 683:-0.798011 684:-0.962743 685:-0.988019 686:-0.883906 687:-0.964735 688:-0.965897 689:-0.856249 690:-0.961126 691:-0.830777 692:-0.830944 693:-0.871396 694:-0.948283 695:-0.943826 696:-0.939718 697:-0.997456 698:-0.869537 699:-0.963238 700:-0.96233 701:-0.850069 702:-0.95706 703:-1 704:-0.858973 705:-0.984778 706:-0.966408 707:-0.876067 708:-0.962053 709:-0.952561 710:-0.882073 711:-0.888541 712:-0.96572 713:-0.963131 714:-0.943094 715:-1 716:-0.850576 717:-0.983026 718:-0.963179 719:-0.868688 720:-0.959605 721:-0.697871 722:0.45017 723:-1 724:-0.927556 725:-0.483025 726:-1 727:-0.39869 728:-0.818117 729:-0.787142 730:-0.581483 731:-0.85208 732:-0.0233826 733:-0.732596 734:0.478306 735:-1 736:-0.948311 737:-0.480056 738:-1 739:-0.862997 740:0.253856 741:-1 742:-0.935675 743:-0.64275 744:-1 745:-0.292936 746:-0.872764 747:-0.774225 748:-0.819367 749:-0.795756 750:-0.0976672 751:-0.771499 752:0.348767 753:-1 754:-0.93602 755:-0.630119 756:-1 757:-0.956532 758:0.108281 759:-0.940115 760:-0.948912 761:-0.525279 762:-0.461139 763:-0.439182 764:-0.916274 765:-0.294872 766:-0.49107 767:-0.935783 768:-0.316052 769:-0.973334 770:0.187355 771:-0.942741 772:-0.947501 773:-0.492355 774:-0.447104 775:-0.921988 776:-0.2743 777:-0.848119 778:-0.880621 779:-0.51843 780:-1 781:-0.426716 782:-0.829387 783:-0.461079 784:-0.684202 785:-0.869922 786:-0.527705 787:-0.888994 788:-0.20514 789:-0.814363 790:-0.864119 791:-0.482657 792:-1 793:-0.690701 794:0.772289 795:-0.718199 796:-0.819588 797:0.0305323 798:-1 799:0.54028 800:-0.982793 801:0.375945 802:-0.648802 803:-1 804:-0.0694377 805:-0.553102 806:0.903751 807:-0.753564 808:-0.839117 809:0.0266198 810:-1 811:1 812:0.551573 813:-0.525179 814:1 815:-0.575592 816:-0.735423 817:1 818:-0.915767 819:-0.0809883 820:0.112747 821:-0.939813 822:0.420068 823:1 824:0.506399 825:-0.616402 826:1 827:-0.587947 828:-0.806447 829:-1 830:0.912832 831:-0.624901 832:-0.937073 833:0.305843 834:-0.739817 835:0.00462614 836:-0.741488 837:-0.403956 838:-0.462514 839:-0.928444 840:0.0276751 841:-1 842:1 843:-0.637756 844:-0.912528 845:0.815197 846:-0.731128 847:-0.923848 848:1 849:-0.842757 850:-1 851:0.0820597 852:-0.883453 853:-0.547399 854:-0.542355 855:-0.228781 856:-0.872202 857:-0.927113 858:0.368615 859:-0.877842 860:1 861:-0.786752 862:-1 863:0.325905 864:-0.841943 865:-0.991998 866:-0.0294453 867:-0.943649 868:-1 869:-0.485841 870:-0.754548 871:-0.478742 872:-0.99062 873:-0.471537 874:-0.735674 875:-1 876:-0.386827 877:-0.843854 878:0.00786939 879:-0.942846 880:-1 881:-0.479224 882:-0.757572 883:-0.88449 884:-0.391002 885:-0.768953 886:-1 887:0.610381 888:-0.763383 889:-0.058767 890:-0.979711 891:1 892:-0.971226 893:-0.915993 894:-0.499539 895:-0.926342 896:-0.245176 897:-0.753295 898:-1 899:0.49947 900:-0.72364 901:-0.87092 902:-0.482772 903:-0.937074 904:-0.808273 905:0.620042 906:-0.93234 907:-0.68363 908:-0.789829 909:0.177192 910:-0.615146 911:-0.919714 912:0.0439659 913:-0.850399 914:-0.33798 915:-0.921512 916:-0.804138 917:0.49292 918:-0.923881 919:-0.843016 920:-0.301274 921:-0.928778 922:-0.661399 923:0.31868 924:-0.807242 925:-0.533136 926:-0.639318 927:0.0144746 928:-0.426955 929:-0.800424 930:-0.136153 931:-0.819234 932:-0.197151 933:-0.913141 934:-0.65501 935:0.246979 936:-0.794026 937:-0.90945 938:-0.696715 939:-0.987198 940:-0.968261 941:-0.865459 942:-1 943:-0.826001 944:-0.947067 945:-0.889981 946:-0.935182 947:-0.981482 948:-0.67527 949:-0.927101 950:-0.686736 951:-0.985634 952:-0.964952 953:-0.861257 954:-1 955:-0.977986 956:-0.971798 957:-0.947976 958:-0.996144 959:-0.962741 960:-0.963252 961:-0.98846 962:-0.922876 963:-0.963834 964:-0.971236 965:-0.840197 966:-0.980227 967:-0.973909 968:-0.970774 969:-0.938073 970:-0.995787 971:-0.955649 972:-0.956257 973:-0.993798 974:-0.934773 975:-0.963378 976:-0.978721 977:-0.984492 978:-0.960842 979:-0.984467 980:-0.988003 981:-0.867333 982:-0.979867 983:-0.965882 984:-0.792732 985:-0.99559 986:-0.927635 987:-0.960092 988:-0.976999 989:-0.982795 990:-0.958235 991:-0.987061 992:-0.964653 993:-0.974368 994:-0.993765 995:-0.987564 996:-0.931183 997:-0.980576 998:-0.990747 999:-0.908382 1000:-0.985573 1001:-0.96619 1002:-0.932324 1003:-0.99694 1004:-0.960606 1005:-0.972342 1006:-0.993198 1007:-0.986339 1008:-0.927099 1009:-0.972063 1010:-0.506157 1011:-0.927257 1012:-0.988138 1013:-0.723614 1014:-0.997005 1015:-0.382539 1016:-0.96782 1017:-0.931627 1018:-0.442812 1019:-0.968759 1020:-0.744286 1021:-0.987996 1022:-0.494397 1023:-0.920638 1024:-0.987058 1025:-0.717567 1026:-0.996733 1027:-0.992837 1028:-0.988942 1029:-0.997406 1030:-0.967698 1031:-0.937805 1032:-0.994 1033:-0.983428 1034:-0.987664 1035:-0.989722 1036:-0.922522 1037:-0.979146 1038:-0.992797 1039:-0.983362 1040:-0.987596 1041:-0.997006 1042:-0.962709 1043:-0.935208 1044:-0.993073 1045:-0.949851 1046:-0.970645 1047:-0.984588 1048:-0.962317 1049:-0.954306 1050:-0.970818 1051:-0.984681 1052:-0.996795 1053:-0.951605 1054:-0.965473 1055:-0.966638 1056:-0.919874 1057:-0.941498 1058:-0.967779 1059:-0.983179 1060:-0.958639 1061:-0.950128 1062:-0.967289 1063:-0.957347 1064:-0.989589 1065:-0.988821 1066:-0.973486 1067:-0.975037 1068:-0.978695 1069:-0.991094 1070:-0.996648 1071:-0.975989 1072:-0.977756 1073:-0.972799 1074:-0.946947 1075:-0.960059 1076:-0.988691 1077:-0.986556 1078:-0.970541 1079:-0.972885 1080:-0.974379 1081:-1 1082:-1 1083:-1 1084:-1 1085:1 1086:-0.903893 1087:-0.989279 1088:-1 1089:-0.896128 1090:1 1091:-1 1092:-1 1093:-1 1094:-1 1095:-1 1096:-1 1097:1 1098:-0.909326 1099:-0.989684 1100:-1 1101:-1 1102:-1 1103:1 1104:-0.914311 1105:-1 1106:-1 1107:-1 1108:1 1109:-1 1110:-1 1111:-1 1112:-1 1113:-1 1114:-1 1115:1 1116:-0.916535 1117:-1 1118:-0.98984 1119:-1 1120:-1 1121:-0.415971 1122:-0.694281 1123:-0.976726 1124:-1 1125:-1 1126:-0.261298 1127:-0.633459 1128:-1 1129:-0.988219 1130:-0.983604 1131:-1 1132:-1 1133:-0.0572907 1134:-0.557851 1135:-0.98639 1136:-1 1137:-1 1138:-1 1139:-0.975916 1140:-0.605454 1141:-0.959782 1142:-1 1143:-1 1144:0.227517 1145:-1 1146:-1 1147:-1 1148:-1 1149:-1 1150:-1 1151:-0.973043 1152:-0.397817 1153:-0.971749 1154:-0.821289 1155:-1 1156:-1 1157:1 1158:-0.214039 1159:-0.964959 1160:-1 1161:-1 1162:1 1163:-0.976471 1164:-0.833903 1165:-1 1166:-0.842289 1167:-1 1168:-1 1169:1 1170:-0.282991 1171:-0.812941 1172:-1 1173:-1 1174:0.456943 1175:-0.147716 1176:-0.419567 1177:-1 1178:-1 1179:1 1180:-0.479019 1181:-0.593817 1182:-1 1183:-0.821765 1184:-1 1185:-1 1186:0.110653 1187:-0.126737 1188:-0.379988 1189:-0.995962 1190:-1 1191:-1 1192:-0.831378 1193:0.483999 1194:-1 1195:-0.993769 1196:-1 1197:0.479419 1198:-0.298658 1199:-0.727968 1200:-1 1201:-0.991398 1202:-1 1203:-1 1204:-0.764011 1205:0.635237 1206:-1 1207:-0.998185 1208:-1 1209:-0.98013 1210:-0.897165 1211:0.247494 1212:-0.781273 1213:-0.996209 1214:-1 1215:-0.107024 1216:0.0954784 1217:-0.882492 1218:-1 1219:-1 1220:-1 1221:-0.970894 1222:-0.800393 1223:0.339597 1224:-0.679606 1225:-0.996138 1226:-0.970101 1227:-1 1228:-0.92343 1229:0.628948 1230:-1 1231:-1 1232:-1 1233:-0.412395 1234:0.605774 1235:-1 1236:-0.874503 1237:-0.994433 1238:-0.963904 1239:-1 1240:-0.920911 1241:0.966582 1242:-1 1243:-0.96197 1244:-0.743669 1245:-1 1246:-0.061432 1247:-0.106783 1248:-0.88152 1249:-0.995751 1250:-0.998848 1251:0.542197 1252:-0.759822 1253:-0.851286 1254:-0.546304 1255:-0.946604 1256:-0.742337 1257:-1 1258:-0.0702807 1259:0.157689 1260:-0.85878 1261:-0.960503 1262:-1 1263:-1 1264:-0.951964 1265:-0.688419 1266:-0.928635 1267:-0.99487 1268:-0.997821 1269:-0.781558 1270:-0.733875 1271:-0.91946 1272:-0.905228 1273:-0.920752 1274:-1 1275:-1 1276:-0.902589 1277:-0.54655 1278:-0.860345 1279:-0.851702 1280:-0.998997 1281:-0.970125 1282:-0.739289 1283:-0.49842 1284:-0.583807 1285:-0.984599 1286:-0.991273 1287:-0.803582 1288:0.0859752 1289:-0.897948 1290:-0.902461 1291:-0.806469 1292:-0.998737 1293:-0.968026 1294:-0.667214 1295:-0.393015 1296:-0.523762 1297:-0.992198 1298:-1 1299:-1 1300:-1 1301:0.590072 1302:-0.914701 1303:-0.986745 1304:-1 1305:-0.966435 1306:1 1307:-1 1308:-1 1309:-1 1310:-1 1311:-1 1312:-1 1313:0.626644 1314:-0.91162 1315:-0.991791 1316:-0.80322 1317:-1 1318:-1 1319:-1 1320:-1 1321:-0.997592 1322:-1 1323:-1 1324:-1 1325:-0.933461 1326:-0.748677 1327:-0.996093 1328:-0.780289 1329:-1 1330:-1 1331:-1 1332:-1 1333:-0.938983 1334:-0.728358 1335:-1 1336:-1 1337:-1 1338:-1 1339:-0.824514 1340:-0.623474 1341:-1 1342:-1 1343:-1 1344:-0.938775 1345:-0.926807 1346:-0.70742 1347:-1 1348:-1 1349:-1 1350:-1 1351:-0.791512 1352:-0.94219 1353:-1 1354:-1 1355:-1 1356:-1 1357:-0.833816 1358:-0.968598 1359:-1 1360:-1 1361:-1 1362:-0.970893 1363:-0.76487 1364:-0.922396 1365:-1 1366:-1 1367:-1 1368:-1 1369:-1 1370:-0.993652 1371:-1 1372:-1 1373:1 1374:-1 1375:-0.981086 1376:-1 1377:-0.794437 1378:0.64023 1379:-0.997718 1380:-1 1381:-0.997121 1382:-0.993433 1383:-1 1384:-1 1385:1 1386:-1 1387:-0.956749 1388:-0.819401 1389:-1 1390:-1 1391:-0.844152 1392:-0.985101 1393:-1 1394:-1 1395:-1 1396:-0.83971 1397:-0.921414 1398:-0.706103 1399:-0.957862 1400:-0.812574 1401:-1 1402:-1 1403:-0.833375 1404:-0.983364 1405:-1 1406:-0.887087 1407:-0.947978 1408:-0.945503 1409:-1 1410:-1 1411:-0.762362 1412:-0.88726 1413:-1 1414:-1 1415:-1 1416:-0.944971 1417:-0.9954 1418:-0.868875 1419:-0.944364 1420:-0.942192 1421:-1 1422:-1 1423:-1 1424:-0.846851 1425:-0.971377 1426:-0.967551 1427:-0.993579 1428:-1 1429:-0.884498 1430:-0.87179 1431:-1 1432:-1 1433:-1 1434:-0.926661 1435:-1 1436:-0.829069 1437:-0.96877 1438:-0.965273 1439:-0.992833 1440:-1 1441:-0.748504 1442:0.112314 1443:-0.935243 1444:-0.878478 1445:-0.583348 1446:-0.777397 1447:-0.42387 1448:-0.950225 1449:-0.933481 1450:-0.9296 1451:0.0986295 1452:-0.554494 1453:-0.825429 1454:-0.16657 1455:-0.954734 1456:-0.928481 1457:-0.691021 1458:-0.876132 1459:-0.653311 1460:-0.0921463 1461:-1 1462:-1 1463:-0.802974 1464:-0.930286 1465:-0.460173 1466:-0.981836 1467:-1 1468:-0.935861 1469:1 1470:-0.678636 1471:-0.53168 1472:-0.148663 1473:-1 1474:-1 1475:-0.819515 1476:-0.921059 1477:-0.914964 1478:0.834337 1479:-1 1480:-1 1481:-0.0614472 1482:-0.808429 1483:-0.928793 1484:-1 1485:-0.957442 1486:0.068011 1487:-0.453875 1488:0.744001 1489:-0.970153 1490:0.635182 1491:-1 1492:-1 1493:-0.0775412 1494:-0.843053 1495:-0.441663 1496:-0.244811 1497:-0.838652 1498:-0.984609 1499:-0.355021 1500:-0.809938 1501:-1 1502:-1 1503:-1 1504:0.172763 1505:-0.783914 1506:0.621814 1507:-0.418174 1508:-0.264572 1509:-0.849972 1510:-0.984743 1511:-0.376601 1512:-0.811643 1513:-0.625191 1514:1 1515:-0.932805 1516:-0.944313 1517:0.269514 1518:-0.886666 1519:-0.903914 1520:-1 1521:-1 1522:0.713394 1523:-0.799032 1524:0.671619 1525:-0.330859 1526:0.874845 1527:-0.92219 1528:-0.953016 1529:0.230745 1530:-0.904985 1531:0.929389 1532:0.0473601 1533:-1 1534:-0.0344061 1535:0.176928 1536:-1 1537:-0.511523 1538:-1 1539:0.308027 1540:-0.255998 1541:-1 1542:0.32175 1543:1 1544:0.127819 1545:-1 1546:-0.0380966 1547:0.263613 1548:-1 1549:-0.939483 1550:0.438404 1551:-0.630512 1552:-1 1553:-0.00607119 1554:-0.338569 1555:-1 1556:-0.934266 1557:0.028478 1558:-0.682791 1559:-0.94342 1560:-0.18237 1561:-0.929984 1562:0.565887 1563:-0.529812 1564:-1 1565:0.0985869 1566:-0.267816 1567:-1 1568:0.266055 1569:-0.583057 1570:-0.989735 1571:0.137276 1572:-0.587918 1573:-0.961872 1574:-0.786759 1575:0.0436008 1576:-0.749844 1577:-0.807484 1578:0.0941661 1579:-1 1580:0.467925 1581:-0.470338 1582:-0.9908 1583:0.121809 1584:-0.487502 1585:-1 1586:-0.195726 1587:-0.958697 1588:-0.984473 1589:-0.655051 1590:-0.318436 1591:-0.761763 1592:-1 1593:-0.98312 1594:-0.516078 1595:-0.934774 1596:-0.338251 1597:-0.970472 1598:-0.178686 1599:-0.958724 1600:-0.983552 1601:-0.586284 1602:-0.309187 1603:-0.975501 1604:-0.464732 1605:-0.857701 1606:-1 1607:-0.690998 1608:-0.525246 1609:-0.993562 1610:-1 1611:-0.537767 1612:-1 1613:-0.91356 1614:-0.541287 1615:-0.966361 1616:-0.368956 1617:-0.845265 1618:-1 1619:-0.61408 1620:-0.484182 1621:-0.686593 1622:-0.466326 1623:-0.888015 1624:-0.92145 1625:-0.507129 1626:-1 1627:-0.91258 1628:-0.965881 1629:-0.416112 1630:-0.854167 1631:-0.825645 1632:-0.353086 1633:-0.574471 1634:-0.430204 1635:-0.849406 1636:-0.887744 1637:-0.397547 1638:-1 1639:-0.484026 1640:-0.567894 1641:-0.886039 1642:-0.597051 1643:-0.699038 1644:-0.982712 1645:-0.925719 1646:-0.761167 1647:-0.662769 1648:-0.735079 1649:-0.75219 1650:-0.354164 1651:-0.391895 1652:-0.544558 1653:-0.857935 1654:-0.492246 1655:-0.651455 1656:-0.978448 1657:-0.898786 1658:-0.818443 1659:-0.98512 1660:-0.939742 1661:-0.882077 1662:-1 1663:-0.650381 1664:-0.907752 1665:-0.947994 1666:-0.771456 1667:-0.875962 1668:-0.859927 1669:-0.89347 1670:-0.810939 1671:-0.984589 1672:-0.936842 1673:-0.877476 1674:-1 1675:-0.959658 1676:-0.922612 1677:-0.996224 1678:-1 1679:-0.859257 1680:-0.943147 1681:-0.966589 1682:-0.74623 1683:-1 1684:-0.977138 1685:-0.462253 1686:-1 1687:-0.965267 1688:-0.917933 1689:-0.995842 1690:-1 1691:-0.850747 1692:-0.939555 1693:-0.976059 1694:-1 1695:-0.991725 1696:-0.893656 1697:-0.924465 1698:-0.980707 1699:-0.985033 1700:-0.673333 1701:-0.882497 1702:-0.97141 1703:-0.769291 1704:-1 1705:-0.974086 1706:-1 1707:-0.990876 1708:-0.88489 1709:-0.91575 1710:-0.979594 1711:-0.991408 1712:-0.996911 1713:-1 1714:-0.880874 1715:-0.931915 1716:-0.990088 1717:-0.984616 1718:-0.931493 1719:-0.88306 1720:-0.974424 1721:-0.887563 1722:-1 1723:-0.99258 1724:-0.996489 1725:-1 1726:-0.860173 1727:-0.922633 1728:-0.987759 1729:-0.984483 1730:-0.771896 1731:-1 1732:-0.990824 1733:-0.887813 1734:-0.89056 1735:-0.749277 1736:-0.989483 1737:-1 1738:-0.804379 1739:-0.769398 1740:-0.915699 1741:-1 1742:-0.764258 1743:-1 1744:-0.990555 1745:-0.883878 1746:-0.888659 1747:-0.962968 1748:-0.941734 1749:-0.983599 1750:-0.988445 1751:-0.939719 1752:-0.973242 1753:-0.912011 1754:-0.957702 1755:-0.987085 1756:-0.911625 1757:-0.878818 1758:-0.99128 1759:-0.959759 1760:-0.937311 1761:-0.982932 1762:-0.987659 1763:-0.938368 1764:-0.971625 1765:-0.98149 1766:-0.97048 1767:-1 1768:-0.989135 1769:-0.771814 1770:-0.938026 1771:-1 1772:-0.946294 1773:-0.767394 1774:-0.925921 1775:-0.92944 1776:-0.995742 1777:-1 1778:-0.966085 1779:-1 1780:-0.987518 1781:-0.737848 1782:-0.930776 1783:-1 1784:-0.972432 1785:-1 1786:-0.984652 1787:-0.813105 1788:-0.943868 1789:-1 1790:-0.978302 1791:-0.81963 1792:-0.951116 1793:-0.96582 1794:-1 1795:-1 1796:-0.970391 1797:-1 1798:-0.981818 1799:-0.796588 1800:-0.934681 1801:-0.194089 1802:-0.847792 1803:-1 1804:-0.960436 1805:0.170715 1806:-1 1807:-0.556449 1808:-0.963982 1809:-0.793032 1810:0.328031 1811:-0.633411 1812:-0.813341 1813:-0.325545 1814:-0.844894 1815:-1 1816:-0.964567 1817:0.181835 1818:-1 1819:-0.557033 1820:-0.893223 1821:-1 1822:-1 1823:-0.441617 1824:-1 1825:-0.503941 1826:-1 1827:-0.845466 1828:-0.517159 1829:-0.550746 1830:-0.918969 1831:-0.338406 1832:-0.880451 1833:-1 1834:-1 1835:-0.381617 1836:-1 1837:-0.868204 1838:-0.0909501 1839:-1 1840:-1 1841:-0.397736 1842:0.760592 1843:-0.978919 1844:-1 1845:-0.667408 1846:0.283445 1847:-0.96059 1848:0.436047 1849:-0.937353 1850:0.1221 1851:-1 1852:-1 1853:-0.427302 1854:0.480317 1855:-0.936161 1856:-0.367367 1857:-0.731763 1858:-0.908814 1859:-0.608271 1860:-1 1861:-0.91727 1862:-1 1863:-1 1864:-0.512775 1865:-0.780623 1866:-0.015456 1867:-0.832659 1868:-0.315082 1869:-0.680933 1870:-0.898207 1871:-0.580674 1872:-1 1873:-0.4053 1874:0.375437 1875:-0.905239 1876:-0.64916 1877:1 1878:-1 1879:-0.528212 1880:-0.985976 1881:0.478978 1882:0.0153274 1883:-1 1884:0.38136 1885:-0.0650127 1886:0.335713 1887:-0.889312 1888:-0.716506 1889:0.895865 1890:-1 1891:1 1892:-0.598142 1893:-0.519504 1894:1 1895:-0.443217 1896:-1 1897:-0.463879 1898:-1 1899:0.115127 1900:0.473251 1901:-1 1902:0.375342 1903:1 1904:-0.610118 1905:-0.616284 1906:1 1907:-0.459809 1908:-1 1909:-1 1910:0.582423 1911:-0.859663 1912:-0.889424 1913:0.194116 1914:-0.832883 1915:-0.8351 1916:-0.854985 1917:-0.283193 1918:-0.443005 1919:-0.945154 1920:0.48907 1921:-1 1922:0.876212 1923:-0.843964 1924:-0.845511 1925:0.668341 1926:-0.850571 1927:-1 1928:0.452799 1929:-0.471705 1930:-1 1931:0.0847582 1932:-0.932824 1933:-0.808391 1934:-0.434964 1935:-0.381555 1936:-0.864304 1937:-0.958695 1938:0.457836 1939:-1 1940:0.437458 1941:-0.487768 1942:-1 1943:0.319652 1944:-0.909891 1945:-1 1946:-0.33188 1947:-0.887668 1948:-1 1949:-0.292292 1950:-0.652623 1951:-0.716944 1952:-1 1953:-0.580424 1954:-0.499287 1955:-1 1956:-0.551853 1957:-0.852161 1958:-0.309808 1959:-0.888417 1960:-1 1961:-0.283428 1962:-0.6134 1963:-1 1964:-0.57056 1965:-0.685811 1966:-1 1967:0.97556 1968:-0.524961 1969:-0.527013 1970:-1 1971:1 1972:-0.945054 1973:-1 1974:-0.638297 1975:-1 1976:-0.436219 1977:-0.651258 1978:-1 1979:0.856221 1980:-0.483432 1981:-0.901014 1982:-0.654925 1983:-0.990592 1984:-0.876557 1985:1 1986:-0.981643 1987:-0.894534 1988:-0.976229 1989:0.708891 1990:-0.669881 1991:-0.982613 1992:-0.0533176 1993:-0.878836 1994:-0.544564 1995:-0.988042 1996:-0.858722 1997:1 1998:-0.979446 1999:-0.869092 2000:-0.5663 2001:-1 2002:-0.58711 2003:0.509032 2004:-0.892019 2005:-0.857212 2006:-0.776031 2007:0.317562 2008:-0.40427 2009:-0.993132 2010:0.188148 2011:-0.830532 2012:-0.492065 2013:-1 2014:-0.482805 2015:0.503582 2016:-0.886074 2017:-0.818214 2018:-0.993866 2019:-1 2020:-0.939566 2021:-0.795444 2022:-1 2023:-0.908135 2024:-0.992372 2025:-0.835817 2026:-0.932638 2027:-0.979068 2028:-0.909892 2029:-0.864219 2030:-0.993589 2031:-1 2032:-0.927208 2033:-0.787594 2034:-1 2035:-0.9983 2036:-0.991463 2037:-0.98928 2038:-0.991073 2039:-0.987921 2040:-0.988866 2041:-0.989158 2042:-0.996103 2043:-1 2044:-0.989287 2045:-0.935696 2046:-1 2047:-0.995711 2048:-0.990482 2049:-0.98811 2050:-0.99056 2051:-0.987147 2052:-0.987096 2053:-0.995325 2054:-1 2055:-1 2056:-0.996747 2057:-0.977349 2058:-0.99229 2059:-0.963148 2060:-0.975253 2061:-0.994044 2062:-0.982651 2063:-0.977942 2064:-0.990486 2065:-0.996833 2066:-1 2067:-1 2068:-0.996495 2069:-0.974927 2070:-0.991702 2071:-0.973565 2072:-0.995778 2073:-1 2074:-0.996179 2075:-0.970557 2076:-0.987945 2077:-0.961441 2078:-0.983845 2079:-0.975755 2080:-0.986086 2081:-0.973719 2082:-1 2083:-1 2084:-0.995505 2085:-1 2086:-0.995784 2087:-0.96742 2088:-0.987088 2089:-0.946607 2090:-0.794521 2091:-0.993797 2092:-1 2093:-0.623475 2094:-0.99066 2095:-0.686105 2096:-0.97537 2097:-1 2098:-0.250333 2099:-0.979782 2100:-0.915056 2101:-0.975251 2102:-0.787309 2103:-0.993643 2104:-1 2105:-0.614105 2106:-0.989886 2107:-0.985197 2108:-0.988368 2109:-1 2110:-0.994216 2111:-0.973676 2112:-0.985693 2113:-0.977301 2114:-0.972157 2115:-0.977027 2116:-0.980663 2117:-0.991981 2118:-0.991296 2119:-0.969878 2120:-0.987967 2121:-1 2122:-0.993335 2123:-0.972742 2124:-0.983515 2125:-0.949259 2126:-0.952759 2127:-1 2128:-0.997015 2129:-0.922953 2130:-0.930924 2131:-0.97506 2132:-0.998226 2133:-0.930337 2134:-0.953904 2135:-0.977134 2136:-0.905638 2137:-0.963501 2138:-0.951472 2139:-1 2140:-0.996658 2141:-0.913939 2142:-0.922653 2143:-0.947354 2144:-1 2145:-1 2146:-1 2147:-0.977701 2148:-0.960208 2149:-0.968263 2150:-1 2151:-0.977638 2152:-0.976542 2153:-0.982106 2154:-0.977269 2155:-0.952537 2156:-1 2157:-1 2158:-1 2159:-0.973731 2160:-0.953674 2161:-1 2162:0.760872 2163:-1 2164:-0.933289 2165:-0.716291 2166:-1 2167:-0.457064 2168:-0.794539 2169:-0.75647 2170:-0.975561 2171:-1 2172:1 2173:-0.959578 2174:0.910517 2175:-1 2176:-0.95256 2177:-0.729241 2178:-1 2179:-1 2180:0.742691 2181:-1 2182:-0.955972 2183:-0.666075 2184:-1 2185:-0.417944 2186:-0.859426 2187:-0.649504 2188:-0.916724 2189:-1 2190:0.508929 2191:-0.951892 2192:0.842833 2193:-1 2194:-0.951778 2195:-0.661908 2196:-1 2197:-1 2198:-0.298787 2199:-0.934995 2200:-0.948856 2201:-0.763909 2202:-0.981321 2203:-0.397212 2204:-0.922531 2205:-0.639243 2206:-0.884437 2207:-0.922628 2208:-0.722187 2209:-1 2210:-0.0129387 2211:-0.921707 2212:-0.937323 2213:-0.633275 2214:-0.977361 2215:-0.951334 2216:0.11897 2217:-0.938841 2218:-0.889013 2219:-0.584915 2220:-1 2221:-0.607055 2222:-0.844169 2223:-0.41215 2224:-0.775969 2225:-0.925399 2226:-0.851002 2227:-0.934541 2228:0.262285 2229:-0.920938 2230:-0.876526 2231:-0.49457 2232:-1 2233:-0.963374 2234:1 2235:-0.687285 2236:-0.985221 2237:-0.767058 2238:-1 2239:0.700972 2240:-0.982969 2241:0.260706 2242:-1 2243:-1 2244:-0.474979 2245:-0.958848 2246:1 2247:-0.694311 2248:-0.985695 2249:-0.73729 2250:-1 2251:-0.282498 2252:1 2253:-0.791956 2254:0.0348707 2255:-0.846433 2256:-0.799112 2257:0.961052 2258:-0.881798 2259:-0.547415 2260:-0.972766 2261:-0.942323 2262:0.501186 2263:-0.383405 2264:1 2265:-0.773678 2266:-0.0645979 2267:-0.83914 2268:-0.798208 2269:-1 2270:1 2271:-0.619793 2272:-0.991819 2273:-0.117291 2274:-0.763356 2275:-0.117888 2276:-0.715636 2277:-0.593481 2278:-0.75995 2279:-0.967984 2280:-0.209226 2281:-1 2282:1 2283:-0.593669 2284:-0.991216 2285:-0.0195737 2286:-0.76978 2287:-0.895993 2288:0.763719 2289:-0.914861 2290:-1 2291:-0.133532 2292:-0.79083 2293:-0.634772 2294:-0.771376 2295:-0.272069 2296:-0.979372 2297:-0.946724 2298:0.287978 2299:-0.83173 2300:0.762512 2301:-0.880369 2302:-1 2303:-0.106936 2304:-0.794617 2305:-0.98932 2306:1 2307:-1 2308:-1 2309:-0.524319 2310:-0.923816 2311:-0.394278 2312:-0.986554 2313:-0.680308 2314:-1 2315:-1 2316:1 2317:-0.892973 2318:1 2319:-1 2320:-1 2321:-0.511979 2322:-0.923585 2323:-0.839956 2324:0.976606 2325:-0.83977 2326:-1 2327:-0.152727 2328:-0.99466 2329:-0.309293 2330:-0.967069 2331:-0.033403 2332:-1 2333:-0.80732 2334:0.504662 2335:-0.800524 2336:0.982344 2337:-0.837333 2338:-1 2339:-0.160562 2340:-0.993819 2341:-0.911093 2342:-0.181922 2343:-0.872899 2344:-0.762122 2345:-0.516349 2346:-0.881607 2347:-0.466319 2348:-0.768674 2349:-0.483 2350:-0.695644 2351:-0.738188 2352:-0.548029 2353:-0.913406 2354:-0.00856046 2355:-0.84483 2356:-0.767683 2357:-0.513584 2358:-0.88219 2359:-0.895743 2360:-0.104362 2361:-0.88317 2362:-0.84452 2363:-0.845153 2364:-0.769139 2365:-0.465233 2366:-0.774671 2367:-0.409139 2368:-0.886496 2369:-0.626848 2370:-0.63753 2371:-0.89068 2372:0.0336414 2373:-0.862629 2374:-0.841463 2375:-0.828382 2376:-0.764139 2377:-0.966505 2378:-0.305978 2379:-0.987129 2380:-0.981247 2381:-0.964077 2382:-1 2383:-0.862992 2384:-0.969856 2385:-0.965437 2386:-0.978073 2387:-0.99563 2388:-0.502302 2389:-0.96198 2390:-0.145691 2391:-0.98324 2392:-0.978737 2393:-0.959964 2394:-1 2395:-0.968522 2396:-0.972608 2397:-0.922958 2398:-0.9986 2399:-0.948507 2400:-0.948826 2401:-0.988817 2402:-0.91264 2403:-0.934806 2404:-0.933538 2405:-0.834035 2406:-0.968294 2407:-0.963994 2408:-0.966199 2409:-0.904933 2410:-0.998467 2411:-0.93646 2412:-0.942379 2413:-0.994526 2414:-0.919138 2415:-0.950966 2416:-0.971091 2417:-1 2418:-0.933684 2419:-1 2420:-1 2421:-0.819054 2422:-0.987969 2423:-0.960297 2424:-0.684844 2425:-0.995806 2426:-0.916127 2427:-0.944652 2428:-0.968727 2429:-1 2430:-0.925144 2431:-1 2432:-0.970049 2433:-0.970154 2434:-0.968395 2435:-1 2436:-0.966412 2437:-0.995815 2438:-1 2439:-0.951982 2440:-0.988724 2441:-0.945798 2442:-0.948051 2443:-0.995635 2444:-0.95977 2445:-0.96639 2446:-0.964341 2447:-1 2448:-0.962175 2449:-0.994854 2450:-0.226115 2451:-0.914206 2452:-0.98057 2453:-0.72117 2454:-1 2455:-0.47903 2456:-0.962819 2457:-0.879379 2458:-0.940484 2459:-0.963864 2460:-0.736189 2461:-1 2462:-0.128594 2463:-0.905735 2464:-0.978704 2465:-0.688579 2466:-1 2467:-1 2468:-0.993061 2469:-0.996712 2470:-0.946783 2471:-0.930106 2472:-1 2473:-1 2474:-1 2475:-1 2476:-0.885808 2477:-0.970719 2478:-0.996639 2479:-0.99768 2480:-0.992302 2481:-0.996198 2482:-0.941483 2483:-0.923957 2484:-1 2485:-0.986059 2486:-0.988986 2487:-0.982122 2488:-0.988406 2489:-0.995792 2490:-1 2491:-0.997457 2492:-0.999165 2493:-0.998607 2494:-0.976802 2495:-0.994255 2496:-0.958687 2497:-0.967614 2498:-0.988042 2499:-0.976637 2500:-0.9807 2501:-0.994501 2502:-1 2503:-0.97881 2504:-0.994461 2505:-0.982828 2506:-0.977728 2507:-0.997673 2508:-1 2509:-0.997607 2510:-0.99777 2511:-0.997784 2512:-0.994995 2513:-0.991968 2514:-0.987704 2515:-0.967326 2516:-0.992405 2517:-0.978459 2518:-0.971387 2519:-0.997061 2520:-1 
1 1 1 1 1 1:-0.966506 2:0.332857 3:-0.954527 4:-1 5:0.0731456 6:-0.82064 7:0.484227 8:-0.97573 9:-0.690847 10:0.352531 11:-0.979616 12:-0.712663 13:-0.922665 14:0.447441 15:-0.957843 16:-1 17:0.204635 18:-0.840976 19:-0.910005 20:0.492026 21:-0.988277 22:-1 23:0.220494 24:-0.896917 25:0.262124 26:-0.950058 27:-0.689509 28:0.531504 29:-0.995153 30:-0.795969 31:-0.535273 32:0.503535 33:-0.987215 34:-1 35:0.266144 36:-0.887579 37:-0.979598 38:0.563127 39:-0.969195 40:-0.906689 41:0.350587 42:-0.872957 43:-0.181848 44:-0.963077 45:0.35524 46:-0.250344 47:-0.966682 48:-0.452828 49:-0.884752 50:0.58327 51:-0.972404 52:-0.914963 53:0.376682 54:-0.886435 55:-0.621319 56:-0.345191 57:-0.728146 58:-0.801147 59:-0.402891 60:-0.84969 61:-0.418467 62:-0.911301 63:0.0923855 64:-0.640533 65:-0.948045 66:-0.49316 67:-0.580744 68:-0.291278 69:-0.675738 70:-0.792536 71:-0.352748 72:-0.811573 73:-0.802327 74:0.0400528 75:-0.949249 76:-0.831061 77:-0.0587311 78:-0.927125 79:-0.237928 80:-0.905213 81:-0.417768 82:-0.391577 83:-0.87052 84:-0.720252 85:-0.685667 86:0.160292 87:-0.934794 88:-0.837258 89:0.0112828 90:-0.906368 91:-0.729964 92:-0.29778 93:-0.658705 94:-0.611299 95:-0.405206 96:-0.334579 97:0.0846963 98:-0.711097 99:-0.50639 100:0.235272 101:-0.344861 102:-0.594164 103:-0.666565 104:-0.120734 105:-0.595091 106:-0.526499 107:-0.255245 108:-0.210546 109:-0.837464 110:-0.661126 111:0.237343 112:-0.886507 113:-0.245795 114:0.142176 115:-0.382227 116:-0.559292 117:-0.61629 118:0.523119 119:-0.37217 120:-0.714145 121:-0.738204 122:-0.445695 123:0.286538 124:-0.817033 125:-0.119853 126:0.336173 127:-0.71125 128:-0.54131 129:-0.591108 130:-0.887846 131:0.0147063 132:-0.662469 133:-0.44058 134:-0.638315 135:-0.410801 136:-0.429434 137:-0.605308 138:-0.523309 139:-0.634259 140:-0.422277 141:-0.47992 142:-0.874375 143:0.106126 144:-0.570689 145:-0.87605 146:-0.0563919 147:-0.946196 148:-0.898306 149:-0.199347 150:-0.834059 151:-0.273257 152:-0.957105 153:-0.412032 154:-0.357745 155:-0.955011 156:-0.70864 157:-0.833908 158:-0.0285599 159:-0.94527 160:-0.898089 161:-0.181568 162:-0.829135 163:-0.808953 164:-0.491577 165:-0.793118 166:-0.84982 167:-0.482189 168:-0.799664 169:-0.197106 170:-0.940307 171:-0.280307 172:-0.632677 173:-0.846384 174:-0.623527 175:-0.820858 176:-0.364415 177:-0.738998 178:-0.810647 179:-0.35274 180:-0.73754 181:-0.638461 182:-0.792508 183:-0.790401 184:-0.640715 185:-0.596423 186:-0.848649 187:-0.47294 188:-0.916241 189:-0.505576 190:-0.532627 191:-0.690352 192:-0.696481 193:-0.538969 194:-0.736756 195:-0.710751 196:-0.542692 197:-0.487896 198:-0.791213 199:-0.412104 200:-0.727064 201:-0.657396 202:-0.223977 203:-0.302075 204:-0.801703 205:-0.409578 206:-0.786804 207:-0.273572 208:-0.416701 209:-0.667122 210:-0.59024 211:-0.294875 212:-0.687111 213:-0.567938 214:-0.0816809 215:-0.266949 216:-0.750011 217:-0.99743 218:-0.402325 219:-0.991661 220:-0.997953 221:-0.399885 222:-0.934004 223:0.0397205 224:-0.954818 225:-0.849732 226:0.286095 227:-0.979489 228:-0.81381 229:-0.987475 230:-0.386205 231:-0.991018 232:-0.997943 233:-0.38732 234:-0.928915 235:-0.932596 236:-0.631403 237:-0.950383 238:-0.952555 239:-0.580791 240:-0.960395 241:-0.877642 242:-0.91544 243:-0.645337 244:-0.805834 245:-0.969503 246:-0.744947 247:-0.88337 248:-0.600326 249:-0.94681 250:-0.949911 251:-0.545738 252:-0.957543 253:-0.923462 254:-0.714407 255:-0.944811 256:-0.91338 257:-0.769421 258:-0.935463 259:-0.822343 260:-0.839339 261:-0.731945 262:-0.90835 263:-0.819644 264:-0.935427 265:-0.902442 266:-0.701039 267:-0.94087 268:-0.908652 269:-0.760947 270:-0.930213 271:-0.852662 272:-0.887992 273:-0.785924 274:-0.933168 275:-0.796288 276:-0.801271 277:-0.896233 278:-0.710893 279:-0.791903 280:-0.918312 281:-0.737485 282:-0.846038 283:-0.829527 284:-0.883003 285:-0.772453 286:-0.930102 287:-0.784639 288:-0.792433 289:-0.91562 290:-0.168898 291:-0.98917 292:-0.99058 293:-0.311846 294:-0.934347 295:0.40548 296:-0.985382 297:-0.715742 298:0.239132 299:-0.967354 300:-0.890096 301:-0.804002 302:-0.155566 303:-0.988516 304:-0.990442 305:-0.30131 306:-0.930384 307:-0.983996 308:-0.478565 309:-0.969011 310:-0.974404 311:-0.518072 312:-0.96194 313:-0.781531 314:-0.943016 315:-0.814257 316:-0.726079 317:-0.916003 318:-0.858354 319:-0.946633 320:-0.442209 321:-0.965873 322:-0.971813 323:-0.498298 324:-0.958087 325:-0.978731 326:-0.670591 327:-0.921995 328:-0.981768 329:-0.612804 330:-0.967653 331:-0.799076 332:-0.800847 333:-0.935543 334:-0.815607 335:-0.811031 336:-0.94144 337:-0.976426 338:-0.64434 339:-0.915037 340:-0.980325 341:-0.602837 342:-0.964768 343:-0.837871 344:-0.849246 345:-0.925489 346:-0.850823 347:-0.798698 348:-0.954117 349:-0.850912 350:-0.748585 351:-0.85259 352:-0.849919 353:-0.69297 354:-0.854562 355:-0.841894 356:-0.840054 357:-0.920133 358:-0.840606 359:-0.786447 360:-0.95082 361:-0.983983 362:-0.00703898 363:-1 364:-1 365:0.0907836 366:-0.965359 367:0.252228 368:-0.974601 369:-0.847682 370:-0.0692181 371:-0.99384 372:-0.822014 373:-0.952408 374:0.11319 375:-1 376:-1 377:0.147812 378:-0.971523 379:-0.872214 380:0.031291 381:-0.985654 382:-1 383:0.106639 384:-0.978963 385:0.409318 386:-0.956047 387:-0.876708 388:0.221166 389:-0.997128 390:-0.798773 391:-0.86358 392:0.0428729 393:-0.986002 394:-1 395:0.136837 396:-0.975156 397:-0.984768 398:-0.0342509 399:-0.968213 400:-0.98837 401:0.185497 402:-0.994538 403:0.287333 404:-0.990935 405:-0.463275 406:-0.206964 407:-0.998583 408:-0.784492 409:-0.969834 410:0.0230538 411:-0.968918 412:-0.988101 413:0.239927 414:-0.994722 415:-0.828441 416:-0.59665 417:-0.850346 418:-0.950178 419:-0.471653 420:-0.974479 421:-0.627679 422:-0.941534 423:-0.332375 424:-0.728049 425:-0.975325 426:-0.629266 427:-0.776701 428:-0.549845 429:-0.841415 430:-0.94337 431:-0.417256 432:-0.966309 433:-0.890627 434:-0.0931143 435:-0.954823 436:-0.908893 437:-0.311034 438:-0.849109 439:-0.544222 440:-0.922682 441:-0.84704 442:-0.383322 443:-0.934942 444:-0.775356 445:-0.867288 446:-0.0905508 447:-0.943077 448:-0.911855 449:-0.205449 450:-0.852558 451:-0.752752 452:-0.382999 453:-0.755163 454:-0.657743 455:-0.607008 456:-0.55968 457:0.238957 458:-0.917887 459:-0.561426 460:-0.142754 461:-0.959539 462:-0.729471 463:-0.683666 464:-0.189235 465:-0.673161 466:-0.54311 467:-0.492373 468:-0.412204 469:-0.797342 470:-0.802836 471:-0.207499 472:-0.819764 473:-0.339585 474:-0.674325 475:-0.715581 476:-0.667555 477:-0.402618 478:-0.515497 479:-0.642672 480:-0.751629 481:-0.653248 482:-0.660236 483:-0.174756 484:-0.689406 485:-0.16789 486:-0.597339 487:-0.793562 488:-0.647018 489:-0.665154 490:-0.880894 491:-0.168071 492:-0.796918 493:-0.672285 494:-0.761242 495:-0.237421 496:-0.587809 497:-0.754193 498:-0.562937 499:-0.739213 500:-0.553254 501:-0.537529 502:-0.862539 503:-0.0702805 504:-0.73685 505:-1 506:-0.156952 507:-1 508:-0.92025 509:-0.501461 510:-0.923609 511:-0.0539412 512:-0.975907 513:-0.599543 514:-0.703092 515:-0.991671 516:-0.787897 517:-0.949207 518:-0.134342 519:-1 520:-0.915203 521:-0.400011 522:-0.924326 523:-0.664977 524:-0.607914 525:-0.932179 526:-0.923542 527:-0.675566 528:-0.979038 529:-0.163679 530:-0.779373 531:-0.658887 532:-0.873945 533:-0.857851 534:-0.78822 535:-0.598503 536:-0.391508 537:-0.931276 538:-0.881342 539:-0.613093 540:-0.977455 541:-0.586446 542:-0.945298 543:-0.73822 544:-0.753005 545:-0.80212 546:-0.960856 547:-0.588927 548:-0.88946 549:-0.428453 550:-0.830713 551:-0.665327 552:-0.706751 553:-0.34778 554:-0.924414 555:-0.638272 556:-0.610463 557:-0.75445 558:-0.945911 559:0.176484 560:-0.918644 561:-0.648272 562:-0.267897 563:-0.660407 564:-0.935391 565:-0.330457 566:-0.803719 567:-0.270719 568:-0.852392 569:-0.779148 570:-0.47711 571:0.410084 572:-0.898298 573:-0.581814 574:-0.105481 575:-0.605052 576:-0.919233 577:-0.992931 578:-0.474498 579:-1 580:-0.998463 581:-0.357418 582:-0.957836 583:0.956122 584:-0.972945 585:-0.878357 586:-0.19884 587:-0.98931 588:-0.9276 589:-0.947607 590:-0.458818 591:-1 592:-0.998419 593:-0.344629 594:-0.957041 595:-0.98799 596:-0.66568 597:-0.91687 598:-0.958967 599:-0.526895 600:-0.980864 601:-0.943147 602:-0.863254 603:-0.649666 604:-0.927162 605:-0.993813 606:-0.751496 607:-0.966862 608:-0.644994 609:-0.91068 610:-0.954267 611:-0.509626 612:-0.97935 613:-0.909736 614:-0.845898 615:-0.951373 616:-0.869844 617:-0.842603 618:-0.965607 619:-0.927625 620:-0.548489 621:-0.830253 622:-0.951919 623:-0.855941 624:-0.922362 625:-0.902503 626:-0.841213 627:-0.947249 628:-0.858805 629:-0.828116 630:-0.963122 631:-0.841547 632:-0.877793 633:-0.986323 634:-0.803443 635:-0.699218 636:-0.996321 637:-0.94207 638:-0.80548 639:-0.695636 640:-0.949312 641:-0.89424 642:-0.887125 643:-0.81681 644:-0.870454 645:-0.984459 646:-0.79539 647:-0.677048 648:-0.99582 649:-0.993041 650:-0.372678 651:-1 652:-0.961553 653:-0.317853 654:-0.895801 655:-0.223918 656:-0.949888 657:-0.777432 658:-0.162793 659:-0.991586 660:-0.884849 661:-0.782761 662:-0.359999 663:-1 664:-0.960372 665:-0.306664 666:-0.895701 667:-0.99131 668:-0.805689 669:-0.94249 670:-0.968978 671:-0.299018 672:-0.971966 673:-0.771049 674:-0.881123 675:-0.551824 676:-0.717729 677:-0.980223 678:-0.977128 679:-0.992049 680:-0.793826 681:-0.940481 682:-0.967087 683:-0.275671 684:-0.970577 685:-0.98659 686:-0.890612 687:-0.911122 688:-0.954718 689:-0.677624 690:-1 691:-0.613054 692:-0.629543 693:-0.978331 694:-0.792798 695:-0.85694 696:-0.991851 697:-0.987111 698:-0.877595 699:-0.907729 700:-0.950187 701:-0.665141 702:-1 703:-0.812682 704:-0.838941 705:-0.972767 706:-0.767107 707:-0.72362 708:-0.988408 709:-0.857016 710:-0.763826 711:-0.750553 712:-0.933569 713:-0.858552 714:-0.817182 715:-0.785059 716:-0.831157 717:-0.969955 718:-0.747426 719:-0.710263 720:-0.987791 721:-0.960564 722:0.0541776 723:-0.91387 724:-1 725:-0.00932894 726:-0.841373 727:-0.123967 728:-0.986704 729:-0.589884 730:0.0912431 731:-0.984425 732:-0.743849 733:-0.905552 734:0.15836 735:-0.929959 736:-1 737:0.0739958 738:-0.837057 739:-0.978462 740:0.185494 741:-0.992602 742:-0.977566 743:0.165126 744:-0.902723 745:-0.248198 746:-0.990413 747:-0.585735 748:0.093929 749:-0.997285 750:-0.876532 751:-0.494752 752:0.21686 753:-0.992264 754:-0.978708 755:0.151104 756:-0.905484 757:-0.991522 758:0.664645 759:-0.989207 760:-0.80327 761:0.280084 762:-0.7957 763:-0.432932 764:-0.965298 765:0.993741 766:-0.432986 767:-0.968822 768:0.0128215 769:-0.889281 770:0.595887 771:-0.990765 772:-0.819095 773:0.224923 774:-0.812421 775:-0.681438 776:-0.363489 777:-0.81074 778:-0.762186 779:-0.501216 780:-0.69301 781:-0.547123 782:-0.958432 783:-0.157099 784:-0.70317 785:-0.966832 786:-0.247165 787:-0.620456 788:-0.314652 789:-0.772598 790:-0.733903 791:-0.473252 792:-0.61755 793:-0.859228 794:-0.166039 795:-0.977123 796:-0.733107 797:-0.2241 798:-0.939538 799:-0.165566 800:-0.968646 801:0.409417 802:-0.648434 803:-0.913798 804:-0.685369 805:-0.770511 806:-0.0317882 807:-0.978377 808:-0.742765 809:-0.164581 810:-0.921735 811:-0.7506 812:-0.237154 813:-0.486953 814:-0.692645 815:-0.122031 816:0.00625362 817:-0.116239 818:-0.754913 819:-0.409643 820:0.206036 821:-0.41861 822:-0.535975 823:-0.667848 824:-0.0999198 825:-0.496293 826:-0.626478 827:0.0359135 828:-0.105396 829:-0.874218 830:-0.521219 831:0.000100592 832:-0.907025 833:-0.449035 834:0.479801 835:0.11344 836:-0.740171 837:-0.779902 838:0.467968 839:-0.365388 840:-0.723098 841:-0.806394 842:-0.456683 843:0.0482411 844:-0.859731 845:-0.16877 846:0.659715 847:-0.778743 848:-0.527309 849:-0.685502 850:-0.885891 851:-0.331527 852:-0.633415 853:-0.514403 854:-0.742695 855:-0.605674 856:-0.40374 857:-0.528359 858:-0.560129 859:-0.717168 860:-0.506884 861:-0.55506 862:-0.86878 863:-0.145494 864:-0.481371 865:-0.873033 866:-0.434417 867:-0.923604 868:-0.922129 869:-0.355561 870:-0.830467 871:-0.441677 872:-0.975003 873:-0.53357 874:-0.572945 875:-0.972192 876:-0.662803 877:-0.838164 878:-0.409976 879:-0.922159 880:-0.9212 881:-0.344273 882:-0.831788 883:-0.928701 884:-0.730194 885:-0.798187 886:-0.773146 887:0.0515049 888:-0.745102 889:-0.290801 890:-0.998104 891:-0.0309913 892:-0.314323 893:-0.805646 894:-0.811133 895:-0.948471 896:-0.648608 897:-0.773568 898:-0.757133 899:0.0287935 900:-0.687173 901:-0.750256 902:-0.824172 903:-0.878679 904:-0.500892 905:-0.32323 906:-0.561478 907:-0.649196 908:-0.990085 909:-0.580434 910:0.0546775 911:-0.895706 912:-0.701667 913:-0.696938 914:-0.764367 915:-0.841558 916:-0.466147 917:-0.347001 918:-0.483446 919:-0.72933 920:-0.749981 921:-0.817454 922:-0.500685 923:-0.0549076 924:-0.456716 925:-0.523151 926:-0.92176 927:-0.62707 928:0.150692 929:-0.797989 930:-0.713068 931:-0.674679 932:-0.70335 933:-0.770113 934:-0.47466 935:-0.0771333 936:-0.400524 937:-0.991646 938:-0.521318 939:-0.988777 940:-0.99186 941:-0.525985 942:-0.950411 943:-0.449537 944:-0.966384 945:-0.867385 946:-0.261291 947:-0.986932 948:-0.798188 949:-0.99096 950:-0.508578 951:-0.987483 952:-0.991066 953:-0.514156 954:-0.944694 955:-0.932635 956:-0.623779 957:-0.986752 958:-0.974497 959:-0.843723 960:-0.974874 961:-0.897656 962:-0.976803 963:-0.913412 964:-0.894335 965:-0.969631 966:-0.797103 967:-0.88689 968:-0.614893 969:-0.984322 970:-0.972295 971:-0.815054 972:-0.970264 973:-0.937892 974:-0.763007 975:-0.950557 976:-0.95735 977:-0.859718 978:-0.953634 979:-0.8015 980:-0.968794 981:-0.79788 982:-0.910021 983:-0.91402 984:-0.95183 985:-0.93376 986:-0.738949 987:-0.946505 988:-0.954228 989:-0.845477 990:-0.9509 991:-0.88374 992:-0.938324 993:-0.709261 994:-0.987614 995:-0.874738 996:-0.753705 997:-0.917831 998:-0.871485 999:-0.894656 1000:-0.925232 1001:-0.863781 1002:-0.885129 1003:-0.875838 1004:-0.932113 1005:-0.690171 1006:-0.987037 1007:-0.864099 1008:-0.742319 1009:-0.880773 1010:-0.541443 1011:-0.985142 1012:-0.995715 1013:-0.426911 1014:-0.964492 1015:0.0468688 1016:-0.991053 1017:-0.71751 1018:-0.217091 1019:-0.972178 1020:-0.926997 1021:-0.858142 1022:-0.532475 1023:-0.983857 1024:-0.995345 1025:-0.416805 1026:-0.961422 1027:-0.977223 1028:-0.60673 1029:-0.985053 1030:-0.981523 1031:-0.708382 1032:-0.961618 1033:-0.878171 1034:-0.982503 1035:-0.93666 1036:-0.7764 1037:-0.940457 1038:-0.837278 1039:-0.926407 1040:-0.562327 1041:-0.982881 1042:-0.978838 1043:-0.698601 1044:-0.95604 1045:-0.978761 1046:-0.656844 1047:-0.95019 1048:-0.996143 1049:-0.746901 1050:-0.95679 1051:-0.83284 1052:-0.942363 1053:-0.924749 1054:-0.851974 1055:-0.86444 1056:-0.92727 1057:-0.974018 1058:-0.626056 1059:-0.946027 1060:-0.995797 1061:-0.725748 1062:-0.951914 1063:-0.913157 1064:-0.858976 1065:-0.949199 1066:-0.91934 1067:-0.842119 1068:-0.96424 1069:-0.937372 1070:-0.844142 1071:-0.913059 1072:-0.930903 1073:-0.772049 1074:-0.880861 1075:-0.919763 1076:-0.848616 1077:-0.939623 1078:-0.911435 1079:-0.830521 1080:-0.9575 1081:-0.893785 1082:0.112838 1083:-1 1084:-1 1085:-0.345182 1086:-0.831971 1087:0.0606504 1088:-0.976657 1089:-1 1090:-0.263106 1091:-0.955359 1092:-1 1093:-0.706942 1094:0.368787 1095:-1 1096:-1 1097:-0.383816 1098:-0.850824 1099:-0.513255 1100:0.14102 1101:-1 1102:-1 1103:-0.241749 1104:-0.795679 1105:-0.270384 1106:-0.80353 1107:-1 1108:-0.24184 1109:-0.987215 1110:-1 1111:-0.651518 1112:0.204211 1113:-1 1114:-1 1115:-0.256813 1116:-0.804935 1117:-0.944566 1118:-0.142268 1119:-0.794451 1120:-0.944851 1121:0.547208 1122:-0.974955 1123:-0.141404 1124:-0.974821 1125:1 1126:-0.854809 1127:-0.993727 1128:-0.640286 1129:-0.968869 1130:0.0932214 1131:-0.807678 1132:-0.947937 1133:0.972577 1134:-0.971391 1135:-0.81831 1136:-0.991686 1137:-0.614625 1138:-0.899109 1139:-0.809496 1140:-0.957342 1141:-0.743778 1142:-0.7866 1143:-0.728589 1144:-0.922373 1145:-0.971811 1146:-0.503204 1147:-0.725967 1148:-0.990945 1149:-0.581163 1150:-0.883878 1151:-0.799302 1152:-0.938719 1153:-0.91184 1154:-0.600395 1155:-0.504542 1156:-0.971236 1157:-0.994379 1158:-0.77774 1159:-0.268282 1160:-0.615468 1161:-0.967919 1162:-0.99469 1163:-0.985863 1164:-1 1165:-0.860331 1166:-0.577022 1167:-0.494655 1168:-0.969932 1169:-0.993258 1170:-0.756801 1171:-0.864923 1172:-1 1173:-0.630178 1174:-0.88853 1175:-0.799945 1176:-0.295031 1177:-0.671775 1178:-0.563767 1179:-0.275532 1180:-0.923001 1181:-0.805391 1182:-0.383359 1183:-0.941407 1184:-1 1185:-0.418907 1186:-0.902618 1187:-0.765096 1188:-0.13702 1189:-0.746025 1190:-0.992863 1191:-0.40541 1192:-0.938724 1193:-0.295931 1194:-0.931085 1195:-0.987159 1196:-0.916483 1197:0.388652 1198:-0.975075 1199:-0.715042 1200:-0.806239 1201:-0.631989 1202:-0.987532 1203:-0.242878 1204:-0.909022 1205:-0.176948 1206:-0.912247 1207:-0.843797 1208:-0.925914 1209:-0.744676 1210:-0.928559 1211:-0.187662 1212:-1 1213:-0.957919 1214:-0.982176 1215:0.408064 1216:-0.925175 1217:-0.876667 1218:-0.638378 1219:-0.690995 1220:-0.908625 1221:-0.617469 1222:-0.858167 1223:-0.107786 1224:-1 1225:-1 1226:-0.702032 1227:-1 1228:-0.956603 1229:-1 1230:-0.869763 1231:-0.957531 1232:-0.931462 1233:-0.689424 1234:-0.949005 1235:-0.987245 1236:-0.0639197 1237:-0.967865 1238:-0.637138 1239:-1 1240:-0.954785 1241:-1 1242:-0.864007 1243:-0.44213 1244:-0.280848 1245:-0.995811 1246:-0.789095 1247:-0.681482 1248:-0.969253 1249:-0.991708 1250:-0.652754 1251:-0.939929 1252:-0.886007 1253:-0.221147 1254:-0.326178 1255:-0.230459 1256:-0.268803 1257:-0.99554 1258:-0.788683 1259:-0.582427 1260:-0.96293 1261:-0.835285 1262:-0.956867 1263:-0.827782 1264:-0.906 1265:-0.901325 1266:-0.960277 1267:-0.962602 1268:-0.887669 1269:-0.767952 1270:-0.981953 1271:-0.659393 1272:-0.708417 1273:-0.673783 1274:-0.940183 1275:-0.67086 1276:-0.813834 1277:-0.859752 1278:-0.924081 1279:-0.497762 1280:-0.84274 1281:-0.702842 1282:-0.87749 1283:-0.567515 1284:-0.866381 1285:-0.799716 1286:-0.851444 1287:-0.659826 1288:-0.914216 1289:-0.77794 1290:-0.345763 1291:-0.337563 1292:-0.805778 1293:-0.688057 1294:-0.846618 1295:-0.48666 1296:-0.850034 1297:-0.98908 1298:-0.601305 1299:-1 1300:-0.995948 1301:-0.616572 1302:-0.894481 1303:-0.40785 1304:-1 1305:-1 1306:-0.355268 1307:-0.972564 1308:-1 1309:-0.987154 1310:-0.583711 1311:-1 1312:-0.995463 1313:-0.6072 1314:-0.890515 1315:-0.967546 1316:-1 1317:-0.848796 1318:-0.924611 1319:-0.822716 1320:-0.943936 1321:-1 1322:0.155036 1323:-0.890419 1324:-0.948482 1325:-0.996407 1326:-1 1327:-0.993804 1328:-1 1329:-0.84321 1330:-0.919246 1331:-0.8127 1332:-0.937909 1333:-0.99684 1334:-0.977879 1335:-1 1336:-0.715171 1337:-0.987549 1338:-0.988855 1339:-0.986545 1340:-0.00500765 1341:-0.994097 1342:-1 1343:-0.986721 1344:-1 1345:-0.982194 1346:-0.9763 1347:-1 1348:-0.698828 1349:-0.986517 1350:-0.987961 1351:-0.958714 1352:-0.992817 1353:-1 1354:-0.736057 1355:-0.938756 1356:-0.998224 1357:-0.976518 1358:-0.918533 1359:-0.982647 1360:-0.997344 1361:-0.983819 1362:-1 1363:-0.939225 1364:-0.990438 1365:-1 1366:-0.724243 1367:-0.918474 1368:-0.996166 1369:-0.990071 1370:-0.490925 1371:-1 1372:-1 1373:-0.516225 1374:-0.761638 1375:-0.392726 1376:-1 1377:-1 1378:-0.373005 1379:-0.978599 1380:-0.84441 1381:-0.986272 1382:-0.473766 1383:-1 1384:-1 1385:-0.516597 1386:-0.757899 1387:-0.946665 1388:-0.99198 1389:-0.820022 1390:-0.94502 1391:-0.945973 1392:-0.957699 1393:-0.868803 1394:-0.786439 1395:-0.911218 1396:-0.989087 1397:-0.974769 1398:-1 1399:-0.987981 1400:-0.991678 1401:-0.804853 1402:-0.941881 1403:-0.942246 1404:-0.952775 1405:-0.988492 1406:-0.982541 1407:-1 1408:-0.889265 1409:-0.946348 1410:-1 1411:-0.953583 1412:-0.726837 1413:-0.979835 1414:-0.990896 1415:-0.995213 1416:-1 1417:-0.983237 1418:-0.979729 1419:-1 1420:-0.882562 1421:-0.937708 1422:-1 1423:-0.887432 1424:-0.997361 1425:-0.990195 1426:-0.805419 1427:-0.865145 1428:-1 1429:-0.973054 1430:-0.730559 1431:-0.837878 1432:-1 1433:-0.995373 1434:-0.919315 1435:-0.872465 1436:-0.997074 1437:-0.989373 1438:-0.79314 1439:-0.850487 1440:-1 1441:-0.996212 1442:-0.036217 1443:-1 1444:-1 1445:0.135019 1446:-1 1447:-0.0793154 1448:-0.977099 1449:-0.843947 1450:-0.0437397 1451:-1 1452:-0.813685 1453:-1 1454:0.00615112 1455:-1 1456:-1 1457:0.172727 1458:-1 1459:-0.99496 1460:-0.0292802 1461:-0.984736 1462:-1 1463:0.143535 1464:-0.997687 1465:0.0146434 1466:-0.989569 1467:-0.88155 1468:0.134672 1469:-1 1470:-0.781165 1471:-0.911456 1472:-0.0145256 1473:-0.985195 1474:-1 1475:0.134049 1476:-0.997164 1477:-1 1478:-0.14285 1479:-0.992479 1480:-0.996485 1481:-0.15761 1482:-1 1483:0.29294 1484:-0.99628 1485:-0.805667 1486:-0.139729 1487:-1 1488:-0.832643 1489:-0.975451 1490:-0.0810874 1491:-0.992459 1492:-0.996351 1493:-0.00429211 1494:-1 1495:-0.860653 1496:-0.543691 1497:-0.927504 1498:-0.970492 1499:-0.437636 1500:-0.977671 1501:-0.800371 1502:-0.998461 1503:-0.27869 1504:-0.73329 1505:-0.975962 1506:-0.674721 1507:-0.827745 1508:-0.498506 1509:-0.923925 1510:-0.96699 1511:-0.386577 1512:-0.975027 1513:-0.925435 1514:-0.16648 1515:-0.967645 1516:-0.892729 1517:-0.23385 1518:-0.877549 1519:-0.616054 1520:-0.989895 1521:-0.850924 1522:-0.088762 1523:-0.948936 1524:-0.765105 1525:-0.919899 1526:-0.0998523 1527:-0.956838 1528:-0.895734 1529:-0.14433 1530:-0.881736 1531:-0.724104 1532:-0.446424 1533:-0.759285 1534:-0.672069 1535:-0.419799 1536:-0.978292 1537:0.437385 1538:-1 1539:-0.672449 1540:-0.0226396 1541:-1 1542:-0.844825 1543:-0.636336 1544:-0.258264 1545:-0.70162 1546:-0.593513 1547:-0.224874 1548:-0.973092 1549:-0.913867 1550:-0.372272 1551:-0.616683 1552:-0.474918 1553:-0.35015 1554:-0.622945 1555:0.297879 1556:-0.642754 1557:-0.726687 1558:-0.446767 1559:-0.742744 1560:-0.814712 1561:-0.89142 1562:-0.255433 1563:-0.468529 1564:-0.521764 1565:-0.217391 1566:-0.54523 1567:-0.905218 1568:-0.17018 1569:-0.634835 1570:-0.899559 1571:0.166329 1572:-0.771149 1573:-0.539264 1574:-0.711597 1575:-0.734171 1576:-0.535616 1577:-0.691833 1578:-0.69104 1579:-0.884354 1580:0.0124801 1581:-0.51184 1582:-0.905269 1583:0.210669 1584:-0.700491 1585:-1 1586:-0.137612 1587:-1 1588:-0.925127 1589:-0.436281 1590:-1 1591:0.133324 1592:-1 1593:-0.569948 1594:-0.666298 1595:-1 1596:-0.892042 1597:-0.955744 1598:-0.122622 1599:-1 1600:-0.920982 1601:-0.326419 1602:-1 1603:-0.835134 1604:-0.637936 1605:-0.958995 1606:-0.931033 1607:-0.717912 1608:-1 1609:-0.552506 1610:-0.954143 1611:-0.634902 1612:-0.927496 1613:-0.986567 1614:-0.780387 1615:-0.769003 1616:-0.564445 1617:-0.954502 1618:-0.886271 1619:-0.640508 1620:-1 1621:-0.461056 1622:-0.947624 1623:-0.938709 1624:-0.60579 1625:-0.765393 1626:-0.990945 1627:-0.478773 1628:-0.948025 1629:-0.606752 1630:-0.836741 1631:-0.841692 1632:-0.8092 1633:-0.258985 1634:-0.943371 1635:-0.916535 1636:-0.429502 1637:-0.709602 1638:-0.987669 1639:-0.155144 1640:-0.987763 1641:-0.868405 1642:-0.391851 1643:-0.776064 1644:-0.976318 1645:-0.633344 1646:-0.776352 1647:-0.460335 1648:-0.86944 1649:-0.852518 1650:-0.734439 1651:-0.0213512 1652:-0.98709 1653:-0.835792 1654:-0.232928 1655:-0.740409 1656:-0.970449 1657:-1 1658:-0.440229 1659:-1 1660:-1 1661:-0.309976 1662:-0.998049 1663:0.705527 1664:-0.968754 1665:-0.854595 1666:-0.147562 1667:-0.998304 1668:-0.91239 1669:-0.950646 1670:-0.425895 1671:-1 1672:-1 1673:-0.29388 1674:-0.998014 1675:-0.994763 1676:-0.670157 1677:-0.959914 1678:-0.976741 1679:-0.568508 1680:-1 1681:-0.887315 1682:-1 1683:-0.598423 1684:-0.908299 1685:-0.992799 1686:-0.762568 1687:-0.948926 1688:-0.650839 1689:-0.955947 1690:-0.97444 1691:-0.543239 1692:-1 1693:-0.919755 1694:-0.847999 1695:-0.953529 1696:-0.991781 1697:-0.856203 1698:-0.959793 1699:-0.92765 1700:-0.868114 1701:-0.806653 1702:-0.952701 1703:-0.852996 1704:-0.913669 1705:-0.909718 1706:-0.84269 1707:-0.948824 1708:-0.991115 1709:-0.839817 1710:-0.957528 1711:-0.835754 1712:-0.904206 1713:-0.981556 1714:-0.921178 1715:-0.795583 1716:-1 1717:-0.935465 1718:-0.936046 1719:-0.722776 1720:-0.956745 1721:-0.910822 1722:-0.830883 1723:-0.794491 1724:-0.891725 1725:-0.977342 1726:-0.907973 1727:-0.768949 1728:-1 1729:-1 1730:-0.355115 1731:-1 1732:-0.947204 1733:-0.268778 1734:-0.992064 1735:-0.386757 1736:-0.944728 1737:-0.745027 1738:-0.122737 1739:-1 1740:-0.892596 1741:-0.733146 1742:-0.344489 1743:-1 1744:-0.946546 1745:-0.255591 1746:-0.992059 1747:-1 1748:-0.796968 1749:-0.98479 1750:-0.988851 1751:-0.326696 1752:-1 1753:-0.790752 1754:-0.986721 1755:-0.573691 1756:-0.636302 1757:-0.983441 1758:-0.980511 1759:-0.993478 1760:-0.783346 1761:-0.984301 1762:-0.98819 1763:-0.317244 1764:-1 1765:-0.991361 1766:-0.887053 1767:-0.902559 1768:-0.98336 1769:-0.656563 1770:-1 1771:-0.602832 1772:-0.791993 1773:-0.989912 1774:-0.775532 1775:-0.864936 1776:-0.990877 1777:-0.991024 1778:-0.871001 1779:-0.899842 1780:-0.980995 1781:-0.607751 1782:-1 1783:-0.838029 1784:-0.845603 1785:-0.970479 1786:-0.869274 1787:-0.742575 1788:-0.986919 1789:-0.842748 1790:-0.903143 1791:-0.789531 1792:-0.927792 1793:-0.901046 1794:-0.85866 1795:-0.807014 1796:-0.836217 1797:-0.967288 1798:-0.847043 1799:-0.723273 1800:-0.984966 1801:-0.980231 1802:-0.107631 1803:-1 1804:-1 1805:0.081016 1806:-0.950955 1807:-0.0178529 1808:-0.97807 1809:-0.574907 1810:0.179801 1811:-1 1812:-1 1813:-0.930985 1814:-0.0346653 1815:-1 1816:-1 1817:0.158466 1818:-0.956821 1819:-0.983219 1820:-0.03027 1821:-0.992363 1822:-1 1823:0.203132 1824:-0.97826 1825:-0.455602 1826:-0.986849 1827:-0.483568 1828:0.145013 1829:-1 1830:-0.994886 1831:-0.403983 1832:-0.0220139 1833:-0.993025 1834:-1 1835:0.20019 1836:-0.97989 1837:-0.982354 1838:-0.153443 1839:-1 1840:-0.747911 1841:0.000851233 1842:-0.603233 1843:-0.640464 1844:-0.899668 1845:0.0636733 1846:-0.177151 1847:-0.993978 1848:-0.253873 1849:-0.796446 1850:0.0659567 1851:-1 1852:-0.76984 1853:-0.029162 1854:-0.659693 1855:-0.903436 1856:-0.415705 1857:-0.604208 1858:-0.862296 1859:-0.623158 1860:-0.499655 1861:-0.308754 1862:-0.934537 1863:-0.322392 1864:-0.645829 1865:-0.972321 1866:-0.603442 1867:-0.854331 1868:-0.381047 1869:-0.539356 1870:-0.849592 1871:-0.605306 1872:-0.342105 1873:-0.890353 1874:-0.270257 1875:-0.985919 1876:-0.753456 1877:-0.154309 1878:-0.872123 1879:-0.282657 1880:-0.957047 1881:0.0829273 1882:-0.420122 1883:-0.860435 1884:-0.98576 1885:-0.839754 1886:-0.187323 1887:-0.981138 1888:-0.771542 1889:-0.0806829 1890:-0.828708 1891:-0.926017 1892:-0.356711 1893:-0.585446 1894:-0.775444 1895:-0.172486 1896:-0.228645 1897:-0.522766 1898:-0.565153 1899:-0.289356 1900:-0.12277 1901:-0.492188 1902:-0.546683 1903:-0.911474 1904:-0.235072 1905:-0.594256 1906:-0.724781 1907:-0.0160147 1908:-0.127072 1909:-0.869814 1910:-0.5261 1911:0.332957 1912:-0.957721 1913:-0.602082 1914:1 1915:0.905027 1916:-0.790268 1917:-0.85411 1918:1 1919:-0.735491 1920:-0.862718 1921:-0.813155 1922:-0.411243 1923:0.552958 1924:-0.938105 1925:-0.417468 1926:0.873842 1927:-0.782201 1928:-0.579099 1929:0.253965 1930:-0.932365 1931:-0.444418 1932:-0.76832 1933:0.986828 1934:-0.80292 1935:-0.834445 1936:-0.475199 1937:-0.992951 1938:-0.869424 1939:-0.724402 1940:-0.566824 1941:0.264652 1942:-0.92159 1943:-0.296981 1944:-0.67675 1945:-0.931541 1946:-0.681544 1947:-0.926795 1948:-0.949123 1949:-0.482479 1950:-0.862045 1951:-0.753792 1952:-0.972768 1953:-0.573735 1954:-0.801828 1955:-0.99214 1956:-0.794681 1957:-0.871296 1958:-0.663747 1959:-0.925675 1960:-0.947887 1961:-0.464405 1962:-0.843072 1963:-0.968324 1964:-0.917633 1965:-0.5663 1966:-0.841352 1967:-0.522763 1968:-0.681262 1969:-0.627812 1970:-0.991775 1971:-0.462534 1972:-0.492326 1973:-0.878409 1974:-0.923559 1975:-0.950851 1976:-0.882813 1977:-0.478301 1978:-0.802753 1979:-0.514051 1980:-0.624379 1981:-0.939992 1982:-0.889579 1983:-0.80183 1984:-0.815505 1985:-0.333396 1986:-0.658349 1987:-0.771212 1988:-0.988035 1989:-0.464892 1990:-0.13756 1991:-0.989082 1992:-0.687878 1993:-0.922516 1994:-0.846265 1995:-0.734291 1996:-0.77726 1997:-0.296807 1998:-0.596464 1999:-0.919153 2000:-0.834061 2001:-0.640227 2002:-0.785584 2003:-0.142618 2004:-0.553765 2005:-0.761676 2006:-0.927353 2007:-0.580721 2008:0.0545027 2009:-0.976936 2010:-0.582027 2011:-0.887279 2012:-0.798584 2013:-0.532937 2014:-0.721642 2015:-0.114633 2016:-0.512064 2017:-0.994437 2018:-0.705645 2019:-1 2020:-0.975952 2021:-0.607234 2022:-0.96376 2023:-0.747244 2024:-0.92244 2025:-0.93166 2026:-0.403198 2027:-0.993452 2028:-0.866884 2029:-0.998159 2030:-0.694767 2031:-1 2032:-0.971259 2033:-0.595324 2034:-0.957354 2035:-0.964031 2036:-0.752622 2037:-0.992947 2038:-0.976765 2039:-0.818284 2040:-0.978424 2041:-0.829134 2042:-0.956061 2043:-0.909255 2044:-0.922395 2045:-0.927538 2046:-0.895489 2047:-0.953264 2048:-0.727013 2049:-0.992258 2050:-0.975681 2051:-0.808618 2052:-0.975249 2053:-0.944663 2054:-0.858518 2055:-0.920306 2056:-0.921072 2057:-0.951958 2058:-0.933825 2059:-0.856838 2060:-0.943315 2061:-0.751546 2062:-0.958806 2063:-0.879237 2064:-0.937952 2065:-0.945227 2066:-0.845261 2067:-0.913772 2068:-0.915902 2069:-0.947413 2070:-0.92957 2071:-0.894051 2072:-0.994707 2073:-0.631148 2074:-0.973472 2075:-0.904084 2076:-0.656068 2077:-0.970531 2078:-0.790521 2079:-0.788294 2080:-0.964962 2081:-0.839165 2082:-0.642689 2083:-0.881708 2084:-0.994481 2085:-0.608325 2086:-0.971333 2087:-0.896054 2088:-0.639212 2089:-0.995668 2090:-0.69394 2091:-1 2092:-0.995772 2093:-0.502903 2094:-0.976724 2095:-0.288224 2096:-0.982899 2097:-0.757098 2098:-0.568914 2099:-1 2100:-1 2101:-0.995433 2102:-0.684226 2103:-1 2104:-0.995436 2105:-0.492186 2106:-0.974877 2107:-0.991416 2108:-0.752384 2109:-0.968343 2110:-0.979147 2111:-0.888215 2112:-0.91494 2113:-0.888829 2114:-0.962643 2115:-0.866074 2116:-0.910888 2117:-0.990029 2118:-0.955613 2119:-0.980923 2120:-0.745484 2121:-0.965089 2122:-0.976126 2123:-0.884987 2124:-0.902617 2125:-0.994561 2126:-0.683244 2127:-0.920668 2128:-0.994565 2129:-0.696391 2130:-0.931691 2131:-0.839748 2132:-0.90229 2133:-0.893098 2134:-0.874155 2135:-0.930996 2136:-0.996456 2137:-0.99402 2138:-0.67705 2139:-0.91732 2140:-0.99396 2141:-0.663409 2142:-0.924085 2143:-0.983968 2144:-0.944666 2145:-0.898135 2146:-0.995878 2147:-0.909532 2148:-0.943685 2149:-0.818619 2150:-0.744702 2151:-0.955377 2152:-0.965265 2153:-0.91528 2154:-0.997011 2155:-0.990857 2156:-0.935399 2157:-0.88247 2158:-0.995554 2159:-0.89438 2160:-0.935025 2161:-0.964398 2162:-0.013608 2163:-0.903246 2164:-1 2165:0.187882 2166:-0.806612 2167:-0.378949 2168:-0.992869 2169:-0.576129 2170:-0.138776 2171:-0.973599 2172:-0.294225 2173:-0.905688 2174:0.165094 2175:-0.906277 2176:-1 2177:0.234154 2178:-0.805352 2179:-0.968871 2180:0.311863 2181:-0.992124 2182:-0.98053 2183:0.344854 2184:-0.857744 2185:-0.319804 2186:-0.993 2187:-0.570888 2188:0.276014 2189:-0.995294 2190:-0.735554 2191:-0.548989 2192:0.355001 2193:-0.992093 2194:-0.979171 2195:0.329998 2196:-0.863728 2197:-1 2198:0.38594 2199:-0.985546 2200:-0.933433 2201:-0.156205 2202:-0.955264 2203:-0.474988 2204:-1 2205:0.0722604 2206:-0.746886 2207:-0.945536 2208:0.501245 2209:-1 2210:0.638552 2211:-0.985379 2212:-0.931484 2213:0.10082 2214:-0.954461 2215:-0.702696 2216:-0.107184 2217:-0.991313 2218:-0.739087 2219:-0.541087 2220:-1 2221:-0.868597 2222:-0.981661 2223:-0.365421 2224:-0.752983 2225:-0.95901 2226:0.402437 2227:-0.567293 2228:-0.00350297 2229:-0.988889 2230:-0.712807 2231:-0.447122 2232:-1 2233:-0.920851 2234:-0.113382 2235:-0.98633 2236:-0.823218 2237:-0.521259 2238:-0.961256 2239:-0.482722 2240:-0.976005 2241:0.788214 2242:-0.79433 2243:-0.998685 2244:-0.41824 2245:-0.828313 2246:-0.0703806 2247:-0.985989 2248:-0.820579 2249:-0.433892 2250:-0.950259 2251:-0.72811 2252:-0.352706 2253:-0.730352 2254:-0.73678 2255:-0.422405 2256:-0.741599 2257:-0.300649 2258:-0.923484 2259:-0.724403 2260:-0.542154 2261:-0.787896 2262:-0.515548 2263:-0.680969 2264:-0.216707 2265:-0.645027 2266:-0.712092 2267:-0.267854 2268:-0.685897 2269:-0.876891 2270:-0.545966 2271:-0.573103 2272:-0.840354 2273:-0.433653 2274:-0.389928 2275:-0.726521 2276:-0.7548 2277:-0.629435 2278:-0.676619 2279:-0.610783 2280:-0.647882 2281:-0.799642 2282:-0.489332 2283:-0.486863 2284:-0.807217 2285:-0.292496 2286:-0.332461 2287:-0.771994 2288:-0.629932 2289:-0.857151 2290:-0.882654 2291:-0.308182 2292:-0.439757 2293:-0.927006 2294:-0.784377 2295:-0.284269 2296:-0.841825 2297:-0.459965 2298:-0.253657 2299:-0.704909 2300:-0.612713 2301:-0.789796 2302:-0.873338 2303:-0.253261 2304:-0.423913 2305:-0.878162 2306:0.37916 2307:-0.930178 2308:-0.941779 2309:0.288128 2310:-0.881243 2311:-0.247704 2312:-0.980319 2313:-0.787946 2314:-0.0480983 2315:-0.941135 2316:0.290523 2317:-0.869193 2318:0.362556 2319:-0.929566 2320:-0.941644 2321:0.305627 2322:-0.882318 2323:-0.972071 2324:0.316649 2325:-1 2326:-0.936796 2327:0.269808 2328:-0.864804 2329:-0.49003 2330:-1 2331:-0.0935344 2332:0.111197 2333:-0.737421 2334:-0.216111 2335:-0.9645 2336:0.346628 2337:-1 2338:-0.938635 2339:0.28299 2340:-0.840414 2341:-0.419491 2342:-0.70685 2343:-0.97246 2344:-0.182327 2345:-0.677275 2346:-0.52431 2347:-0.521037 2348:-1 2349:-0.759391 2350:-0.127649 2351:-0.61295 2352:-0.891434 2353:-0.412301 2354:-0.63072 2355:-0.965052 2356:-0.169953 2357:-0.662631 2358:-0.50799 2359:-0.478221 2360:-0.685823 2361:-0.96047 2362:-0.259007 2363:-0.811694 2364:-0.499597 2365:-0.546529 2366:-0.974843 2367:-0.724182 2368:-0.733708 2369:-0.632968 2370:-0.888001 2371:-0.437069 2372:-0.626936 2373:-0.952176 2374:-0.222599 2375:-0.785267 2376:-0.473984 2377:-0.988947 2378:-0.340949 2379:-0.988362 2380:-1 2381:-0.490374 2382:-0.974152 2383:-0.516677 2384:-1 2385:-0.734522 2386:-0.621386 2387:-0.994464 2388:-0.778289 2389:-0.979908 2390:-0.192509 2391:-0.984916 2392:-1 2393:-0.434653 2394:-0.961798 2395:-0.927039 2396:-0.80455 2397:-0.982835 2398:-0.973415 2399:-0.867574 2400:-0.979025 2401:-0.94476 2402:-1 2403:-0.93539 2404:-0.819519 2405:-0.998545 2406:-0.765549 2407:-0.859768 2408:-0.759263 2409:-0.978858 2410:-0.970956 2411:-0.83689 2412:-0.976426 2413:-0.952406 2414:-0.797794 2415:-1 2416:-0.996188 2417:-0.808798 2418:-0.984403 2419:-0.78504 2420:-1 2421:-0.915821 2422:-0.917179 2423:-0.955471 2424:-0.975543 2425:-0.942198 2426:-0.790998 2427:-1 2428:-0.995891 2429:-0.786835 2430:-0.982456 2431:-0.908434 2432:-0.944948 2433:-0.989042 2434:-0.973053 2435:-0.957298 2436:-0.988666 2437:-0.8954 2438:-0.997713 2439:-0.985442 2440:-0.91447 2441:-0.850163 2442:-0.988152 2443:-0.899305 2444:-0.926393 2445:-0.987716 2446:-0.969737 2447:-0.942904 2448:-0.987295 2449:-0.815247 2450:-0.443849 2451:-0.980768 2452:-0.997167 2453:0.114325 2454:-0.971527 2455:-0.260173 2456:-0.996982 2457:-0.742846 2458:-0.0607139 2459:-0.954385 2460:-0.901126 2461:-0.759517 2462:-0.377049 2463:-0.978979 2464:-0.996911 2465:0.23805 2466:-0.968423 2467:-0.972085 2468:-0.633616 2469:-0.995125 2470:-0.993463 2471:-0.649124 2472:-0.998834 2473:-0.877334 2474:-1 2475:-1 2476:-0.709178 2477:-0.902686 2478:-0.859288 2479:-0.906201 2480:-0.597345 2481:-0.994415 2482:-0.992879 2483:-0.62183 2484:-0.998664 2485:-0.990061 2486:-0.754048 2487:-0.981189 2488:-1 2489:-0.959114 2490:-0.984649 2491:-0.882586 2492:-1 2493:-0.998762 2494:-0.831418 2495:-0.971189 2496:-0.919506 2497:-0.981348 2498:-0.734811 2499:-0.975587 2500:-1 2501:-0.946937 2502:-0.980078 2503:-0.908923 2504:-0.952707 2505:-0.985781 2506:-0.930285 2507:-0.959857 2508:-0.990282 2509:-0.97474 2510:-0.973155 2511:-0.97413 2512:-0.957021 2513:-0.916352 2514:-0.951651 2515:-0.893926 2516:-0.936085 2517:-0.982419 2518:-0.911723 2519:-0.950019 2520:-0.988581 
1 0 0 0.6625363556027577 0.10465532952938 1:-0.399189 2:-0.471883 3:-0.966229 4:-0.384329 5:-0.24737 6:-0.517141 7:-0.538575 8:-0.815533 9:0.198173 10:-0.661167 11:-0.825077 12:-0.51205 13:-0.48433 14:-0.419942 15:-0.968321 16:-0.491493 17:-0.14516 18:-0.566825 19:-0.565123 20:-0.454425 21:-1 22:-0.623331 23:-0.0779965 24:-0.691403 25:-0.542489 26:-0.712317 27:0.0926582 28:-0.694482 29:-0.792492 30:-0.623559 31:-0.521995 32:-0.435123 33:-1 34:-0.636755 35:-0.0171772 36:-0.654183 37:-0.920171 38:-0.436656 39:-0.85318 40:-0.731518 41:-0.251874 42:-0.851143 43:-0.602285 44:-0.308331 45:0.639405 46:-0.887651 47:-0.769636 48:-0.887202 49:-0.690443 50:-0.388764 51:-0.859112 52:-0.737904 53:-0.183115 54:-0.857459 55:-0.76017 56:-0.616459 57:-0.863142 58:-0.596552 59:-0.350951 60:-0.865746 61:-0.786045 62:-0.00106196 63:0.139532 64:-0.776257 65:-0.758234 66:-0.69782 67:-0.688286 68:-0.599066 69:-0.842336 70:-0.593465 71:-0.320486 72:-0.83745 73:-0.866085 74:0.241206 75:-0.942067 76:-0.897321 77:0.982997 78:-1 79:-0.0868128 80:-0.695887 81:0.103925 82:-0.00313121 83:-0.926455 84:-0.759337 85:-0.831282 86:0.299883 87:-0.930126 88:-0.907304 89:1 90:-1 91:0.0454849 92:-0.0870387 93:-0.797552 94:-0.406682 95:0.663461 96:-0.428605 97:0.0184136 98:-0.841512 99:1 100:-0.555175 101:-0.943421 102:-0.152811 103:0.166898 104:-0.0165527 105:-0.793369 106:-0.378297 107:0.791903 108:-0.416799 109:-0.935601 110:-0.383552 111:0.399025 112:-0.884897 113:0.6924 114:1 115:-0.935164 116:0.356736 117:0.189808 118:0.174033 119:0.488386 120:-0.180467 121:-0.917214 122:-0.138059 123:0.240825 124:-0.845214 125:0.688363 126:1 127:-0.853495 128:-0.36899 129:-0.56874 130:-0.911946 131:0.538053 132:-0.438948 133:-0.908601 134:-0.105786 135:0.626978 136:-0.649106 137:0.253617 138:-0.139921 139:-0.81417 140:-0.268756 141:-0.495312 142:-0.910914 143:0.542625 144:-0.343425 145:-0.989477 146:-0.473878 147:-0.962086 148:-0.819724 149:-0.377905 150:-0.891647 151:-0.519258 152:-0.92064 153:-0.583301 154:-0.365578 155:-0.990384 156:-0.981599 157:-0.838537 158:-0.449959 159:-0.960837 160:-0.816546 161:-0.354257 162:-0.886706 163:-0.962303 164:-0.529154 165:-0.494587 166:-0.979786 167:0.0639224 168:-0.870124 169:-0.257318 170:-0.98716 171:0.191969 172:-0.564676 173:-0.996527 174:-0.565664 175:-0.966092 176:-0.419641 177:-0.371148 178:-0.975402 179:0.311334 180:-0.832224 181:-0.571951 182:-0.635382 183:-0.974145 184:-0.333667 185:-0.0928034 186:-0.865792 187:-0.705641 188:-0.811612 189:0.167398 190:-0.352086 191:-0.5939 192:-0.464896 193:-0.473905 194:-0.559985 195:-0.968377 196:-0.193833 197:0.0950503 198:-0.824083 199:-0.163176 200:-0.694814 201:-0.92072 202:0.554804 203:0.15491 204:-0.892208 205:-0.64754 206:-0.721549 207:0.527109 208:-0.182618 209:-0.461662 210:-0.443304 211:-0.0229861 212:-0.662905 213:-0.905098 214:0.773426 215:0.168787 216:-0.869066 217:-0.922014 218:-0.877552 219:-0.957219 220:-0.909291 221:-0.786298 222:-0.901238 223:-0.879859 224:-0.923669 225:-0.727254 226:-0.789109 227:-0.941301 228:-0.889818 229:-0.906306 230:-0.872891 231:-0.953498 232:-0.903267 233:-0.779824 234:-0.892647 235:-0.989853 236:-0.549532 237:-0.96077 238:-0.9702 239:-0.723996 240:-0.971423 241:-0.687835 242:-0.825145 243:-0.962584 244:-0.805965 245:-0.846614 246:-0.985274 247:-0.989398 248:-0.511357 249:-0.957936 250:-0.968532 251:-0.700885 252:-0.969358 253:-0.986327 254:-0.548401 255:-0.782383 256:-0.964379 257:-0.850608 258:-0.700807 259:-0.796085 260:-0.846282 261:-0.796314 262:-0.843665 263:-0.930754 264:-0.510466 265:-0.96865 266:-0.529151 267:-0.767769 268:-0.962541 269:-0.845801 270:-0.677758 271:-0.962574 272:-0.951055 273:-0.426742 274:-0.857325 275:-0.929584 276:-0.499298 277:-0.983908 278:-0.415447 279:-0.919428 280:-0.887252 281:-0.444987 282:-0.790868 283:-0.915337 284:-0.949266 285:-0.394875 286:-0.851742 287:-0.92607 288:-0.480632 289:-0.832992 290:-0.78083 291:-0.997116 292:-0.759744 293:-0.74664 294:-0.915914 295:-0.762867 296:-0.916697 297:-0.772871 298:-0.600829 299:-0.970405 300:-0.86819 301:-0.774924 302:-0.775275 303:-0.996914 304:-0.751601 305:-0.740459 306:-0.91004 307:-0.99954 308:-0.753755 309:-0.994675 310:-0.998667 311:-0.76812 312:-0.993447 313:-0.833943 314:-0.986018 315:-0.976559 316:-0.815705 317:-0.969858 318:-0.995856 319:-0.987361 320:-0.734995 321:-0.994101 322:-0.998524 323:-0.757113 324:-0.992741 325:-0.943013 326:-0.708623 327:-0.919904 328:-0.869475 329:-0.849286 330:-0.949892 331:-0.885153 332:-0.979953 333:-0.933099 334:-0.786842 335:-0.970569 336:-0.758617 337:-0.933405 338:-0.684855 339:-0.912613 340:-0.858852 341:-0.845144 342:-0.945331 343:-0.885683 344:-0.712264 345:-0.951815 346:-0.7623 347:-0.759452 348:-0.887406 349:-0.790985 350:-0.815288 351:-0.851853 352:-0.74957 353:-0.68578 354:-0.852148 355:-0.879596 356:-0.695655 357:-0.948506 358:-0.746746 359:-0.745581 360:-0.879674 361:-0.561124 362:-0.77214 363:-0.988774 364:-0.33213 365:-0.230832 366:-0.6748 367:-0.591241 368:-0.916962 369:0.29161 370:-0.809049 371:-0.972722 372:-0.804448 373:-0.578412 374:-0.731358 375:-0.988252 376:-0.457415 377:-0.148822 378:-0.718862 379:-0.674416 380:-0.750104 381:-1 382:-0.57717 383:-0.0868342 384:-0.889937 385:-0.506819 386:-0.847668 387:-0.0323205 388:-0.759998 389:-0.967288 390:-0.875627 391:-0.65122 392:-0.738825 393:-1 394:-0.592584 395:-0.0304652 396:-0.865661 397:-1 398:-0.801261 399:-0.881002 400:-0.739752 401:-0.305745 402:-1 403:-0.54895 404:-0.667665 405:0.0411726 406:-1 407:-1 408:-1 409:-0.991526 410:-0.776634 411:-0.876547 412:-0.717491 413:-0.229604 414:-1 415:-0.966196 416:-0.894914 417:-0.942329 418:-0.667071 419:-0.424986 420:-0.973999 421:-0.81977 422:-0.404419 423:-0.0305185 424:-0.86723 425:-1 426:-1 427:-0.958731 428:-0.887471 429:-0.941363 430:-0.636912 431:-0.391478 432:-0.967067 433:-0.964769 434:-0.336737 435:-0.965384 436:-0.872141 437:0.594104 438:-1 439:-0.584845 440:-0.832246 441:-0.212236 442:-0.162012 443:-1 444:-1 445:-1 446:-0.369141 447:-0.958632 448:-0.882673 449:0.743659 450:-1 451:-0.512364 452:-0.239503 453:-0.984516 454:-0.902866 455:0.327095 456:-0.574512 457:0.0319344 458:-0.986652 459:1 460:-0.601502 461:-0.982533 462:-0.701188 463:-0.239234 464:-0.11932 465:-0.981784 466:-0.885728 467:0.510684 468:-0.49944 469:-0.988851 470:-0.502256 471:-0.574999 472:-0.91873 473:0.3303 474:0.329049 475:-0.9577 476:-0.759239 477:0.554079 478:-0.0803066 479:-0.234493 480:-0.280697 481:-0.983596 482:-0.265031 483:-0.620785 484:-0.879997 485:0.436238 486:0.408011 487:-0.988117 488:-0.480378 489:-0.752171 490:-0.9751 491:0.436261 492:-0.549992 493:-0.890815 494:-0.909219 495:1 496:-0.437086 497:-0.238941 498:-0.37776 499:-0.986107 500:-0.392541 501:-0.683837 502:-0.973456 503:0.482593 504:-0.461391 505:-1 506:-0.75957 507:-0.988928 508:-0.831171 509:-0.574498 510:-1 511:-0.603536 512:-0.936394 513:-0.63126 514:-0.724798 515:-1 516:-1 517:-1 518:-0.747754 519:-0.988609 520:-0.816584 521:-0.47678 522:-1 523:-0.959286 524:-0.794096 525:-0.501895 526:-0.983774 527:-0.261991 528:-0.901789 529:0.278168 530:-0.984243 531:-0.545601 532:-0.587219 533:-0.998137 534:-0.934646 535:-0.94727 536:-0.682447 537:-0.498421 538:-0.974975 539:-0.125381 540:-0.89503 541:-0.860934 542:-0.539268 543:-0.989516 544:-0.811762 545:-0.475564 546:-0.868181 547:-0.61678 548:-0.997875 549:-0.124154 550:-0.525734 551:-0.641539 552:-0.660037 553:-0.786544 554:-0.382623 555:-0.985952 556:-0.71211 557:-0.36891 558:-0.823363 559:-0.359272 560:-0.614896 561:-0.972087 562:-0.371341 563:-0.26622 564:-0.861927 565:-0.158939 566:-0.953917 567:-0.142541 568:-0.422985 569:-0.570728 570:-0.579821 571:-0.240925 572:-0.529231 573:-0.967547 574:-0.248857 575:-0.165476 576:-0.831213 577:-0.72558 578:-0.90363 579:-0.932794 580:-0.791031 581:-0.710774 582:-0.855125 583:-0.660843 584:-0.952079 585:-0.640277 586:-0.849576 587:-0.978247 588:-0.916168 589:-0.717564 590:-0.899932 591:-0.930628 592:-0.783388 593:-0.702574 594:-0.85117 595:-0.994384 596:-0.342475 597:-0.94857 598:-0.973857 599:-0.569337 600:-0.967502 601:-0.675606 602:-0.76882 603:-0.960474 604:-0.816393 605:-0.807771 606:-0.984783 607:-0.993825 608:-0.306175 609:-0.945088 610:-0.971046 611:-0.556422 612:-0.965151 613:-0.955499 614:-0.497063 615:-0.617068 616:-0.946195 617:-0.878142 618:-0.493511 619:-0.651106 620:-0.652565 621:-0.757099 622:-0.802091 623:-0.910657 624:-0.312336 625:-0.957065 626:-0.487768 627:-0.589394 628:-0.942306 629:-0.868466 630:-0.463185 631:-0.941273 632:-0.989702 633:-0.728989 634:-0.771896 635:-0.851964 636:-0.706518 637:-0.994706 638:-0.76855 639:-0.874689 640:-0.819334 641:-0.875784 642:-0.669499 643:-0.878315 644:-0.989154 645:-0.694053 646:-0.764078 647:-0.842075 648:-0.668683 649:-0.692042 650:-0.907192 651:-1 652:-0.62881 653:-0.732876 654:-0.840571 655:-0.776086 656:-0.843293 657:-0.730168 658:-0.757756 659:-0.985445 660:-0.935274 661:-0.646138 662:-0.904445 663:-1 664:-0.61389 665:-0.725996 666:-0.83895 667:-0.995951 668:-0.936154 669:-0.992445 670:-1 671:-0.891704 672:-0.978788 673:-0.930406 674:-0.972435 675:-0.936946 676:-0.957247 677:-0.975842 678:-0.990607 679:-0.981306 680:-0.931636 681:-0.992109 682:-1 683:-0.887072 684:-0.977533 685:-0.901982 686:-0.850514 687:-0.966621 688:-0.796142 689:-0.922588 690:-0.980452 691:-0.911552 692:-0.996754 693:-0.926499 694:-0.774671 695:-0.975101 696:-0.79072 697:-0.890151 698:-0.832483 699:-0.965298 700:-0.775434 701:-0.91948 702:-0.978466 703:-0.882441 704:-0.545162 705:-0.961799 706:-0.846302 707:-0.556639 708:-0.945459 709:-0.759823 710:-0.957518 711:-0.764113 712:-0.77034 713:-0.922152 714:-0.833284 715:-0.875779 716:-0.524062 717:-0.957932 718:-0.833621 719:-0.536071 720:-0.942661 721:-0.493177 722:0.124396 723:-0.919028 724:-0.841977 725:-0.493801 726:-0.889736 727:-0.816578 728:-0.744077 729:-0.704769 730:-0.614 731:-0.673674 732:-0.0308815 733:-0.58411 734:0.149445 735:-0.938741 736:-0.886931 737:-0.489459 738:-0.894628 739:-0.732794 740:-0.0112872 741:-1 742:-0.948646 743:-0.401249 744:-0.938783 745:-0.824189 746:-0.820039 747:-0.530122 748:-0.830409 749:-0.587236 750:-0.00124399 751:-0.481578 752:0.00783528 753:-1 754:-0.951597 755:-0.412557 756:-0.940933 757:-0.799812 758:0.398442 759:-1 760:-0.974264 761:-0.189636 762:-0.45197 763:-0.526161 764:-0.849626 765:0.657063 766:-0.647491 767:-0.532954 768:-0.450122 769:-0.291156 770:0.333206 771:-1 772:-0.976466 773:-0.228878 774:-0.499629 775:-0.485956 776:-0.120858 777:-0.851248 778:-0.981022 779:-0.448913 780:-0.500559 781:-0.935745 782:-0.941556 783:-0.690625 784:-0.678823 785:-0.486026 786:0.37434 787:-0.267241 788:-0.106107 789:-0.831221 790:-0.979947 791:-0.450419 792:-0.412437 793:-0.79175 794:0.906293 795:-1 796:-0.976897 797:0.230637 798:-1 799:0.551743 800:-0.856358 801:-0.488391 802:-0.272916 803:-0.877922 804:-0.173491 805:-0.665924 806:1 807:-1 808:-0.979877 809:0.197412 810:-1 811:0.844718 812:0.216481 813:0.0505491 814:0.285121 815:0.437115 816:-0.536617 817:-0.181689 818:-0.750628 819:1 820:-0.883371 821:-0.945915 822:0.687972 823:0.796204 824:0.162323 825:-0.164749 826:0.264728 827:0.373133 828:-0.666388 829:-0.864874 830:-0.358223 831:1 832:-0.772913 833:0.00781217 834:0.881466 835:-0.826859 836:0.658445 837:-0.301556 838:-0.912029 839:0.765602 840:-0.0988996 841:-0.829851 842:-0.395999 843:0.73853 844:-0.715865 845:0.260995 846:0.750098 847:-0.746956 848:-0.415921 849:-0.51654 850:-0.798908 851:-0.714151 852:-0.369501 853:-0.963297 854:0.483714 855:-0.0912854 856:-0.968703 857:0.415705 858:0.0533206 859:-0.68259 860:-0.449623 861:-0.382183 862:-0.791122 863:-0.669946 864:-0.194281 865:-0.977887 866:-0.409587 867:-0.941985 868:-1 869:-0.640206 870:-0.803344 871:-0.391652 872:-0.987792 873:-0.829369 874:-0.584028 875:-0.990467 876:-0.954737 877:-0.728797 878:-0.376707 879:-0.94018 880:-1 881:-0.629525 882:-0.802542 883:-0.969234 884:-0.599125 885:-0.738041 886:-1 887:0.718035 888:-0.87894 889:-0.812367 890:-0.985559 891:0.944552 892:-0.934749 893:-0.992804 894:-0.546423 895:-0.981149 896:-0.48876 897:-0.712196 898:-1 899:0.645992 900:-0.854516 901:0.00385627 902:-0.805196 903:-0.954042 904:1 905:-0.412547 906:-0.811361 907:-0.896858 908:-0.631255 909:0.581422 910:-0.852474 911:-0.832988 912:-0.219054 913:0.156937 914:-0.755927 915:-0.943887 916:1 917:-0.470072 918:-0.792257 919:0.0331992 920:-0.841745 921:-0.918265 922:1 923:-0.716493 924:-0.95201 925:-0.8381 926:-0.639187 927:0.726096 928:-0.914248 929:-0.705954 930:-0.362677 931:0.167681 932:-0.82153 933:-0.902166 934:1 935:-0.736873 936:-0.949669 937:-0.972761 938:-0.885125 939:-0.996113 940:-0.994704 941:-0.947179 942:-0.996084 943:-0.946709 944:-0.935336 945:-0.976278 946:-0.935488 947:-0.948361 948:-0.92752 949:-0.954754 950:-0.880584 951:-0.99561 952:-0.994115 953:-0.94518 954:-0.995577 955:-0.983854 956:-0.944855 957:-0.988365 958:-0.98651 959:-0.976559 960:-1 961:-0.968202 962:-0.958981 963:-1 964:-0.985207 965:-0.978445 966:-0.99009 967:-0.974235 968:-0.942812 969:-0.986101 970:-0.985207 971:-0.971996 972:-1 973:-0.992715 974:-0.817191 975:-0.986015 976:-0.986506 977:-0.918273 978:-0.983501 979:-0.866116 980:-0.978852 981:-0.986726 982:-0.925252 983:-0.984753 984:-0.945694 985:-0.987506 986:-0.79736 987:-0.984774 988:-0.985426 989:-0.909408 990:-0.982418 991:-0.977681 992:-0.946379 993:-0.454286 994:-0.913523 995:-0.994017 996:-0.635733 997:-0.970565 998:-0.571224 999:-0.97358 1000:-0.950791 1001:-0.570194 1002:-0.927018 1003:-0.979725 1004:-0.94149 1005:-0.423483 1006:-0.909829 1007:-0.993565 1008:-0.622188 1009:-0.967007 1010:-0.779976 1011:-0.99444 1012:-0.975264 1013:-0.847938 1014:-1 1015:-0.971729 1016:-0.986026 1017:-0.930864 1018:-0.752605 1019:-0.976406 1020:-0.823071 1021:-0.947745 1022:-0.77319 1023:-0.993892 1024:-0.972828 1025:-0.843544 1026:-1 1027:-0.993308 1028:-0.715732 1029:-0.996785 1030:-0.997716 1031:-0.642415 1032:-0.99706 1033:-0.746329 1034:-0.995303 1035:-1 1036:-0.647178 1037:-0.990537 1038:-1 1039:-0.992224 1040:-0.682982 1041:-0.99631 1042:-0.997379 1043:-0.629657 1044:-0.996626 1045:-0.978751 1046:-0.782993 1047:-0.90335 1048:-0.969019 1049:-0.845454 1050:-0.924829 1051:-0.818814 1052:-0.975601 1053:-0.992014 1054:-0.820082 1055:-0.978382 1056:-0.984805 1057:-0.970393 1058:-0.763037 1059:-0.895056 1060:-0.966169 1061:-0.832193 1062:-0.916174 1063:-0.935519 1064:-0.852801 1065:-0.985343 1066:-0.716447 1067:-0.917635 1068:-0.899927 1069:-0.945811 1070:-0.737596 1071:-0.930397 1072:-0.972663 1073:-0.62197 1074:-0.868865 1075:-0.916435 1076:-0.842607 1077:-0.982648 1078:-0.689878 1079:-0.911932 1080:-0.881532 1081:-0.455349 1082:-1 1083:-1 1084:-0.367992 1085:-0.397952 1086:-0.69627 1087:-0.990543 1088:-0.992576 1089:0.794921 1090:-0.892279 1091:-0.956022 1092:-0.553497 1093:-0.459704 1094:-1 1095:-1 1096:-0.465125 1097:-0.324234 1098:-0.678354 1099:-0.708988 1100:-1 1101:-1 1102:-0.548611 1103:-0.195835 1104:-0.725139 1105:-1 1106:-0.868774 1107:0.283674 1108:-0.911604 1109:-0.965376 1110:-0.666771 1111:-0.480162 1112:-1 1113:-1 1114:-0.554876 1115:-0.163374 1116:-0.721465 1117:-1 1118:-0.991104 1119:-1 1120:-0.537317 1121:-0.911427 1122:-1 1123:-1 1124:-0.672144 1125:-0.571116 1126:-1 1127:-1 1128:-1 1129:-0.989489 1130:-0.985372 1131:-1 1132:-0.436492 1133:-0.854316 1134:-1 1135:-1 1136:-1 1137:-0.969754 1138:-0.544013 1139:-0.59435 1140:-1 1141:-1 1142:-0.451438 1143:-0.359603 1144:-1 1145:-1 1146:-1 1147:-1 1148:-1 1149:-0.96795 1150:-0.488301 1151:-0.583331 1152:-1 1153:-1 1154:-1 1155:-0.884138 1156:-0.810698 1157:-0.254469 1158:-1 1159:-0.983083 1160:-0.879256 1161:1 1162:-1 1163:-1 1164:-1 1165:-1 1166:-1 1167:-0.886043 1168:-0.809178 1169:-0.137695 1170:-1 1171:-0.992169 1172:-0.28488 1173:-1 1174:-0.969222 1175:0.216292 1176:-0.727716 1177:-0.994472 1178:-1 1179:0.66991 1180:-0.656187 1181:-0.966722 1182:-0.834131 1183:-0.762714 1184:-0.435967 1185:-1 1186:-0.974398 1187:0.359836 1188:-0.682635 1189:-0.998658 1190:-0.86039 1191:-0.69608 1192:-0.955163 1193:-0.16114 1194:0.468162 1195:-1 1196:-0.987725 1197:-0.00135611 1198:-0.0532667 1199:-0.637482 1200:-0.517635 1201:-0.998217 1202:-0.77799 1203:-0.647716 1204:-0.9394 1205:-0.107338 1206:0.701804 1207:-1 1208:-0.723246 1209:-0.840008 1210:-0.990146 1211:0.125523 1212:-0.718389 1213:-1 1214:-1 1215:0.0210893 1216:-0.160043 1217:-0.680567 1218:-0.589849 1219:-1 1220:-0.675441 1221:-0.77208 1222:-0.981399 1223:0.175425 1224:-0.598824 1225:-1 1226:-1 1227:-1 1228:-0.553474 1229:-0.738106 1230:-1 1231:-0.994905 1232:-0.956383 1233:-0.283662 1234:-0.401798 1235:-1 1236:-1 1237:-1 1238:-1 1239:-1 1240:-0.532966 1241:-0.679835 1242:-1 1243:-0.902064 1244:-0.98479 1245:-0.99216 1246:-0.869725 1247:0.516003 1248:-0.965687 1249:-0.91929 1250:-0.998643 1251:-0.163994 1252:-0.597736 1253:-0.99466 1254:-1 1255:-0.849201 1256:-0.984438 1257:-0.991599 1258:-0.868646 1259:1 1260:-0.95837 1261:-0.969557 1262:-0.910257 1263:-1 1264:-0.954323 1265:-0.674941 1266:-0.928439 1267:-0.914987 1268:-0.998308 1269:-0.875607 1270:-0.619707 1271:-0.768029 1272:-0.997381 1273:-0.938299 1274:-0.874662 1275:-1 1276:-0.908897 1277:-0.534717 1278:-0.862266 1279:-0.5501 1280:-0.96379 1281:-0.988 1282:-0.857452 1283:-0.280205 1284:-0.807345 1285:-0.578007 1286:-1 1287:-0.855652 1288:0.28529 1289:-0.655061 1290:-0.908613 1291:-0.413347 1292:-0.955374 1293:-0.98743 1294:-0.821908 1295:-0.14744 1296:-0.784233 1297:-0.785554 1298:-0.993214 1299:-0.903634 1300:-0.808604 1301:-0.278696 1302:-0.820679 1303:-0.99259 1304:-0.983777 1305:-0.0543696 1306:-1 1307:-0.984585 1308:-0.743314 1309:-0.749628 1310:-0.992967 1311:-0.892911 1312:-0.787304 1313:-0.266603 1314:-0.815333 1315:-0.98987 1316:-0.245051 1317:-0.929837 1318:-0.994833 1319:-0.514969 1320:-0.952816 1321:-0.558367 1322:-0.620946 1323:-0.929777 1324:-0.784495 1325:-0.995808 1326:-1 1327:-0.98861 1328:-0.175256 1329:-0.928233 1330:-0.99454 1331:-0.494525 1332:-0.948453 1333:-1 1334:-0.634887 1335:-0.700953 1336:-0.983464 1337:-0.973136 1338:-0.328203 1339:-0.937221 1340:-0.543341 1341:-0.851921 1342:-0.933775 1343:-0.878019 1344:-0.663002 1345:-1 1346:-0.615785 1347:-0.646424 1348:-0.982826 1349:-0.971426 1350:-0.287212 1351:-0.971538 1352:-1 1353:-0.95558 1354:-0.821634 1355:-0.939511 1356:-0.986544 1357:-1 1358:-0.96308 1359:-0.969373 1360:-0.946406 1361:-0.974383 1362:-0.931564 1363:-0.968284 1364:-1 1365:-0.904439 1366:-0.814318 1367:-0.919768 1368:-0.971053 1369:-0.792297 1370:-0.993557 1371:-1 1372:-0.853139 1373:-0.390006 1374:-0.818455 1375:-0.980813 1376:-0.654936 1377:-0.462753 1378:-0.732328 1379:-0.982152 1380:-0.806053 1381:-0.728018 1382:-0.99337 1383:-1 1384:-0.838482 1385:-0.393251 1386:-0.816447 1387:-0.988139 1388:-1 1389:-1 1390:-1 1391:-0.960608 1392:-0.984725 1393:-0.993219 1394:-0.992372 1395:-0.93618 1396:-0.989291 1397:-0.989736 1398:-1 1399:-1 1400:-1 1401:-1 1402:-1 1403:-0.957592 1404:-0.982826 1405:-0.934906 1406:-0.986649 1407:-0.958155 1408:-0.644302 1409:-0.969135 1410:-1 1411:-0.938761 1412:-1 1413:-0.951109 1414:-0.638634 1415:-0.989315 1416:-0.957564 1417:-0.881873 1418:-0.984549 1419:-0.955404 1420:-0.624003 1421:-0.964281 1422:-1 1423:-0.909755 1424:-0.676857 1425:-0.993289 1426:-0.886781 1427:-0.573035 1428:-0.987693 1429:-0.570415 1430:-0.978889 1431:-0.790674 1432:-0.330014 1433:-0.95875 1434:-1 1435:-0.919882 1436:-0.64581 1437:-0.992809 1438:-0.881006 1439:-0.532013 1440:-0.987186 1441:-0.888004 1442:-0.40738 1443:-0.971851 1444:-0.471348 1445:-0.043911 1446:-1 1447:-0.265215 1448:-0.836305 1449:0.0651624 1450:-0.711849 1451:-1 1452:-1 1453:-0.960632 1454:-0.40257 1455:-0.973527 1456:-0.581395 1457:-0.0460571 1458:-1 1459:-1 1460:-0.435254 1461:-1 1462:-0.68988 1463:0.0453202 1464:-1 1465:-0.132606 1466:-0.880851 1467:-0.0988895 1468:-0.638466 1469:-1 1470:-1 1471:-1 1472:-0.427291 1473:-1 1474:-0.702125 1475:0.0355321 1476:-1 1477:-1 1478:-0.597091 1479:-0.752398 1480:-0.985669 1481:0.177955 1482:-1 1483:0.0658698 1484:-0.817223 1485:0.671226 1486:-1 1487:-1 1488:-1 1489:-1 1490:-0.582883 1491:-0.760274 1492:-0.985636 1493:0.344561 1494:-1 1495:-0.920655 1496:-0.79331 1497:-0.917053 1498:-0.938365 1499:-0.213732 1500:-0.917115 1501:-0.787878 1502:-0.682211 1503:0.140865 1504:-0.756054 1505:-1 1506:-1 1507:-0.91013 1508:-0.781223 1509:-0.916169 1510:-0.933592 1511:-0.173986 1512:-0.910719 1513:-0.943561 1514:0.0960395 1515:-0.956921 1516:-0.98424 1517:0.911321 1518:-1 1519:-0.343788 1520:-0.805608 1521:-0.853391 1522:1 1523:-1 1524:-1 1525:-1 1526:0.0598355 1527:-0.948544 1528:-0.986284 1529:0.911352 1530:-1 1531:-0.040586 1532:-0.124836 1533:-0.93921 1534:-0.871918 1535:0.506648 1536:-1 1537:1 1538:-0.978179 1539:0.748421 1540:-0.750192 1541:-1 1542:-0.70471 1543:0.0905727 1544:0.0112487 1545:-0.935018 1546:-0.863085 1547:0.735801 1548:-1 1549:-0.987906 1550:1 1551:-0.861196 1552:-0.816086 1553:0.497031 1554:-0.111514 1555:-0.710324 1556:-0.594752 1557:0.707914 1558:-0.950835 1559:-0.339126 1560:-0.33038 1561:-0.987147 1562:1 1563:-0.837746 1564:-0.858779 1565:0.519952 1566:-0.0965486 1567:-0.981863 1568:0.378378 1569:-0.676829 1570:-0.986079 1571:0.558216 1572:-0.544969 1573:-0.741611 1574:-0.833128 1575:1 1576:-1 1577:-0.0836628 1578:-0.440944 1579:-0.97966 1580:0.54585 1581:-0.602898 1582:-0.987932 1583:0.486716 1584:-0.452611 1585:-1 1586:-0.593972 1587:-0.980699 1588:-0.989082 1589:-0.374121 1590:-1 1591:-0.299877 1592:-0.949492 1593:-0.603085 1594:-0.684461 1595:-1 1596:-1 1597:-1 1598:-0.579912 1599:-0.980457 1600:-0.988282 1601:-0.239465 1602:-1 1603:-1 1604:-0.688113 1605:-0.55603 1606:-1 1607:-0.508007 1608:-0.929438 1609:-0.0633089 1610:-0.983521 1611:-0.494616 1612:-1 1613:-1 1614:-0.887233 1615:-1 1616:-0.631141 1617:-0.515699 1618:-1 1619:-0.383591 1620:-0.923091 1621:-0.748539 1622:-0.158541 1623:-0.987662 1624:-0.601735 1625:-0.5942 1626:-0.969183 1627:-0.492928 1628:-1 1629:0.00239226 1630:-0.951903 1631:-0.913723 1632:-0.48481 1633:-0.668036 1634:-0.126473 1635:-0.983868 1636:-0.446606 1637:-0.51772 1638:-0.959706 1639:-0.577216 1640:-0.252651 1641:-0.985407 1642:-0.375802 1643:-0.649702 1644:-0.96146 1645:-0.515112 1646:-0.90306 1647:0.0713054 1648:-0.944425 1649:-0.806425 1650:-0.516494 1651:-0.51295 1652:-0.230031 1653:-0.982218 1654:-0.231167 1655:-0.603459 1656:-0.953038 1657:-1 1658:-0.837506 1659:-1 1660:-0.898206 1661:-0.74972 1662:-0.985301 1663:-0.496967 1664:-0.92756 1665:-0.762564 1666:-0.741872 1667:-0.979253 1668:-0.975968 1669:-1 1670:-0.830809 1671:-1 1672:-0.893319 1673:-0.739984 1674:-0.984809 1675:-1 1676:-0.772408 1677:-0.984017 1678:-0.954579 1679:-0.792764 1680:-1 1681:-0.806484 1682:-0.808334 1683:-0.978691 1684:-0.913398 1685:-0.620025 1686:-0.978926 1687:-1 1688:-0.759102 1689:-0.982437 1690:-0.950089 1691:-0.780648 1692:-1 1693:-0.941055 1694:-0.735155 1695:-0.900677 1696:-0.927188 1697:-0.878179 1698:-0.833893 1699:-0.530711 1700:-0.9649 1701:-0.957579 1702:-0.788367 1703:-0.945545 1704:-0.90186 1705:-0.936491 1706:-0.726816 1707:-0.890986 1708:-0.921549 1709:-0.864748 1710:-0.825118 1711:-0.926087 1712:-0.987159 1713:-0.787254 1714:-0.902836 1715:-1 1716:-0.71293 1717:-0.990383 1718:-0.850365 1719:-0.991346 1720:-0.835527 1721:-0.904321 1722:-0.75463 1723:-0.808825 1724:-0.985584 1725:-0.740418 1726:-0.887326 1727:-1 1728:-0.649732 1729:-0.985864 1730:-0.840317 1731:-1 1732:-0.756445 1733:-0.737253 1734:-0.989416 1735:-0.693215 1736:-0.966651 1737:-0.747889 1738:-0.739459 1739:-1 1740:-1 1741:-1 1742:-0.835173 1743:-1 1744:-0.749596 1745:-0.728374 1746:-0.989246 1747:-1 1748:-0.899873 1749:-0.985078 1750:-1 1751:-0.904383 1752:-1 1753:-0.895086 1754:-0.965132 1755:-1 1756:-0.935269 1757:-0.964578 1758:-0.988091 1759:-0.969577 1760:-0.892233 1761:-0.984465 1762:-1 1763:-0.902204 1764:-1 1765:-0.955319 1766:-0.775737 1767:-1 1768:-1 1769:-0.946553 1770:-0.964467 1771:-0.940273 1772:-0.994797 1773:-1 1774:-0.923455 1775:-0.980186 1776:-0.737349 1777:-0.94284 1778:-0.742778 1779:-1 1780:-1 1781:-0.938698 1782:-0.960376 1783:-0.878058 1784:-0.771526 1785:-0.938157 1786:-0.91024 1787:-0.956342 1788:-0.928749 1789:-0.975895 1790:-0.972087 1791:-0.965639 1792:-0.965252 1793:-0.945785 1794:-0.760355 1795:-0.858027 1796:-0.756276 1797:-0.931087 1798:-0.894386 1799:-0.952805 1800:-0.917649 1801:-0.856327 1802:0.425729 1803:-0.884239 1804:-0.854359 1805:-0.70661 1806:-1 1807:-0.732003 1808:-0.718754 1809:-0.893188 1810:-0.60379 1811:-0.926476 1812:0.0535202 1813:-0.726094 1814:0.417853 1815:-0.91401 1816:-0.87271 1817:-0.71096 1818:-1 1819:-0.75244 1820:0.119285 1821:-1 1822:-0.926851 1823:-0.747414 1824:-1 1825:-0.767424 1826:-0.759499 1827:-0.825009 1828:-0.914723 1829:-0.857439 1830:0.0237743 1831:-0.522082 1832:0.157449 1833:-1 1834:-0.930947 1835:-0.741637 1836:-1 1837:-0.90461 1838:-0.252118 1839:-1 1840:-1 1841:-0.470506 1842:-1 1843:-0.464492 1844:-0.875116 1845:-0.660904 1846:-0.698915 1847:-0.553074 1848:-0.555162 1849:-0.598581 1850:-0.0257687 1851:-1 1852:-1 1853:-0.468648 1854:-1 1855:-0.867915 1856:-0.0994491 1857:-0.752008 1858:-0.973788 1859:-0.618347 1860:-0.742121 1861:-0.933348 1862:-0.937061 1863:-0.778019 1864:-1 1865:-0.326735 1866:0.132667 1867:-0.776779 1868:-0.085923 1869:-0.723442 1870:-0.972567 1871:-0.616981 1872:-0.675098 1873:-0.894845 1874:0.954619 1875:-1 1876:-0.968774 1877:-0.1281 1878:-1 1879:0.792027 1880:-1 1881:-1 1882:-0.146704 1883:-0.83997 1884:-1 1885:-0.838496 1886:1 1887:-1 1888:-0.973415 1889:-0.129156 1890:-1 1891:0.197731 1892:0.198436 1893:0.667061 1894:-0.143438 1895:-0.458757 1896:-0.739445 1897:-0.198584 1898:-0.598634 1899:0.230858 1900:-0.923767 1901:-0.939222 1902:0.704583 1903:0.204363 1904:0.190154 1905:0.362693 1906:-0.12323 1907:-0.462498 1908:-0.753737 1909:-0.658987 1910:-0.274897 1911:1 1912:-0.781153 1913:-0.5936 1914:0.815183 1915:-0.745827 1916:0.585031 1917:-0.578484 1918:-0.869601 1919:0.730173 1920:0.296009 1921:-0.571498 1922:-0.226778 1923:1 1924:-0.725006 1925:-0.489333 1926:0.459752 1927:-0.564325 1928:-0.252155 1929:0.35559 1930:-0.776451 1931:-0.949228 1932:-0.664671 1933:-0.822241 1934:0.377725 1935:-0.626684 1936:-0.969595 1937:0.112104 1938:0.193238 1939:-0.492279 1940:-0.291178 1941:0.259093 1942:-0.761319 1943:-0.940832 1944:-0.569112 1945:-1 1946:-0.416576 1947:-0.906539 1948:-1 1949:-0.812679 1950:-0.738417 1951:-0.341243 1952:-1 1953:-1 1954:-0.577941 1955:-0.988148 1956:-0.939585 1957:-0.783264 1958:-0.384258 1959:-0.905154 1960:-1 1961:-0.806228 1962:-0.702582 1963:-0.984523 1964:-0.664361 1965:-0.62656 1966:-1 1967:-0.00207842 1968:-0.874885 1969:-0.894249 1970:-0.944305 1971:0.0174297 1972:-1 1973:-0.991071 1974:-0.58645 1975:-0.979008 1976:-0.538203 1977:-0.565584 1978:-1 1979:-0.0173347 1980:-0.857413 1981:-0.584734 1982:-0.769481 1983:-0.97559 1984:0.789132 1985:-0.943625 1986:-0.764822 1987:-0.915713 1988:-0.640253 1989:0.0740956 1990:-0.8548 1991:-0.887114 1992:-0.191318 1993:-0.503517 1994:-0.702835 1995:-0.969695 1996:1 1997:-0.944937 1998:-0.742802 1999:-0.459043 2000:-0.848227 2001:-0.908884 2002:0.556763 2003:-0.962334 2004:-0.931816 2005:-0.882592 2006:-0.752368 2007:0.341849 2008:-0.875961 2009:-0.775456 2010:-0.235514 2011:-0.312602 2012:-0.825523 2013:-0.887969 2014:0.914108 2015:-0.963162 2016:-0.929388 2017:-0.950249 2018:-0.8879 2019:-0.993038 2020:-1 2021:-0.972015 2022:-0.992584 2023:-0.954199 2024:-0.891339 2025:-1 2026:-0.942232 2027:-0.936544 2028:-0.914914 2029:-0.93046 2030:-0.882612 2031:-0.992251 2032:-1 2033:-0.970883 2034:-0.991187 2035:-0.981866 2036:-0.945294 2037:-0.982175 2038:-0.965368 2039:-0.95621 2040:-1 2041:-0.952588 2042:-0.941706 2043:-1 2044:-0.981132 2045:-0.953936 2046:-0.985599 2047:-0.970085 2048:-0.939176 2049:-0.980286 2050:-0.963479 2051:-0.953534 2052:-1 2053:-1 2054:-0.77377 2055:-0.989176 2056:-0.988596 2057:-0.905347 2058:-0.979852 2059:-0.755115 2060:-0.987445 2061:-0.990181 2062:-0.901308 2063:-0.99435 2064:-0.968633 2065:-0.99632 2066:-0.75122 2067:-0.988225 2068:-0.987783 2069:-0.895827 2070:-0.978439 2071:-1 2072:-0.818637 2073:-0.573901 2074:-0.887072 2075:-1 2076:-0.719627 2077:-0.992348 2078:-0.675166 2079:-0.965536 2080:-0.921614 2081:-0.574609 2082:-0.793767 2083:-1 2084:-0.81175 2085:-0.549646 2086:-0.878536 2087:-1 2088:-0.707257 2089:-0.970241 2090:-0.759729 2091:-1 2092:-0.978809 2093:-0.874611 2094:-1 2095:-0.975589 2096:-0.975533 2097:-0.99204 2098:-0.786681 2099:-0.994942 2100:-0.774116 2101:-0.955788 2102:-0.750436 2103:-1 2104:-0.976973 2105:-0.871047 2106:-1 2107:-1 2108:-0.850782 2109:-1 2110:-0.997306 2111:-0.79048 2112:-1 2113:-0.912444 2114:-1 2115:-1 2116:-0.81554 2117:-0.991516 2118:-1 2119:-0.994735 2120:-0.846211 2121:-1 2122:-0.996907 2123:-0.783848 2124:-1 2125:-0.996476 2126:-0.807654 2127:-1 2128:-0.99054 2129:-0.853106 2130:-1 2131:-0.898097 2132:-0.99719 2133:-0.989732 2134:-0.91239 2135:-0.979852 2136:-0.971955 2137:-1 2138:-0.802506 2139:-1 2140:-0.989412 2141:-0.835996 2142:-1 2143:-0.912861 2144:-0.966628 2145:-1 2146:-0.813835 2147:-0.990666 2148:-0.996017 2149:-0.942367 2150:-0.950866 2151:-0.966257 2152:-0.98257 2153:-0.924243 2154:-0.964422 2155:-0.910895 2156:-0.960839 2157:-1 2158:-0.798192 2159:-0.989047 2160:-0.995381 2161:-0.478266 2162:-0.64676 2163:-1 2164:-0.859119 2165:0.414566 2166:-0.708583 2167:-1 2168:-0.758893 2169:-0.207669 2170:-0.676706 2171:-0.235325 2172:-0.451076 2173:-0.439119 2174:-0.647779 2175:-1 2176:-0.907929 2177:0.240665 2178:-0.752389 2179:-0.658587 2180:-0.435671 2181:-1 2182:-1 2183:0.622366 2184:-0.832823 2185:-0.921457 2186:-0.876271 2187:0.394593 2188:-0.606073 2189:-0.269598 2190:-0.334684 2191:-0.417028 2192:-0.459182 2193:-1 2194:-1 2195:0.488652 2196:-0.851413 2197:-0.702334 2198:0.224054 2199:-1 2200:-0.954312 2201:-0.307317 2202:0.0686066 2203:-0.742103 2204:-0.859242 2205:0.488472 2206:-0.721114 2207:-0.757828 2208:-0.215296 2209:-0.126196 2210:0.340654 2211:-1 2212:-0.956435 2213:-0.162823 2214:0.00773361 2215:-0.387545 2216:-0.173899 2217:-1 2218:-1 2219:-0.410978 2220:-0.115893 2221:-0.970312 2222:-0.960956 2223:-0.728706 2224:-0.155082 2225:-0.881622 2226:1 2227:0.0717984 2228:-0.140125 2229:-1 2230:-1 2231:-0.33821 2232:-0.17956 2233:-0.830963 2234:0.614688 2235:-1 2236:-1 2237:0.181254 2238:-1 2239:-1 2240:-0.729933 2241:0.692904 2242:-0.337385 2243:-1 2244:1 2245:-0.660574 2246:0.516664 2247:-1 2248:-1 2249:0.251336 2250:-1 2251:0.238644 2252:-0.181878 2253:-1 2254:0.16194 2255:1 2256:-0.821954 2257:-0.765452 2258:-0.939215 2259:1 2260:-0.951666 2261:-1 2262:0.645052 2263:0.0161871 2264:-0.218972 2265:-1 2266:0.00264102 2267:1 2268:-0.829261 2269:-0.974996 2270:-0.46836 2271:0.289601 2272:-0.779851 2273:1 2274:0.308677 2275:-0.944853 2276:0.292066 2277:0.332731 2278:-1 2279:-0.382923 2280:-0.29494 2281:-0.968342 2282:-0.521345 2283:0.240852 2284:-0.787195 2285:1 2286:0.146259 2287:-0.842336 2288:-0.779188 2289:-0.677489 2290:-0.875854 2291:-0.136063 2292:0.212523 2293:-1 2294:0.0172673 2295:0.767133 2296:-1 2297:-0.080864 2298:-0.107637 2299:-0.776513 2300:-0.796353 2301:-0.581772 2302:-0.881909 2303:-0.178207 2304:0.0987696 2305:-0.962998 2306:-0.303615 2307:-1 2308:-1 2309:0.0180669 2310:-0.959364 2311:-0.703166 2312:-0.978075 2313:-0.724784 2314:-0.513736 2315:-0.99501 2316:-1 2317:-0.776645 2318:-0.293912 2319:-1 2320:-1 2321:0.0590254 2322:-0.958673 2323:-0.996525 2324:0.0858226 2325:-0.860935 2326:-1 2327:1 2328:-0.915578 2329:-0.866011 2330:-1 2331:1 2332:-0.792814 2333:-1 2334:0.0321557 2335:-1 2336:0.0991382 2337:-0.857502 2338:-1 2339:1 